{"learner":{"attributes":{"best_iteration":"13","best_score":"0.00689494606432025","scikit_learn":"{\"_estimator_type\": \"regressor\"}"},"feature_names":[],"feature_types":[],"gradient_booster":{"model":{"gbtree_model_param":{"num_parallel_tree":"1","num_trees":"29"},"iteration_indptr":[0,1,2,3,4,5,6,7,8,9,10,11,12,13,14,15,16,17,18,19,20,21,22,23,24,25,26,27,28,29],"tree_info":[0,0,0,0,0,0,0,0,0,0,0,0,0,0,0,0,0,0,0,0,0,0,0,0,0,0,0,0,0],"trees":[{"base_weights":[-1.5307938E-1,-1.3808485E0,5.024795E0,-4.925327E0,-5.676823E-1,3.6518605E0,3.0229777E-1,-2.1638156E-1,-1.2108325E-1,-1.6944983E0,3.0629918E-1,9.4079226E-2,1.6823226E-1,-1.9941071E0,-9.128736E-1,-8.530307E-2,8.9153594E-1,-9.379581E-2,-1.615956E0,-5.0329942E-2,-2.379922E-2,-3.873056E-1,1.0522565E-1,5.0528985E-1,1.1671264E0,-7.848297E-2,-1.2797369E0,-2.8923223E-2,-2.658595E-3,1.982432E-1,-7.804238E-3,6.454393E-3,3.1191537E-2,5.325729E-2,3.225675E-2,-3.6828253E-2,-6.286325E-2,7.382712E-2,1.9909848E-2,-7.103251E-3,8.486618E-3],"categories":[],"categories_nodes":[],"categories_segments":[],"categories_sizes":[],"default_left":[0,0,0,0,0,0,0,0,0,0,0,0,0,0,0,0,0,0,0,0,0,0,0,0,0,0,0,0,0,0,0,0,0,0,0,0,0,0,0,0,0],"id":0,"left_children":[1,3,5,7,9,11,-1,-1,-1,13,15,-1,-1,17,19,21,23,-1,25,-1,-1,27,29,31,33,-1,35,-1,-1,37,-1,-1,-1,-1,-1,-1,-1,39,-1,-1,-1],"loss_changes":[2.1556838E3,7.869404E2,1.8264026E2,1.9844238E1,2.2111787E2,1.6927063E1,0E0,0E0,0E0,2.1129425E1,2.9181915E1,0E0,0E0,4.074829E0,2.3209305E0,4.471346E0,4.838997E0,0E0,9.59877E-1,0E0,0E0,3.0318856E0,1.3574214E0,1.924304E0,4.3227005E-1,0E0,4.602852E-1,0E0,0E0,1.2869936E0,0E0,0E0,0E0,0E0,0E0,0E0,0E0,9.242064E-1,0E0,0E0,0E0],"parents":[2147483647,0,0,1,1,2,2,3,3,4,4,5,5,9,9,10,10,13,13,14,14,15,15,16,16,18,18,21,21,22,22,23,23,24,24,26,26,29,29,37,37],"right_children":[2,4,6,8,10,12,-1,-1,-1,14,16,-1,-1,18,20,22,24,-1,26,-1,-1,28,30,32,34,-1,36,-1,-1,38,-1,-1,-1,-1,-1,-1,-1,40,-1,-1,-1],"split_conditions":[4.05E0,-7.5E-1,7.55E0,-1.5E0,1.65E0,4.95E0,3.0229777E-1,-2.1638156E-1,-1.2108325E-1,9E-1,2.75E0,9.4079226E-2,1.6823226E-1,2E-1,2.5496144E0,1.5E0,3.05E0,-9.379581E-2,5.5E-1,-5.0329942E-2,-2.379922E-2,-6.9055554E2,1.1436111E3,5.0757575E0,2.7374818E0,-7.848297E-2,1.3E0,-2.8923223E-2,-2.658595E-3,-2.325E2,-7.804238E-3,6.454393E-3,3.1191537E-2,5.325729E-2,3.225675E-2,-3.6828253E-2,-6.286325E-2,2.23E0,1.9909848E-2,-7.103251E-3,8.486618E-3],"split_indices":[74,74,74,74,74,74,0,0,0,74,74,0,0,74,17,81,74,0,79,0,0,55,57,5,17,0,83,0,0,57,0,0,0,0,0,0,0,74,0,0,0],"split_type":[0,0,0,0,0,0,0,0,0,0,0,0,0,0,0,0,0,0,0,0,0,0,0,0,0,0,0,0,0,0,0,0,0,0,0,0,0,0,0,0,0],"sum_hessian":[3.37E2,2.73E2,6.4E1,5E1,2.23E2,4.2E1,2.2E1,4.1E1,9E0,9.7E1,1.26E2,1.2E1,3E1,6.9E1,2.8E1,7.6E1,5E1,3.6E1,3.3E1,1.3E1,1.5E1,2.9E1,4.7E1,2.2E1,2.8E1,1.5E1,1.8E1,1.4E1,1.5E1,3.6E1,1.1E1,1E1,1.2E1,1.9E1,9E0,9E0,9E0,2.6E1,1E1,9E0,1.7E1],"tree_param":{"num_deleted":"0","num_feature":"84","num_nodes":"41","size_leaf_vector":"1"}},{"base_weights":[2.0474938E-3,-1.348871E0,5.027437E0,-3.7794418E0,-1.7145932E-1,3.3443203E0,7.0682425E0,-2.1281573E-1,-1.01020835E-1,-1.0681491E0,4.4107667E-1,8.185096E-2,1.5587015E-1,2.1462473E-1,3.2792932E-1,-1.2851156E0,-4.6731836E-1,1.4876796E-2,1.1612031E0,-1.4785428E0,-2.6971642E-2,-1.0109047E-2,-2.9010357E-2,1.4474946E-1,-3.2997154E-2,1.3280394E0,2.3382206E-2,-1.0315769E0,-7.5357415E-2,-7.432994E-3,2.4160416E-1,4.1089956E-2,6.255769E-2,-5.9273504E-2,-2.4621058E-2,5.392953E-2,3.586671E-1,-4.224827E-3,7.860953E-3,2.6200872E-2,1.8652555E-1,1.1551557E-2,2.588383E-3],"categories":[],"categories_nodes":[],"categories_segments":[],"categories_sizes":[],"default_left":[0,0,0,0,0,0,0,0,0,0,0,0,0,0,0,0,0,0,0,0,0,0,0,0,0,0,0,0,0,0,0,0,0,0,0,0,0,0,0,0,0,0,0],"id":1,"left_children":[1,3,5,7,9,11,13,-1,-1,15,17,-1,-1,-1,-1,19,21,23,25,27,-1,-1,-1,29,-1,31,-1,33,-1,-1,35,-1,-1,-1,-1,37,39,-1,-1,-1,41,-1,-1],"loss_changes":[2.40326E3,7.977892E2,2.339801E2,1.5614697E2,1.0428027E2,1.8921722E1,1.4403076E1,0E0,0E0,9.437172E0,3.4664436E1,0E0,0E0,0E0,0E0,5.821907E0,9.9235344E-1,7.7812366E0,3.3831673E0,4.851631E0,0E0,0E0,0E0,2.0332594E0,0E0,5.328865E-1,0E0,2.8805752E0,0E0,0E0,1.0571749E0,0E0,0E0,0E0,0E0,4.5238066E-1,1.3287454E0,0E0,0E0,0E0,2.1720445E-1,0E0,0E0],"parents":[2147483647,0,0,1,1,2,2,3,3,4,4,5,5,6,6,9,9,10,10,15,15,16,16,17,17,18,18,19,19,23,23,25,25,27,27,30,30,35,35,36,36,40,40],"right_children":[2,4,6,8,10,12,14,-1,-1,16,18,-1,-1,-1,-1,20,22,24,26,28,-1,-1,-1,30,-1,32,-1,34,-1,-1,36,-1,-1,-1,-1,38,40,-1,-1,-1,42,-1,-1],"split_conditions":[4.4E0,1E-1,7.5E0,-1.75E0,1.81E0,5.05E0,9.5E0,-2.1281573E-1,-1.01020835E-1,1.64E0,3.05E0,8.185096E-2,1.5587015E-1,2.1462473E-1,3.2792932E-1,2.21E0,3.884873E0,4.0173984E0,5.0992064E0,-7.6E2,-2.6971642E-2,-1.0109047E-2,-2.9010357E-2,1.5E0,-3.2997154E-2,3.05E0,2.3382206E-2,3.415493E0,-7.5357415E-2,-7.432994E-3,2E0,4.1089956E-2,6.255769E-2,-5.9273504E-2,-2.4621058E-2,8.580247E0,6.280303E0,-4.224827E-3,7.860953E-3,2.6200872E-2,7.907757E-1,1.1551557E-2,2.588383E-3],"split_indices":[74,74,74,74,74,74,74,0,0,74,74,0,0,0,0,79,33,45,45,59,0,0,0,81,0,79,0,32,0,0,73,0,0,0,0,30,16,0,0,0,68,0,0],"split_type":[0,0,0,0,0,0,0,0,0,0,0,0,0,0,0,0,0,0,0,0,0,0,0,0,0,0,0,0,0,0,0,0,0,0,0,0,0,0,0,0,0,0,0],"sum_hessian":[3.52E2,2.78E2,7.4E1,9E1,1.88E2,4.2E1,3.2E1,4.2E1,4.8E1,7.6E1,1.12E2,1.2E1,3E1,1.3E1,1.9E1,5.5E1,2.1E1,7.1E1,4.1E1,4.1E1,1.4E1,1.2E1,9E0,6.2E1,9E0,3.1E1,1E1,2E1,2.1E1,1.4E1,4.8E1,1.4E1,1.7E1,9E0,1.1E1,1.9E1,2.9E1,9E0,1E1,1E1,1.9E1,1E1,9E0],"tree_param":{"num_deleted":"0","num_feature":"84","num_nodes":"43","size_leaf_vector":"1"}},{"base_weights":[-7.25656E-2,-1.1930324E0,4.7351265E0,-3.5666919E0,-7.08013E-2,3.2430592E0,6.9360065E0,-2.0497188E-1,-9.5820285E-2,-1.025903E0,5.382619E-1,2.513689E0,1.7263882E-1,1.9976012E-1,3.1558654E-1,-1.5500175E0,-7.239587E-1,1.5422326E-1,1.2330089E0,1.1740779E-1,7.53441E-2,-4.3882545E-2,-7.203956E-2,-5.3497505E-1,-4.4344515E-2,-1.6889887E-1,3.3767405E-1,6.235694E-2,8.452748E-1,-7.359262E-4,-7.331407E-1,4.7667537E-2,-2.4878735E-2,2.3846601E-1,2.9950552E-2,2.2976281E-2,4.1501563E-2,-1.4141087E-2,-4.0788997E-2,-7.4916664E-3,9.663202E-3,3.4502992E-1,2.9229824E-3,7.561918E-3,1.7788801E-2],"categories":[],"categories_nodes":[],"categories_segments":[],"categories_sizes":[],"default_left":[0,0,0,0,0,0,0,0,0,0,0,0,0,0,0,0,0,0,0,0,0,0,0,0,0,0,0,0,0,0,0,0,0,0,0,0,0,0,0,0,0,0,0,0,0],"id":2,"left_children":[1,3,5,7,9,11,13,-1,-1,15,17,19,-1,-1,-1,21,23,25,27,-1,-1,-1,-1,29,-1,31,33,-1,35,-1,37,39,-1,41,-1,-1,-1,-1,-1,-1,-1,43,-1,-1,-1],"loss_changes":[1.966466E3,7.882307E2,2.0409253E2,1.5566528E2,1.18059105E2,1.9763763E1,4.915283E0,0E0,0E0,1.1379875E1,3.289424E1,1.1245728E0,0E0,0E0,0E0,9.0042114E-1,2.9357204E0,4.85847E0,3.625946E0,0E0,0E0,0E0,0E0,3.6752825E0,0E0,2.8739543E0,1.8523245E0,0E0,4.3156624E-1,0E0,2.2986364E0,9.52748E-1,0E0,7.414336E-1,0E0,0E0,0E0,0E0,0E0,0E0,0E0,2.9093504E-1,0E0,0E0,0E0],"parents":[2147483647,0,0,1,1,2,2,3,3,4,4,5,5,6,6,9,9,10,10,11,11,15,15,16,16,17,17,18,18,23,23,25,25,26,26,28,28,30,30,31,31,33,33,41,41],"right_children":[2,4,6,8,10,12,14,-1,-1,16,18,20,-1,-1,-1,22,24,26,28,-1,-1,-1,-1,30,-1,32,34,-1,36,-1,38,40,-1,42,-1,-1,-1,-1,-1,-1,-1,44,-1,-1,-1],"split_conditions":[4.4E0,2E-1,8E0,-1.5E0,1.81E0,6.275E0,2.991968E0,-2.0497188E-1,-9.5820285E-2,9E-1,3.05E0,6.1810856E0,1.7263882E-1,1.9976012E-1,3.1558654E-1,-4.4666666E2,8E0,1.81E0,3.6567783E0,1.1740779E-1,7.53441E-2,-4.3882545E-2,-7.203956E-2,1.3E0,-4.4344515E-2,1.65E0,3.05E0,6.235694E-2,2.77E0,-7.359262E-4,2.9936314E-1,4.4444447E0,-2.4878735E-2,6.513725E-1,2.9950552E-2,2.2976281E-2,4.1501563E-2,-1.4141087E-2,-4.0788997E-2,-7.4916664E-3,9.663202E-3,3E0,2.9229824E-3,7.561918E-3,1.7788801E-2],"split_indices":[74,74,74,74,74,74,30,0,0,74,74,33,0,0,0,57,71,79,52,0,0,0,0,76,0,83,80,0,80,0,68,5,0,68,0,0,0,0,0,0,0,71,0,0,0],"split_type":[0,0,0,0,0,0,0,0,0,0,0,0,0,0,0,0,0,0,0,0,0,0,0,0,0,0,0,0,0,0,0,0,0,0,0,0,0,0,0,0,0,0,0,0,0],"sum_hessian":[3.63E2,2.95E2,6.8E1,9.4E1,2.01E2,4.2E1,2.6E1,4.2E1,5.2E1,7.8E1,1.23E2,2.6E1,1.6E1,9E0,1.7E1,2.7E1,5.1E1,8E1,4.3E1,1.5E1,1.1E1,1E1,1.7E1,3.5E1,1.6E1,2.9E1,5.1E1,2.3E1,2E1,1E1,2.5E1,2E1,9E0,4.2E1,9E0,9E0,1.1E1,1.1E1,1.4E1,9E0,1.1E1,2.5E1,1.7E1,1E1,1.5E1],"tree_param":{"num_deleted":"0","num_feature":"84","num_nodes":"45","size_leaf_vector":"1"}},{"base_weights":[-5.1213175E-2,-1.1837671E0,4.271048E0,-3.7470891E0,-1.7239785E-1,3.245006E0,2.662671E-1,-2.0062359E-1,-2.3578966E0,-8.0342597E-1,6.388382E-1,7.964846E-2,1.4640509E-1,-7.978188E-2,-1.1194863E-1,-1.288665E0,-3.5934952E-1,2.7469414E-1,1.0474048E0,-7.489507E-2,-1.1165497E0,-2.2742936E-1,-4.246712E-2,4.5365977E-1,1.294549E-1,1.1991237E0,2.2777034E-2,-3.1081967E-2,-1.2881756E0,-4.1714004E-1,-7.0817196E-3,8.778213E-3,2.6053399E-2,-6.597286E-3,2.681643E-1,5.5104606E-2,3.0584434E-2,-3.883505E-2,-6.327434E-2,-9.658266E-3,-2.6844228E-2,-1.0408444E-2,6.683986E-3,3.8357375E-3,1.6503396E-2],"categories":[],"categories_nodes":[],"categories_segments":[],"categories_sizes":[],"default_left":[0,0,0,0,0,0,0,0,0,0,0,0,0,0,0,0,0,0,0,0,0,0,0,0,0,0,0,0,0,0,0,0,0,0,0,0,0,0,0,0,0,0,0,0,0],"id":3,"left_children":[1,3,5,7,9,11,-1,-1,13,15,17,-1,-1,-1,-1,19,21,23,25,-1,27,29,-1,31,33,35,-1,-1,37,39,41,-1,-1,-1,43,-1,-1,-1,-1,-1,-1,-1,-1,-1,-1],"loss_changes":[1.7918018E3,7.5116895E2,1.522948E2,1.1902661E2,1.0750303E2,1.5979309E1,0E0,0E0,6.730194E-1,2.4963951E1,1.3399776E1,0E0,0E0,0E0,0E0,3.146309E0,5.3862553E0,1.2409136E0,2.542736E0,0E0,1.7918243E0,2.2543705E0,0E0,8.2202244E-1,1.2111617E0,1.0985107E0,0E0,0E0,1.0607567E0,1.0968585E0,1.1328446E0,0E0,0E0,0E0,4.3154502E-1,0E0,0E0,0E0,0E0,0E0,0E0,0E0,0E0,0E0,0E0],"parents":[2147483647,0,0,1,1,2,2,3,3,4,4,5,5,8,8,9,9,10,10,15,15,16,16,17,17,18,18,20,20,21,21,23,23,24,24,25,25,28,28,29,29,30,30,34,34],"right_children":[2,4,6,8,10,12,-1,-1,14,16,18,-1,-1,-1,-1,20,22,24,26,-1,28,30,-1,32,34,36,-1,-1,38,40,42,-1,-1,-1,44,-1,-1,-1,-1,-1,-1,-1,-1,-1,-1],"split_conditions":[4.26E0,2E-1,8.25E0,-1.5E0,2.3E0,4.95E0,2.662671E-1,-2.0062359E-1,2.699187E0,1.3E0,3.05E0,7.964846E-2,1.4640509E-1,-7.978188E-2,-1.1194863E-1,0E0,4.7358246E0,0E0,4.0707965E0,-7.489507E-2,3.5166666E2,1.81E0,-4.246712E-2,2.6666667E0,8.660254E-1,4.7581367E0,2.2777034E-2,-3.1081967E-2,-8.633333E2,5.866667E2,1.55E0,8.778213E-3,2.6053399E-2,-6.597286E-3,2.65E0,5.5104606E-2,3.0584434E-2,-3.883505E-2,-6.327434E-2,-9.658266E-3,-2.6844228E-2,-1.0408444E-2,6.683986E-3,3.8357375E-3,1.6503396E-2],"split_indices":[74,74,74,74,74,74,0,0,45,74,74,0,0,0,0,79,50,69,49,0,58,74,0,74,67,20,0,0,59,58,80,0,0,0,74,0,0,0,0,0,0,0,0,0,0],"split_type":[0,0,0,0,0,0,0,0,0,0,0,0,0,0,0,0,0,0,0,0,0,0,0,0,0,0,0,0,0,0,0,0,0,0,0,0,0,0,0,0,0,0,0,0,0],"sum_hessian":[3.64E2,2.89E2,7.5E1,8.1E1,2.08E2,5.3E1,2.2E1,4.3E1,3.8E1,1.17E2,9.1E1,1.2E1,4.1E1,2.1E1,1.7E1,5.5E1,6.2E1,4.9E1,4.2E1,1.1E1,4.4E1,5.3E1,9E0,2.1E1,2.8E1,3.1E1,1.1E1,1.6E1,2.8E1,2.8E1,2.5E1,1E1,1.1E1,9E0,1.9E1,2.2E1,9E0,1.4E1,1.4E1,1.7E1,1.1E1,1E1,1.5E1,9E0,1E1],"tree_param":{"num_deleted":"0","num_feature":"84","num_nodes":"45","size_leaf_vector":"1"}},{"base_weights":[-2.224493E-2,-1.305973E0,3.528729E0,-4.2613916E0,-6.1672074E-1,2.3945208E0,5.868556E0,-2.0653336E-1,-1.3591208E-1,-1.4617368E0,1.5080908E-1,1.5565673E0,1.2955643E-1,1.5161425E-1,2.7153245E-1,-1.7884537E0,-8.22152E-1,-1.5890242E-1,5.380294E-1,4.3828942E-2,8.0055505E-2,-1.8940088E0,-4.4628307E-2,-1.0757569E0,-1.949269E-2,-3.246557E-2,-9.783371E-3,-5.80062E-3,6.9064033E-1,-8.587044E-2,-1.4602888E0,-3.0669065E-2,-5.2311823E-2,-1.0754992E-2,1.2037054E-1,8.311769E-1,7.046238E-3,-4.2071614E-2,-6.971605E-2,2.3408106E-1,-6.109216E-3,4.2145606E-2,2.0695543E-2,1.3306219E-2,2.7033577E-3],"categories":[],"categories_nodes":[],"categories_segments":[],"categories_sizes":[],"default_left":[0,0,0,0,0,0,0,0,0,0,0,0,0,0,0,0,0,0,0,0,0,0,0,0,0,0,0,0,0,0,0,0,0,0,0,0,0,0,0,0,0,0,0,0,0],"id":4,"left_children":[1,3,5,7,9,11,13,-1,-1,15,17,19,-1,-1,-1,21,23,25,27,-1,-1,29,-1,31,-1,-1,33,-1,35,-1,37,-1,-1,-1,39,41,-1,-1,-1,43,-1,-1,-1,-1,-1],"loss_changes":[1.6137535E3,5.269995E2,2.3540967E2,1.929004E1,1.3771834E2,3.676999E1,2.4621948E1,0E0,0E0,1.9634903E1,1.3517271E1,4.2843475E0,0E0,0E0,0E0,2.8147278E0,2.6540318E0,5.938414E0,5.282729E0,0E0,0E0,1.8087463E0,0E0,3.5744476E-1,0E0,0E0,1.7407229E0,0E0,2.8463688E0,0E0,4.442253E-1,0E0,0E0,0E0,1.1069596E0,1.5363407E0,0E0,0E0,0E0,3.5886586E-1,0E0,0E0,0E0,0E0,0E0],"parents":[2147483647,0,0,1,1,2,2,3,3,4,4,5,5,6,6,9,9,10,10,11,11,15,15,16,16,17,17,18,18,21,21,23,23,26,26,28,28,30,30,34,34,35,35,39,39],"right_children":[2,4,6,8,10,12,14,-1,-1,16,18,20,-1,-1,-1,22,24,26,28,-1,-1,30,-1,32,-1,-1,34,-1,36,-1,38,-1,-1,-1,40,42,-1,-1,-1,44,-1,-1,-1,-1,-1],"split_conditions":[3.75E0,-7.5E-1,7.15E0,-2.7E0,1.75E0,4.95E0,1.6666666E0,-2.0653336E-1,-1.3591208E-1,9E-1,2.51E0,4.05E0,1.2955643E-1,1.5161425E-1,2.7153245E-1,2.21E0,-2.4492937E-16,1.6E0,1.81E0,4.3828942E-2,8.0055505E-2,4.4661922E0,-4.4628307E-2,1.3E1,-1.949269E-2,-3.246557E-2,1.55E0,-5.80062E-3,5.8125E0,-8.587044E-2,-1.75E-1,-3.0669065E-2,-5.2311823E-2,-1.0754992E-2,2.59E0,1.7E2,7.046238E-3,-4.2071614E-2,-6.971605E-2,3.9435586E-1,-6.109216E-3,4.2145606E-2,2.0695543E-2,1.3306219E-2,2.7033577E-3],"split_indices":[75,74,74,74,74,74,49,0,0,74,74,74,0,0,0,79,67,75,79,0,0,50,0,72,0,0,80,0,42,0,82,0,0,0,83,59,0,0,0,68,0,0,0,0,0],"split_type":[0,0,0,0,0,0,0,0,0,0,0,0,0,0,0,0,0,0,0,0,0,0,0,0,0,0,0,0,0,0,0,0,0,0,0,0,0,0,0,0,0,0,0,0,0],"sum_hessian":[3.52E2,2.59E2,9.3E1,4.8E1,2.11E2,6.4E1,2.9E1,2.4E1,2.4E1,1E2,1.11E2,3.2E1,3.2E1,9E0,2E1,6.5E1,3.5E1,6.2E1,4.9E1,1.6E1,1.6E1,5.5E1,1E1,1.9E1,1.6E1,1.1E1,5.1E1,9E0,4E1,3.5E1,2E1,9E0,1E1,1.7E1,3.4E1,3.1E1,9E0,9E0,1.1E1,2.4E1,1E1,1.8E1,1.3E1,1.5E1,9E0],"tree_param":{"num_deleted":"0","num_feature":"84","num_nodes":"45","size_leaf_vector":"1"}},{"base_weights":[-7.01442E-2,-1.0645101E0,4.215435E0,-3.3528366E0,-1.2875776E-1,3.2523372E0,2.9283148E-1,-1.8552063E-1,-8.621508E-2,-9.0967745E-1,4.0329766E-1,2.2646852E0,1.6129597E-1,-1.1676319E0,-5.261386E-1,8.1780806E-2,9.351388E-1,1.1840254E-1,6.2124595E-2,-9.1901404E-1,-1.4671985E0,-3.7810065E-2,-3.5996383E-1,-2.38274E-1,2.7217805E-1,1.0924238E0,1.5799584E-2,-2.6374443E-2,-4.3751083E-2,-7.162125E-2,-4.3220386E-2,-2.1162236E-2,-3.5201786E-3,-2.5394991E-2,-1.6746486E-2,3.6176673E-1,-5.016481E-3,5.204963E-2,3.3613227E-2,1.219705E-2,-1.4789967E-2,1.875424E-1,2.3532676E-2,1.4821873E-2,5.137878E-4],"categories":[],"categories_nodes":[],"categories_segments":[],"categories_sizes":[],"default_left":[0,0,0,0,0,0,0,0,0,0,0,0,0,0,0,0,0,0,0,0,0,0,0,0,0,0,0,0,0,0,0,0,0,0,0,0,0,0,0,0,0,0,0,0,0],"id":5,"left_children":[1,3,5,7,9,11,-1,-1,-1,13,15,17,-1,19,21,23,25,-1,-1,27,29,-1,31,33,35,37,-1,-1,-1,-1,-1,-1,-1,-1,39,41,-1,-1,-1,-1,-1,43,-1,-1,-1],"loss_changes":[1.5386035E3,6.269712E2,1.6844885E2,1.1501904E2,8.720481E1,2.6775085E1,0E0,0E0,0E0,7.7951813E0,2.129801E1,6.833275E0,0E0,2.3755035E0,2.0373774E0,4.87892E0,3.643242E0,0E0,0E0,5.3852844E-1,5.8428955E-1,0E0,1.1116111E0,2.5224578E0,1.8115394E0,6.9693375E-1,0E0,0E0,0E0,0E0,0E0,0E0,0E0,0E0,2.2691557E0,1.4081497E0,0E0,0E0,0E0,0E0,0E0,7.261757E-1,0E0,0E0,0E0],"parents":[2147483647,0,0,1,1,2,2,3,3,4,4,5,5,9,9,10,10,11,11,13,13,14,14,15,15,16,16,19,19,20,20,22,22,23,23,24,24,25,25,34,34,35,35,41,41],"right_children":[2,4,6,8,10,12,-1,-1,-1,14,16,18,-1,20,22,24,26,-1,-1,28,30,-1,32,34,36,38,-1,-1,-1,-1,-1,-1,-1,-1,40,42,-1,-1,-1,-1,-1,44,-1,-1,-1],"split_conditions":[4.4E0,1E-1,1E1,-1.5E0,1.81E0,6.275E0,2.9283148E-1,-1.8552063E-1,-8.621508E-2,1.3E0,3.05E0,6.1688223E0,1.6129597E-1,4.6835814E0,2.215966E0,1.81E0,4.0707965E0,1.1840254E-1,6.2124595E-2,6.841667E2,2.7826228E0,-3.7810065E-2,3.7263968E0,3.9642856E0,4.441233E0,3.6567783E0,1.5799584E-2,-2.6374443E-2,-4.3751083E-2,-7.162125E-2,-4.3220386E-2,-2.1162236E-2,-3.5201786E-3,-2.5394991E-2,2.4170983E0,2.6666667E0,-5.016481E-3,5.204963E-2,3.3613227E-2,1.219705E-2,-1.4789967E-2,2.5813828E0,2.3532676E-2,1.4821873E-2,5.137878E-4],"split_indices":[74,74,74,74,74,74,0,0,0,74,74,33,0,20,17,79,49,0,0,58,42,0,50,38,0,52,0,0,0,0,0,0,0,0,17,74,0,0,0,0,0,17,0,0,0],"split_type":[0,0,0,0,0,0,0,0,0,0,0,0,0,0,0,0,0,0,0,0,0,0,0,0,0,0,0,0,0,0,0,0,0,0,0,0,0,0,0,0,0,0,0,0,0],"sum_hessian":[3.59E2,2.92E2,6.7E1,8.4E1,2.08E2,5.2E1,1.5E1,4.2E1,4.2E1,8.4E1,1.24E2,2.3E1,2.9E1,4.9E1,3.5E1,7.8E1,4.6E1,1.1E1,1.2E1,2.9E1,2E1,9E0,2.6E1,2.9E1,4.9E1,3.5E1,1.1E1,1.2E1,1.7E1,1E1,1E1,1.6E1,1E1,1E1,1.9E1,4E1,9E0,1.9E1,1.6E1,1E1,9E0,2.3E1,1.7E1,1.1E1,1.2E1],"tree_param":{"num_deleted":"0","num_feature":"84","num_nodes":"45","size_leaf_vector":"1"}},{"base_weights":[3.228017E-2,-1.1820905E0,3.2869616E0,-3.9988332E0,-5.417819E-1,1.962879E0,4.712295E0,-1.770669E-1,-9.6409455E-2,-1.6089485E0,-8.141285E-3,1.2854095E0,2.3139853E0,1.5978858E-1,2.7456567E-1,-1.7972234E0,-1.1906335E0,-3.5760665E-1,4.049866E-1,6.542928E-2,3.6340278E-2,1.1300164E-1,6.2199257E-2,-7.909558E-2,-4.5761745E-2,-3.6376387E-2,-5.750049E-2,-2.2212957E-1,-3.5616588E-2,1.9036995E-1,7.726336E-1,-4.4499603E-1,-6.03898E-3,2.9769033E-1,-7.935808E-3,3.6227323E-2,2.3008084E-2,-6.139854E-1,-1.1775126E-3,1.6636135E-1,-1.3185724E-2,4.013511E-1,3.0421852E-3,-1.5372579E-2,-3.539713E-2,1.6979108E-2,-1.5179338E-3,2.3396662E-2,9.316215E-3],"categories":[],"categories_nodes":[],"categories_segments":[],"categories_sizes":[],"default_left":[0,0,0,0,0,0,0,0,0,0,0,0,0,0,0,0,0,0,0,0,0,0,0,0,0,0,0,0,0,0,0,0,0,0,0,0,0,0,0,0,0,0,0,0,0,0,0,0,0],"id":6,"left_children":[1,3,5,7,9,11,13,-1,-1,15,17,19,21,-1,-1,23,25,27,29,-1,-1,-1,-1,-1,-1,-1,-1,31,-1,33,35,37,39,41,-1,-1,-1,43,-1,45,-1,47,-1,-1,-1,-1,-1,-1,-1],"loss_changes":[1.4109362E3,4.667655E2,1.7381458E2,1.5138428E1,1.2128686E2,9.394501E0,4.82984E1,0E0,0E0,3.4519958E0,2.0790293E1,1.063118E0,7.446808E0,0E0,0E0,2.0702057E0,3.6236572E-1,5.207839E0,5.060523E0,0E0,0E0,0E0,0E0,0E0,0E0,0E0,0E0,3.0313516E0,0E0,1.8293533E0,6.7276955E-2,2.1630998E0,1.8488126E0,7.579055E-1,0E0,0E0,0E0,9.876709E-1,0E0,1.1239365E0,0E0,5.4836106E-1,0E0,0E0,0E0,0E0,0E0,0E0,0E0],"parents":[2147483647,0,0,1,1,2,2,3,3,4,4,5,5,6,6,9,9,10,10,11,11,12,12,15,15,16,16,17,17,18,18,27,27,29,29,30,30,31,31,32,32,33,33,37,37,39,39,41,41],"right_children":[2,4,6,8,10,12,14,-1,-1,16,18,20,22,-1,-1,24,26,28,30,-1,-1,-1,-1,-1,-1,-1,-1,32,-1,34,36,38,40,42,-1,-1,-1,44,-1,46,-1,48,-1,-1,-1,-1,-1,-1,-1],"split_conditions":[3.65E0,-7.5E-1,6.275E0,-1.5E0,1E0,4.4E0,1E1,-1.770669E-1,-9.6409455E-2,1.25E0,2.425E0,9.311111E2,6.1688223E0,1.5978858E-1,2.7456567E-1,5.826558E0,-3.8333332E1,8E0,3.05E0,6.542928E-2,3.6340278E-2,1.1300164E-1,6.2199257E-2,-7.909558E-2,-4.5761745E-2,-3.6376387E-2,-5.750049E-2,2.9639175E0,-3.5616588E-2,5E0,-6.222222E1,4.559387E0,4.051724E0,1.1436111E3,-7.935808E-3,3.6227323E-2,2.3008084E-2,1.55E0,-1.1775126E-3,4.8940945E0,-1.3185724E-2,4.294979E0,3.0421852E-3,-1.5372579E-2,-3.539713E-2,1.6979108E-2,-1.5179338E-3,2.3396662E-2,9.316215E-3],"split_indices":[74,74,74,74,74,74,74,0,0,79,74,58,33,0,0,50,57,71,74,0,0,0,0,0,0,0,0,42,0,71,57,0,45,57,0,0,0,79,0,38,0,20,0,0,0,0,0,0,0],"split_type":[0,0,0,0,0,0,0,0,0,0,0,0,0,0,0,0,0,0,0,0,0,0,0,0,0,0,0,0,0,0,0,0,0,0,0,0,0,0,0,0,0,0,0,0,0,0,0,0,0],"sum_hessian":[3.55E2,2.59E2,9.6E1,4.7E1,2.12E2,5.1E1,4.5E1,3.8E1,9E0,7E1,1.42E2,1.9E1,3.2E1,3.4E1,1.1E1,4.6E1,2.4E1,7.7E1,6.5E1,9E0,1E1,1.9E1,1.3E1,3.7E1,9E0,1.2E1,1.2E1,6.2E1,1.5E1,4.2E1,2.3E1,3E1,3.2E1,3.3E1,9E0,1.3E1,1E1,2.1E1,9E0,2.1E1,1.1E1,2.2E1,1.1E1,1.2E1,9E0,9E0,1.2E1,1E1,1.2E1],"tree_param":{"num_deleted":"0","num_feature":"84","num_nodes":"49","size_leaf_vector":"1"}},{"base_weights":[-1.4033855E-1,-1.0839206E0,4.080092E0,-3.8402023E0,-3.9040786E-1,2.808273E0,2.4708888E-1,-1.8693992E-1,-1.1601389E-1,-1.2723043E0,3.3106634E-1,3.1061406E0,6.210258E-2,-1.5406506E0,-7.0122504E-1,-9.786333E-2,7.809756E-1,9.539793E-2,1.4044486E-1,-1.7602818E0,-1.2734443E0,-8.7970316E-1,-8.175181E-3,-2.6428912E-2,2.6370106E-2,1.1072998E0,3.7682575E-1,-4.7722545E-2,-7.919897E-2,-3.6474075E-2,-6.1283167E-2,-4.9224857E-2,-2.3945823E-2,-1.1859895E-1,2.8743935E-1,2.0919247E-2,1.2874273E0,-8.885979E-3,6.294959E-1,8.224691E-3,-2.2457871E-1,1.8958483E-2,4.825038E-3,3.0991912E-2,6.1959047E-2,3.0851463E-2,1.6673634E-2,-1.5551933E-2,-2.249672E-3],"categories":[],"categories_nodes":[],"categories_segments":[],"categories_sizes":[],"default_left":[0,0,0,0,0,0,0,0,0,0,0,0,0,0,0,0,0,0,0,0,0,0,0,0,0,0,0,0,0,0,0,0,0,0,0,0,0,0,0,0,0,0,0,0,0,0,0,0,0],"id":7,"left_children":[1,3,5,7,9,11,-1,-1,-1,13,15,17,-1,19,21,23,25,-1,-1,27,29,31,-1,-1,33,35,37,-1,-1,-1,-1,-1,-1,39,41,-1,43,-1,45,-1,47,-1,-1,-1,-1,-1,-1,-1,-1],"loss_changes":[1.4818641E3,5.796018E2,1.5141333E2,3.144104E1,1.5567E2,1.1863647E1,0E0,0E0,0E0,1.577684E1,2.6128654E1,4.9169922E-1,0E0,2.1012115E0,3.138527E0,4.7716727E0,8.287075E0,0E0,0E0,1.6355286E0,1.8126831E0,1.8604908E0,0E0,0E0,2.229214E0,3.2149048E0,4.7856293E0,0E0,0E0,0E0,0E0,0E0,0E0,1.3305477E0,5.6930125E-1,0E0,2.069046E0,0E0,2.968397E-1,0E0,7.407317E-1,0E0,0E0,0E0,0E0,0E0,0E0,0E0,0E0],"parents":[2147483647,0,0,1,1,2,2,3,3,4,4,5,5,9,9,10,10,11,11,13,13,14,14,15,15,16,16,19,19,20,20,21,21,24,24,25,25,26,26,33,33,34,34,36,36,38,38,40,40],"right_children":[2,4,6,8,10,12,-1,-1,-1,14,16,18,-1,20,22,24,26,-1,-1,28,30,32,-1,-1,34,36,38,-1,-1,-1,-1,-1,-1,40,42,-1,44,-1,46,-1,48,-1,-1,-1,-1,-1,-1,-1,-1],"split_conditions":[4.4E0,-7.5E-1,8E0,-2.7E0,1.75E0,5.1833334E0,2.4708888E-1,-1.8693992E-1,-1.1601389E-1,9E-1,2.75E0,4.75E0,6.210258E-2,2E-1,4.0740743E0,1.6E0,4.165193E0,9.539793E-2,1.4044486E-1,-3.5E-1,-3.475E2,1.55E0,-8.175181E-3,-2.6428912E-2,8.091667E2,3.1E0,3.1060605E0,-4.7722545E-2,-7.919897E-2,-3.6474075E-2,-6.1283167E-2,-4.9224857E-2,-2.3945823E-2,-1.8E2,8.107178E0,2.0919247E-2,4.1714725E0,-8.885979E-3,6.143275E0,8.224691E-3,1.6666666E0,1.8958483E-2,4.825038E-3,3.0991912E-2,6.1959047E-2,3.0851463E-2,1.6673634E-2,-1.5551933E-2,-2.249672E-3],"split_indices":[74,74,74,74,74,12,0,0,0,74,74,76,0,74,5,75,52,0,0,79,57,83,0,0,55,76,5,0,0,0,0,0,0,60,42,0,33,0,38,0,57,0,0,0,0,0,0,0,0],"split_type":[0,0,0,0,0,0,0,0,0,0,0,0,0,0,0,0,0,0,0,0,0,0,0,0,0,0,0,0,0,0,0,0,0,0,0,0,0,0,0,0,0,0,0,0,0,0,0,0,0],"sum_hessian":[3.7E2,3.03E2,6.7E1,6E1,2.43E2,4.2E1,2.5E1,3.3E1,2.7E1,1.09E2,1.34E2,3.3E1,9E0,7.3E1,3.6E1,6.9E1,6.5E1,1.2E1,2.1E1,3.7E1,3.6E1,2.6E1,1E1,1.2E1,5.7E1,3.5E1,3E1,1E1,2.7E1,1.5E1,2.1E1,1.1E1,1.5E1,3.7E1,2E1,9E0,2.6E1,9E0,2.1E1,9E0,2.8E1,9E0,1.1E1,9E0,1.7E1,1.2E1,9E0,1.4E1,1.4E1],"tree_param":{"num_deleted":"0","num_feature":"84","num_nodes":"49","size_leaf_vector":"1"}},{"base_weights":[-5.1771462E-2,-1.4640135E0,2.081558E0,-3.7650619E0,-8.304106E-1,1.1514257E0,4.261141E0,-1.8682975E-1,-1.2777619E-1,-1.3069927E0,-3.7967153E-2,8.4471726E-1,2.125811E0,3.5879562E0,2.4162605E-1,-1.5202376E0,-7.7627707E-1,-2.4065775E-1,1.1771691E-1,1.1200304E0,4.7711146E-1,1.05009384E-1,5.651515E-2,1.678886E-1,1.0690947E-1,-3.9523493E-2,-1.589912E0,-2.1370908E-2,-3.9353795E-2,1.3793465E-4,-3.6926746E-1,-4.7161663E-3,2.745086E-1,1.711952E-2,1.2840521E0,6.3583905E-1,3.4271718E-5,-1.7864585E0,-5.2379295E-2,-9.05089E-3,-1.9715045E-2,6.183508E-3,1.7229252E-2,1.0749668E0,7.052726E-2,1.7741032E-2,3.367372E-2,-5.5594664E-2,-8.0199085E-2,3.1399895E-2,5.0824348E-2],"categories":[],"categories_nodes":[],"categories_segments":[],"categories_sizes":[],"default_left":[0,0,0,0,0,0,0,0,0,0,0,0,0,0,0,0,0,0,0,0,0,0,0,0,0,0,0,0,0,0,0,0,0,0,0,0,0,0,0,0,0,0,0,0,0,0,0,0,0,0,0],"id":8,"left_children":[1,3,5,7,9,11,13,-1,-1,15,17,19,21,23,-1,25,27,29,31,33,35,-1,-1,-1,-1,-1,37,-1,-1,-1,39,-1,41,-1,43,45,-1,47,-1,-1,-1,-1,-1,49,-1,-1,-1,-1,-1,-1,-1],"loss_changes":[1.0966857E3,3.161647E2,2.890522E2,9.933777E0,6.528629E1,2.8986069E1,2.6101501E1,0E0,0E0,1.1042511E1,2.1110055E0,7.562153E0,4.279419E0,5.7220764E0,0E0,1.4128418E0,1.0446548E0,9.113666E-1,1.4182929E0,4.648838E0,2.7209978E0,0E0,0E0,0E0,0E0,0E0,1.7697754E0,0E0,0E0,0E0,2.0872283E-1,0E0,3.5117304E-1,0E0,1.4336166E0,6.618366E-1,0E0,1.2233734E-1,0E0,0E0,0E0,0E0,0E0,4.248371E-1,0E0,0E0,0E0,0E0,0E0,0E0,0E0],"parents":[2147483647,0,0,1,1,2,2,3,3,4,4,5,5,6,6,9,9,10,10,11,11,12,12,13,13,15,15,16,16,17,17,18,18,19,19,20,20,26,26,30,30,32,32,34,34,35,35,37,37,43,43],"right_children":[2,4,6,8,10,12,14,-1,-1,16,18,20,22,24,-1,26,28,30,32,34,36,-1,-1,-1,-1,-1,38,-1,-1,-1,40,-1,42,-1,44,46,-1,48,-1,-1,-1,-1,-1,50,-1,-1,-1,-1,-1,-1,-1],"split_conditions":[2.75E0,-1E0,6.25E0,-3.5E0,1.75E0,4.54E0,1E1,-1.8682975E-1,-1.2777619E-1,9E-1,3.4835005E0,4.264774E0,5.6275024E0,4.076039E0,2.4162605E-1,-2.8E2,1.2246469E-16,7E0,3.2423372E0,2.7E0,3.2070706E0,1.05009384E-1,5.651515E-2,1.678886E-1,1.0690947E-1,-3.9523493E-2,2E-1,-2.1370908E-2,-3.9353795E-2,1.3793465E-4,2.4218175E0,-4.7161663E-3,2.4E0,1.711952E-2,3.4497817E0,3.05E0,3.4271718E-5,1.6666666E0,-5.2379295E-2,-9.05089E-3,-1.9715045E-2,6.183508E-3,1.7229252E-2,5.311653E0,7.052726E-2,1.7741032E-2,3.367372E-2,-5.5594664E-2,-8.0199085E-2,3.1399895E-2,5.0824348E-2],"split_indices":[74,74,74,74,74,74,74,0,0,74,42,52,33,32,0,63,69,72,32,76,35,0,0,0,0,0,74,0,0,0,17,0,82,0,35,75,0,5,0,0,0,0,0,30,0,0,0,0,0,0,0],"split_type":[0,0,0,0,0,0,0,0,0,0,0,0,0,0,0,0,0,0,0,0,0,0,0,0,0,0,0,0,0,0,0,0,0,0,0,0,0,0,0,0,0,0,0,0,0,0,0,0,0,0,0],"sum_hessian":[3.62E2,2.18E2,1.44E2,4.6E1,1.72E2,1.02E2,4.2E1,1.8E1,2.8E1,1.07E2,6.5E1,7.9E1,2.3E1,3.2E1,1E1,7.5E1,3.2E1,2.8E1,3.7E1,4.4E1,3.5E1,1.3E1,1E1,1.9E1,1.3E1,1E1,6.5E1,1.5E1,1.7E1,1E1,1.8E1,1.5E1,2.2E1,9E0,3.5E1,2.6E1,9E0,3.7E1,2.8E1,9E0,9E0,1.3E1,9E0,2.6E1,9E0,1.4E1,1.2E1,1.3E1,2.4E1,1.1E1,1.5E1],"tree_param":{"num_deleted":"0","num_feature":"84","num_nodes":"51","size_leaf_vector":"1"}},{"base_weights":[3.479628E-2,-9.143622E-1,3.4902606E0,-3.4501407E0,-3.1762457E-1,2.5537567E0,5.1646285E0,-1.5770286E-1,-8.86998E-2,-1.1323543E0,2.8059283E-1,1.9548568E0,1.3001186E-1,1.4563978E-1,2.3671368E-1,-1.3977084E0,-6.147821E-1,-1.7399773E-2,9.11633E-1,9.390188E-2,4.910809E-2,-1.4786726E0,-3.3318024E-2,-1.3937332E-2,-3.5074465E-2,-2.7299948E-2,8.819126E-2,1.0449078E0,1.5060746E-2,-6.399029E-2,-4.1349445E-2,-1.6882211E-1,2.2982967E-1,5.0335716E-2,3.2385807E-2,2.8187076E-3,-1.7559202E-2,-1.920281E-2,3.622352E-1,-8.47222E-3,6.9763213E-3,2.7501255E-2,2.2433491E-1,1.6129393E-2,2.599326E-3],"categories":[],"categories_nodes":[],"categories_segments":[],"categories_sizes":[],"default_left":[0,0,0,0,0,0,0,0,0,0,0,0,0,0,0,0,0,0,0,0,0,0,0,0,0,0,0,0,0,0,0,0,0,0,0,0,0,0,0,0,0,0,0,0,0],"id":9,"left_children":[1,3,5,7,9,11,13,-1,-1,15,17,19,-1,-1,-1,21,23,25,27,-1,-1,29,-1,-1,-1,-1,31,33,-1,-1,-1,35,37,-1,-1,-1,-1,39,41,-1,-1,-1,43,-1,-1],"loss_changes":[1.1871931E3,4.2865137E2,1.091189E2,1.921289E1,1.1290376E2,1.3024475E1,5.9993286E0,0E0,0E0,1.2600029E1,2.5213936E1,4.6215057E0,0E0,0E0,0E0,1.8300552E0,2.0245733E0,6.358034E0,2.735443E0,0E0,0E0,5.480423E-1,0E0,0E0,0E0,0E0,2.9510372E0,6.151161E-1,0E0,0E0,0E0,1.8169475E0,1.7215662E0,0E0,0E0,0E0,0E0,7.0951706E-1,1.2960877E0,0E0,0E0,0E0,6.5527797E-1,0E0,0E0],"parents":[2147483647,0,0,1,1,2,2,3,3,4,4,5,5,6,6,9,9,10,10,11,11,15,15,16,16,17,17,18,18,21,21,26,26,27,27,31,31,32,32,37,37,38,38,42,42],"right_children":[2,4,6,8,10,12,14,-1,-1,16,18,20,-1,-1,-1,22,24,26,28,-1,-1,30,-1,-1,-1,-1,32,34,-1,-1,-1,36,38,-1,-1,-1,-1,40,42,-1,-1,-1,44,-1,-1],"split_conditions":[4.4E0,-7.5E-1,8E0,1.8833333E2,1.75E0,6.275E0,4.1261864E0,-1.5770286E-1,-8.86998E-2,8E-1,3.05E0,6.6778674E0,1.3001186E-1,1.4563978E-1,2.3671368E-1,3.9616194E0,4.3305554E2,1.6E0,4.45E0,9.390188E-2,4.910809E-2,1.3E0,-3.3318024E-2,-1.3937332E-2,-3.5074465E-2,-2.7299948E-2,1.81E0,3.0143754E0,1.5060746E-2,-6.399029E-2,-4.1349445E-2,-3.1805555E1,4.679971E0,5.0335716E-2,3.2385807E-2,2.8187076E-3,-1.7559202E-2,7.4E2,4.2504086E0,-8.47222E-3,6.9763213E-3,2.7501255E-2,2.5685785E0,1.6129393E-2,2.599326E-3],"split_indices":[74,74,74,56,74,74,33,0,0,74,74,33,0,0,0,42,55,75,82,0,0,80,0,0,0,0,79,49,0,0,0,57,30,0,0,0,0,59,32,0,0,0,17,0,0],"split_type":[0,0,0,0,0,0,0,0,0,0,0,0,0,0,0,0,0,0,0,0,0,0,0,0,0,0,0,0,0,0,0,0,0,0,0,0,0,0,0,0,0,0,0,0,0],"sum_hessian":[3.6E2,2.83E2,7.7E1,5.3E1,2.3E2,5.1E1,2.6E1,3.9E1,1.4E1,9.7E1,1.33E2,2.8E1,2.3E1,9E0,1.7E1,6.3E1,3.4E1,9.1E1,4.2E1,1.8E1,1E1,5.4E1,9E0,1.7E1,1.7E1,1.2E1,7.9E1,3.3E1,9E0,4.4E1,1E1,2.8E1,5.1E1,1.7E1,1.6E1,1.5E1,1.3E1,1.8E1,3.3E1,9E0,9E0,9E0,2.4E1,1.1E1,1.3E1],"tree_param":{"num_deleted":"0","num_feature":"84","num_nodes":"45","size_leaf_vector":"1"}},{"base_weights":[-7.996025E-2,-1.0807109E0,2.5728285E0,-3.4831727E0,-5.4677105E-1,1.622962E0,4.8423996E0,-1.5878065E-1,-1.04347266E-1,-1.252088E0,9.583526E-2,1.0356447E0,2.2489152E0,1.5051194E-1,2.3924443E-1,-1.4344876E0,-7.308997E-1,-1.5704502E-1,3.070546E-1,1.19054E0,2.1858528E-2,1.0490594E-1,7.1360946E-2,-3.3722155E-2,-1.5363854E0,-3.9367504E-2,-1.7082835E-2,-4.3071958E-1,-3.991822E-3,4.0634802E-1,-2.849385E-3,5.50862E-2,3.13828E-2,-6.592585E-2,-4.055533E-2,-8.896332E-3,-2.4656724E-2,9.864157E-3,-1.26116E-1,2.6357327E-2,2.6502705E-1,8.269706E-5,-9.622347E-3,1.4442663E-1,2.1646578E-2,1.8831557E-3,9.802898E-3],"categories":[],"categories_nodes":[],"categories_segments":[],"categories_sizes":[],"default_left":[0,0,0,0,0,0,0,0,0,0,0,0,0,0,0,0,0,0,0,0,0,0,0,0,0,0,0,0,0,0,0,0,0,0,0,0,0,0,0,0,0,0,0,0,0,0,0],"id":10,"left_children":[1,3,5,7,9,11,13,-1,-1,15,17,19,21,-1,-1,23,25,27,29,31,-1,-1,-1,-1,33,-1,-1,35,37,39,-1,-1,-1,-1,-1,-1,-1,-1,41,-1,43,-1,-1,45,-1,-1,-1],"loss_changes":[9.6912036E2,3.3802954E2,2.0771997E2,7.68396E0,9.892653E1,2.4140533E1,1.2305115E1,0E0,0E0,8.838257E0,6.1907406E0,2.4009018E0,9.011078E-1,0E0,0E0,3.4757843E0,1.6894188E0,2.2182791E0,2.3837552E0,8.581047E-1,0E0,0E0,0E0,0E0,9.15802E-1,0E0,0E0,5.625727E-1,1.0757661E0,1.5008402E0,0E0,0E0,0E0,0E0,0E0,0E0,0E0,0E0,3.3436355E-1,0E0,9.701934E-1,0E0,0E0,2.1280533E-1,0E0,0E0,0E0],"parents":[2147483647,0,0,1,1,2,2,3,3,4,4,5,5,6,6,9,9,10,10,11,11,12,12,15,15,16,16,17,17,18,18,19,19,24,24,27,27,28,28,29,29,38,38,40,40,43,43],"right_children":[2,4,6,8,10,12,14,-1,-1,16,18,20,22,-1,-1,24,26,28,30,32,-1,-1,-1,-1,34,-1,-1,36,38,40,-1,-1,-1,-1,-1,-1,-1,-1,42,-1,44,-1,-1,46,-1,-1,-1],"split_conditions":[3.4E0,-1E0,7.15E0,-2.25E0,1.75E0,4.54E0,1E1,-1.5878065E-1,-1.04347266E-1,9E-1,2.425E0,4.45E0,3.0980392E0,1.5051194E-1,2.3924443E-1,3.5313532E0,3.3438401E0,-6.9055554E2,6.535948E0,3.0143754E0,2.1858528E-2,1.0490594E-1,7.1360946E-2,-3.3722155E-2,3.1875E1,-3.9367504E-2,-1.7082835E-2,-1.855E3,-2.4492937E-16,2.2777777E0,-2.849385E-3,5.50862E-2,3.13828E-2,-6.592585E-2,-4.055533E-2,-8.896332E-3,-2.4656724E-2,9.864157E-3,5.26484E0,2.6357327E-2,3.05E0,8.269706E-5,-9.622347E-3,7.596667E2,2.1646578E-2,1.8831557E-3,9.802898E-3],"split_indices":[74,74,74,74,74,74,74,0,0,74,74,83,42,0,0,20,50,55,52,49,0,0,0,0,62,0,0,56,69,17,0,0,0,0,0,0,0,0,33,0,78,0,0,55,0,0,0],"split_type":[0,0,0,0,0,0,0,0,0,0,0,0,0,0,0,0,0,0,0,0,0,0,0,0,0,0,0,0,0,0,0,0,0,0,0,0,0,0,0,0,0,0,0,0,0,0,0],"sum_hessian":[3.63E2,2.64E2,9.9E1,4.7E1,2.17E2,7.1E1,2.8E1,3.1E1,1.6E1,1.03E2,1.14E2,3.8E1,3.3E1,1.5E1,1.3E1,7.5E1,2.8E1,5.2E1,6.2E1,2.8E1,1E1,1.8E1,1.5E1,1.2E1,6.3E1,1.5E1,1.3E1,1.8E1,3.4E1,4.9E1,1.3E1,1.9E1,9E0,5.4E1,9E0,9E0,9E0,1.1E1,2.3E1,1.7E1,3.2E1,1.1E1,1.2E1,2.3E1,9E0,1.2E1,1.1E1],"tree_param":{"num_deleted":"0","num_feature":"84","num_nodes":"47","size_leaf_vector":"1"}},{"base_weights":[6.5667145E-2,-9.798914E-1,2.9089298E0,-3.2875164E0,-3.9319754E-1,1.5816457E0,4.25811E0,-1.6568486E-1,-1.01374425E-1,-1.1144594E0,1.834877E-1,1.1094826E0,1.9178618E0,4.671303E0,8.936069E-2,-1.5332309E0,-8.6411875E-1,-5.1982846E-2,5.4758775E-1,2.8332576E-2,5.7826154E-2,8.803174E-2,5.1970303E-2,2.151552E-1,1.3779344E-1,-4.2795345E-2,-1.6872562E0,-6.52575E-1,-1.2286968E0,-1.6055051E-2,5.4307673E-2,5.839449E-3,6.504614E-1,-5.5411953E-2,-8.428463E-2,-8.3209133E-1,-5.5121747E-3,-3.6113758E-2,-5.7472844E-2,-1.9244644E-1,1.7945574E-1,7.791442E-1,1.2575511E-2,-3.849143E-2,-2.2660732E-2,-1.5073358E-2,8.0008525E-4,1.634825E-2,1.0037987E-1,2.2166515E-2,4.4152908E-2,9.250268E-3,3.596349E-2,-2.6724667E-3,6.3034166E-3],"categories":[],"categories_nodes":[],"categories_segments":[],"categories_sizes":[],"default_left":[0,0,0,0,0,0,0,0,0,0,0,0,0,0,0,0,0,0,0,0,0,0,0,0,0,0,0,0,0,0,0,0,0,0,0,0,0,0,0,0,0,0,0,0,0,0,0,0,0,0,0,0,0,0,0],"id":11,"left_children":[1,3,5,7,9,11,13,-1,-1,15,17,19,21,23,-1,25,27,29,31,-1,-1,-1,-1,-1,-1,-1,33,35,37,-1,39,-1,41,-1,-1,43,-1,-1,-1,45,47,49,-1,-1,-1,-1,-1,-1,51,-1,-1,-1,53,-1,-1],"loss_changes":[1.1057583E3,3.6695984E2,1.7233984E2,2.3786072E1,9.0879654E1,6.1271057E0,3.1902588E1,0E0,0E0,8.844147E0,1.0488116E1,2.0473137E0,1.6017685E0,1.25772705E1,0E0,8.77388E-1,4.057007E0,2.7285156E0,1.90802E0,0E0,0E0,0E0,0E0,0E0,0E0,0E0,3.1443787E-1,3.7946815E0,8.990097E-2,0E0,1.8256221E0,0E0,1.4419003E0,0E0,0E0,4.0546417E-1,0E0,0E0,0E0,7.498694E-1,6.3623166E-1,1.3351555E0,0E0,0E0,0E0,0E0,0E0,0E0,2.3390436E-1,0E0,0E0,0E0,2.6018927E-1,0E0,0E0],"parents":[2147483647,0,0,1,1,2,2,3,3,4,4,5,5,6,6,9,9,10,10,11,11,12,12,13,13,15,15,16,16,17,17,18,18,26,26,27,27,28,28,30,30,32,32,35,35,39,39,40,40,41,41,48,48,52,52],"right_children":[2,4,6,8,10,12,14,-1,-1,16,18,20,22,24,-1,26,28,30,32,-1,-1,-1,-1,-1,-1,-1,34,36,38,-1,40,-1,42,-1,-1,44,-1,-1,-1,46,48,50,-1,-1,-1,-1,-1,-1,52,-1,-1,-1,54,-1,-1],"split_conditions":[3.65E0,-7.5E-1,6.5E0,-3E0,1.75E0,4.54E0,9E0,-1.6568486E-1,-1.01374425E-1,1E-1,2.75E0,1.6316666E3,5.6130886E0,5.7124257E0,8.936069E-2,2.032967E0,4.968491E0,1.81E0,-3.1444446E2,2.8332576E-2,5.7826154E-2,8.803174E-2,5.1970303E-2,2.151552E-1,1.3779344E-1,-4.2795345E-2,3.5E-1,4.0667343E0,3.7E2,-1.6055051E-2,1.55E0,5.839449E-3,6.968254E0,-5.5411953E-2,-8.428463E-2,5.8856344E0,-5.5121747E-3,-3.6113758E-2,-5.7472844E-2,-4.861111E2,2.2609289E0,2.2222223E0,1.2575511E-2,-3.849143E-2,-2.2660732E-2,-1.5073358E-2,8.0008525E-4,1.634825E-2,2.25E0,2.2166515E-2,4.4152908E-2,9.250268E-3,7.596667E2,-2.6724667E-3,6.3034166E-3],"split_indices":[74,74,74,74,74,74,71,0,0,74,74,55,30,50,0,5,20,74,58,0,0,0,0,0,0,0,77,5,58,0,80,0,33,0,0,30,0,0,0,55,17,35,0,0,0,0,0,0,79,0,0,0,55,0,0],"split_type":[0,0,0,0,0,0,0,0,0,0,0,0,0,0,0,0,0,0,0,0,0,0,0,0,0,0,0,0,0,0,0,0,0,0,0,0,0,0,0,0,0,0,0,0,0,0,0,0,0,0,0,0,0,0,0],"sum_hessian":[3.7E2,2.71E2,9.9E1,5.4E1,2.17E2,5.1E1,4.8E1,2.6E1,2.8E1,9.6E1,1.21E2,2.3E1,2.8E1,3.9E1,9E0,3.4E1,6.2E1,7.4E1,4.7E1,1.1E1,1.2E1,1.9E1,9E0,2.5E1,1.4E1,1E1,2.4E1,4.1E1,2.1E1,1.7E1,5.7E1,1E1,3.7E1,1.5E1,9E0,3E1,1.1E1,9E0,1.2E1,1.9E1,3.8E1,2.6E1,1.1E1,2E1,1E1,1E1,9E0,9E0,2.9E1,1.6E1,1E1,9E0,2E1,1.1E1,9E0],"tree_param":{"num_deleted":"0","num_feature":"84","num_nodes":"55","size_leaf_vector":"1"}},{"base_weights":[-1.655806E-2,-9.252233E-1,2.5392354E0,-2.5474677E0,-1.2684432E-1,4.1690764E0,1.8068143E0,-3.4199188E0,-1.6950662E0,-8.50787E-1,1.171572E-1,4.7687545E0,1.1292476E-1,1.0823947E0,2.4206762E0,-1.5630092E-1,-1.0919407E-1,-1.4349202E0,-8.341337E-2,-1.00707E0,-2.02874E-2,-1.7317267E-1,3.594722E-1,2.2905733E-1,1.4242865E-1,2.9767333E-2,4.861695E-2,2.6387918E0,6.517756E-2,-4.3988947E-2,-6.6283084E-2,-5.235926E-2,-3.154292E-2,-6.2197816E-2,-3.0959906E-2,2.100932E-1,6.172536E-1,1.3119897E-1,8.417219E-2,-2.736962E-1,9.1760345E-2,3.167011E-1,-7.6661655E-3,3.1480882E-2,1.1664388E-2,-3.7669742E-3,-1.9011352E-2,-5.035546E-3,2.2664838E-1,4.3618363E-1,3.9544557E-3,1.7107425E-2,1.3434023E-3,2.302037E-2,1.220313E-2],"categories":[],"categories_nodes":[],"categories_segments":[],"categories_sizes":[],"default_left":[0,0,0,0,0,0,0,0,0,0,0,0,0,0,0,0,0,0,0,0,0,0,0,0,0,0,0,0,0,0,0,0,0,0,0,0,0,0,0,0,0,0,0,0,0,0,0,0,0,0,0,0,0,0,0],"id":12,"left_children":[1,3,5,7,9,11,13,15,17,19,21,23,-1,25,27,-1,-1,29,-1,31,-1,33,35,-1,-1,-1,-1,37,-1,-1,-1,-1,-1,39,-1,41,43,-1,-1,45,47,49,-1,-1,-1,-1,-1,-1,51,53,-1,-1,-1,-1,-1],"loss_changes":[8.50011E2,3.4937158E2,1.0706531E2,6.039044E1,3.2248722E1,1.1470123E1,2.7619019E1,2.6108398E0,1.2305603E0,2.0607796E0,9.7003765E0,7.176819E-1,0E0,3.548851E-1,2.330124E0,0E0,0E0,2.3928833E-1,0E0,1.007206E0,0E0,4.021667E0,2.7583532E0,0E0,0E0,0E0,0E0,2.3066864E0,0E0,0E0,0E0,0E0,0E0,1.7834573E0,0E0,2.1334407E0,1.1343651E0,0E0,0E0,7.519258E-1,9.540471E-1,9.842596E-1,0E0,0E0,0E0,0E0,0E0,0E0,7.254312E-1,2.6684237E-1,0E0,0E0,0E0,0E0,0E0],"parents":[2147483647,0,0,1,1,2,2,3,3,4,4,5,5,6,6,7,7,8,8,9,9,10,10,11,11,13,13,14,14,17,17,19,19,21,21,22,22,27,27,33,33,35,35,36,36,39,39,40,40,41,41,48,48,49,49],"right_children":[2,4,6,8,10,12,14,16,18,20,22,24,-1,26,28,-1,-1,30,-1,32,-1,34,36,-1,-1,-1,-1,38,-1,-1,-1,-1,-1,40,-1,42,44,-1,-1,46,48,50,-1,-1,-1,-1,-1,-1,52,54,-1,-1,-1,-1,-1],"split_conditions":[3.75E0,1E-1,2.107502E0,-1.5E0,1.3E0,5.5196705E0,4.8E0,-3E0,3.8530467E0,4.4158983E0,2.425E0,4.358264E0,1.1292476E-1,2.3954895E0,7.25E0,-1.5630092E-1,-1.0919407E-1,4.8333332E1,-8.341337E-2,9E-1,-2.02874E-2,8E0,3.05E0,2.2905733E-1,1.4242865E-1,2.9767333E-2,4.861695E-2,3.137496E0,6.517756E-2,-4.3988947E-2,-6.6283084E-2,-5.235926E-2,-3.154292E-2,3.2568808E0,-3.0959906E-2,4.821429E0,3.6E0,1.3119897E-1,8.417219E-2,2.4747474E0,-1.1116666E3,2.7763605E0,-7.6661655E-3,3.1480882E-2,1.1664388E-2,-3.7669742E-3,-1.9011352E-2,-5.035546E-3,4.1722223E2,1.2166666E3,3.9544557E-3,1.7107425E-2,1.3434023E-3,2.302037E-2,1.220313E-2],"split_indices":[74,74,42,74,74,30,74,74,45,5,74,52,0,5,76,0,0,57,0,75,0,71,74,0,0,0,0,30,0,0,0,0,0,42,0,49,79,0,0,42,57,17,0,0,0,0,0,0,59,59,0,0,0,0,0],"split_type":[0,0,0,0,0,0,0,0,0,0,0,0,0,0,0,0,0,0,0,0,0,0,0,0,0,0,0,0,0,0,0,0,0,0,0,0,0,0,0,0,0,0,0,0,0,0,0,0,0,0,0,0,0,0,0],"sum_hessian":[3.64E2,2.69E2,9.5E1,8.8E1,1.81E2,2.8E1,6.7E1,4.2E1,4.6E1,4.5E1,1.36E2,1.8E1,1E1,3.2E1,3.5E1,2.5E1,1.7E1,2.9E1,1.7E1,3E1,1.5E1,6.2E1,7.4E1,9E0,9E0,9E0,2.3E1,2.6E1,9E0,1.2E1,1.7E1,1.2E1,1.8E1,5.3E1,9E0,4.8E1,2.6E1,1.1E1,1.5E1,2.2E1,3.1E1,3.8E1,1E1,1.7E1,9E0,1.2E1,1E1,1.2E1,1.9E1,2.4E1,1.4E1,9E0,1E1,1.1E1,1.3E1],"tree_param":{"num_deleted":"0","num_feature":"84","num_nodes":"55","size_leaf_vector":"1"}},{"base_weights":[-1.1151663E-2,-7.6992184E-1,3.0674465E0,-2.4397519E0,-1.2581265E-1,4.4414124E0,2.1546166E0,-3.187354E0,-1.5912533E0,-7.0301896E-1,3.2808033E-1,1.3094755E-1,2.2024128E-1,1.5330896E0,2.608677E0,-1.5078129E-1,-1.0839556E-1,-4.107269E-2,-7.112291E-2,-4.870384E-3,-8.260706E-1,1.7496236E-1,7.814011E-1,3.47906E-2,8.100701E-2,1.2971817E-1,7.771694E-2,-5.948315E-1,-1.0733488E0,-9.837678E-2,2.7900165E-1,3.9438125E-2,1.8266639E-2,-6.9916844E-1,-8.260274E-3,-5.1367227E-2,-2.0470766E-2,-1.5499786E-2,7.7431547E-3,1.5741631E-1,5.586819E-1,-1.574585E-2,-3.563065E-2,2.4925204E-1,-1.2445113E-3,2.8247206E-2,1.5274119E-2,1.5234935E-1,1.7938022E-2,-7.771038E-4,1.1168473E-2],"categories":[],"categories_nodes":[],"categories_segments":[],"categories_sizes":[],"default_left":[0,0,0,0,0,0,0,0,0,0,0,0,0,0,0,0,0,0,0,0,0,0,0,0,0,0,0,0,0,0,0,0,0,0,0,0,0,0,0,0,0,0,0,0,0,0,0,0,0,0,0],"id":13,"left_children":[1,3,5,7,9,11,13,15,17,19,21,-1,-1,23,25,-1,-1,-1,-1,-1,27,29,31,-1,-1,-1,-1,33,35,37,39,-1,-1,41,-1,-1,-1,-1,-1,43,45,-1,-1,47,-1,-1,-1,49,-1,-1,-1],"loss_changes":[8.2695154E2,3.051501E2,7.8224304E1,4.5040924E1,5.4200565E1,1.4180969E1,8.417938E0,1.2026062E0,1.5601349E0,6.4438972E0,7.9150248E0,0E0,0E0,4.687275E0,3.5049438E0,0E0,0E0,0E0,0E0,0E0,3.6500626E0,2.5299926E0,1.3296165E0,0E0,0E0,0E0,0E0,1.5418653E0,2.9812164E0,2.0796428E0,2.0883756E0,0E0,0E0,1.3792276E0,0E0,0E0,0E0,0E0,0E0,8.0079055E-1,2.0407867E-1,0E0,0E0,4.9887705E-1,0E0,0E0,0E0,4.5760083E-1,0E0,0E0,0E0],"parents":[2147483647,0,0,1,1,2,2,3,3,4,4,5,5,6,6,7,7,8,8,9,9,10,10,13,13,14,14,20,20,21,21,22,22,27,27,28,28,29,29,30,30,33,33,39,39,40,40,43,43,47,47],"right_children":[2,4,6,8,10,12,14,16,18,20,22,-1,-1,24,26,-1,-1,-1,-1,-1,28,30,32,-1,-1,-1,-1,34,36,38,40,-1,-1,42,-1,-1,-1,-1,-1,44,46,-1,-1,48,-1,-1,-1,50,-1,-1,-1],"split_conditions":[4.4E0,-1E-1,1.6666666E0,-1.75E0,1.81E0,9.25E0,5.75E0,-3.5E0,-6.236111E2,-2.8E2,3.3E0,1.3094755E-1,2.2024128E-1,3.5208552E0,3.437268E0,-1.5078129E-1,-1.0839556E-1,-4.107269E-2,-7.112291E-2,-4.870384E-3,4.4281044E0,1.6E0,3.9034793E0,3.47906E-2,8.100701E-2,1.2971817E-1,7.771694E-2,8.672222E2,1.81E0,-1.5E2,3.1E0,3.9438125E-2,1.8266639E-2,1.125E0,-8.260274E-3,-5.1367227E-2,-2.0470766E-2,-1.5499786E-2,7.7431547E-3,6.513725E-1,3.7236876E0,-1.574585E-2,-3.563065E-2,2.7212806E0,-1.2445113E-3,2.8247206E-2,1.5274119E-2,5.5958133E0,1.7938022E-2,-7.771038E-4,1.1168473E-2],"split_indices":[74,74,42,74,74,74,82,74,59,63,77,0,0,52,52,0,0,0,0,0,20,79,52,0,0,0,0,56,80,55,74,0,0,78,0,0,0,0,0,68,50,0,0,35,0,0,0,30,0,0,0],"split_type":[0,0,0,0,0,0,0,0,0,0,0,0,0,0,0,0,0,0,0,0,0,0,0,0,0,0,0,0,0,0,0,0,0,0,0,0,0,0,0,0,0,0,0,0,0,0,0,0,0,0,0],"sum_hessian":[3.52E2,2.83E2,6.9E1,7.8E1,2.05E2,2.6E1,4.3E1,4E1,3.8E1,9E1,1.15E2,1.3E1,1.3E1,2E1,2.3E1,1.8E1,2.2E1,9E0,2.9E1,1.6E1,7.4E1,8.7E1,2.8E1,9E0,1.1E1,1.1E1,1.2E1,4E1,3.4E1,2.4E1,6.3E1,1.7E1,1.1E1,3.1E1,9E0,2.5E1,9E0,1.2E1,1.2E1,4.5E1,1.8E1,1.2E1,1.9E1,3E1,1.5E1,9E0,9E0,2.1E1,9E0,9E0,1.2E1],"tree_param":{"num_deleted":"0","num_feature":"84","num_nodes":"51","size_leaf_vector":"1"}},{"base_weights":[3.7267804E-2,-6.543239E-1,3.023602E0,-2.143206E0,-5.9887946E-2,2.3457851E0,2.1001263E-1,-3.0352323E0,-6.1049297E-2,-4.711391E-1,4.50516E-1,1.767649E0,2.9948032E0,-9.1746755E-2,-1.3751525E-1,-8.101063E-1,-2.050004E-1,1.7509122E-1,7.460844E-1,8.477997E-2,5.5637658E-2,9.822378E-2,1.4735296E-1,-1.3831176E-2,-9.012109E-1,-7.6792665E-2,-3.0401936E-2,2.8567553E-1,-1.2581751E-2,8.8874006E-1,1.2939348E-2,-1.0056955E0,-2.2446858E-2,9.745476E-3,-1.6796406E-1,3.9754263E-1,2.2737027E-4,6.910631E-1,4.378534E-2,-3.276539E-2,-4.8646368E-2,-3.1725433E-2,-3.4555563E-1,2.642244E-2,2.2067802E-1,3.4131322E-2,1.9702496E-2,-8.946692E-3,9.938886E-3,-2.020146E-2,-6.717324E-3,5.0660237E-3,1.2124795E-2],"categories":[],"categories_nodes":[],"categories_segments":[],"categories_sizes":[],"default_left":[0,0,0,0,0,0,0,0,0,0,0,0,0,0,0,0,0,0,0,0,0,0,0,0,0,0,0,0,0,0,0,0,0,0,0,0,0,0,0,0,0,0,0,0,0,0,0,0,0,0,0,0,0],"id":14,"left_children":[1,3,5,7,9,11,-1,13,-1,15,17,19,21,-1,-1,23,25,27,29,-1,-1,-1,-1,-1,31,33,-1,35,-1,37,-1,39,-1,-1,41,43,-1,45,-1,-1,-1,47,49,-1,51,-1,-1,-1,-1,-1,-1,-1,-1],"loss_changes":[7.5788696E2,2.6361505E2,8.6137085E1,4.5083344E1,4.513176E1,1.496817E1,0E0,1.393158E0,0E0,1.0569187E1,7.6844254E0,1.0148163E0,5.050659E-3,0E0,0E0,1.9356575E0,4.620422E0,2.805841E0,2.544468E0,0E0,0E0,0E0,0E0,0E0,1.0386353E0,1.6455692E0,0E0,1.3139625E0,0E0,4.66362E-1,0E0,2.4676895E-1,0E0,0E0,1.0536097E0,1.1678581E0,0E0,1.6555882E-1,0E0,0E0,0E0,1.382093E0,4.273765E-1,0E0,1.01940334E-1,0E0,0E0,0E0,0E0,0E0,0E0,0E0,0E0],"parents":[2147483647,0,0,1,1,2,2,3,3,4,4,5,5,7,7,9,9,10,10,11,11,12,12,15,15,16,16,17,17,18,18,24,24,25,25,27,27,29,29,31,31,34,34,35,35,37,37,41,41,42,42,44,44],"right_children":[2,4,6,8,10,12,-1,14,-1,16,18,20,22,-1,-1,24,26,28,30,-1,-1,-1,-1,-1,32,34,-1,36,-1,38,-1,40,-1,-1,42,44,-1,46,-1,-1,-1,48,50,-1,52,-1,-1,-1,-1,-1,-1,-1,-1],"split_conditions":[4.4E0,2E-1,1E1,-1.5E0,2.425E0,6.5E0,2.1001263E-1,-3.75E0,-6.1049297E-2,1.3E0,3.05E0,2.825719E0,9E0,-9.1746755E-2,-1.3751525E-1,-9.925E2,4.289406E0,6.535948E0,4.0707965E0,8.477997E-2,5.5637658E-2,9.822378E-2,1.4735296E-1,-1.3831176E-2,3.5989347E0,-2.4492937E-16,-3.0401936E-2,8.4864426E-1,-1.2581751E-2,3.65E0,1.2939348E-2,4.574373E0,-2.2446858E-2,9.745476E-3,1.81E0,8.6805554E2,2.2737027E-4,3.6324787E0,4.378534E-2,-3.276539E-2,-4.8646368E-2,5.497204E0,-1.0116832E-1,2.642244E-2,-2.4492937E-16,3.4131322E-2,1.9702496E-2,-8.946692E-3,9.938886E-3,-2.020146E-2,-6.717324E-3,5.0660237E-3,1.2124795E-2],"split_indices":[74,74,74,74,74,74,0,82,0,74,74,49,82,0,0,57,45,52,49,0,0,0,0,0,42,69,0,68,0,74,0,20,0,0,76,58,0,32,0,0,0,31,68,0,68,0,0,0,0,0,0,0,0],"split_type":[0,0,0,0,0,0,0,0,0,0,0,0,0,0,0,0,0,0,0,0,0,0,0,0,0,0,0,0,0,0,0,0,0,0,0,0,0,0,0,0,0,0,0,0,0,0,0,0,0,0,0,0,0],"sum_hessian":[3.65E2,2.97E2,6.8E1,8.4E1,2.13E2,5.3E1,1.5E1,3.4E1,5E1,1.18E2,9.5E1,3E1,2.3E1,1.2E1,2.2E1,5.1E1,6.7E1,5E1,4.5E1,1.5E1,1.5E1,1.4E1,9E0,9E0,4.2E1,5.5E1,1.2E1,4.1E1,9E0,3.3E1,1.2E1,3.1E1,1.1E1,1.2E1,4.3E1,2.9E1,1.2E1,1.8E1,1.5E1,1.7E1,1.4E1,2.5E1,1.8E1,1.1E1,1.8E1,9E0,9E0,1.5E1,1E1,9E0,9E0,9E0,9E0],"tree_param":{"num_deleted":"0","num_feature":"84","num_nodes":"53","size_leaf_vector":"1"}},{"base_weights":[-5.644208E-2,-8.174359E-1,2.5982294E0,-2.2336137E0,-1.8543218E-1,3.8474646E0,1.6852504E0,-2.94091E0,-1.5238345E0,-7.389599E-1,1.4729697E-1,2.0114407E-1,1.1040636E-1,1.2864974E0,9.849637E-2,-8.560103E-2,-1.3500828E-1,-1.2493626E0,-8.3736494E-2,-7.520254E-3,-8.562697E-1,-1.625256E-1,3.4361944E-1,6.0476255E-2,3.417945E-2,-3.721037E-2,-6.005601E-2,-9.552693E-1,-1.5607287E-2,-2.8743068E-2,-2.0274993E-2,1.4445646E-2,4.6305636E-1,-1.0478294E0,-2.0069582E-2,7.6156035E-3,-1.4307684E-1,-6.7828023E-3,6.6888104E-3,5.6736404E-3,5.4108006E-1,-2.5094414E-2,-4.887266E-2,-1.2579066E-2,-5.522693E-4,6.2141186E-1,1.5454563E-2,1.7440561E-2,2.8367117E-2],"categories":[],"categories_nodes":[],"categories_segments":[],"categories_sizes":[],"default_left":[0,0,0,0,0,0,0,0,0,0,0,0,0,0,0,0,0,0,0,0,0,0,0,0,0,0,0,0,0,0,0,0,0,0,0,0,0,0,0,0,0,0,0,0,0,0,0,0,0],"id":15,"left_children":[1,3,5,7,9,11,13,15,17,19,21,-1,-1,23,-1,-1,-1,25,-1,-1,27,29,31,-1,-1,-1,-1,33,-1,-1,35,37,39,41,-1,-1,43,-1,-1,-1,45,-1,-1,-1,-1,47,-1,-1,-1],"loss_changes":[7.253514E2,2.4929906E2,8.475812E1,3.8692657E1,3.583876E1,2.71203E1,1.0634781E1,5.7360535E0,3.852707E0,4.6003685E0,7.476513E0,0E0,0E0,1.5878105E0,0E0,0E0,0E0,1.0267143E0,0E0,0E0,2.4614372E0,3.6628487E0,2.9419737E0,0E0,0E0,0E0,0E0,1.5995445E0,0E0,0E0,1.0132685E0,5.886851E-1,1.3184032E0,1.7837105E0,0E0,0E0,5.2637935E-1,0E0,0E0,0E0,3.4593296E-1,0E0,0E0,0E0,0E0,9.248543E-2,0E0,0E0,0E0],"parents":[2147483647,0,0,1,1,2,2,3,3,4,4,5,5,6,6,7,7,8,8,9,9,10,10,13,13,17,17,20,20,21,21,22,22,27,27,30,30,31,31,32,32,33,33,36,36,40,40,45,45],"right_children":[2,4,6,8,10,12,14,16,18,20,22,-1,-1,24,-1,-1,-1,26,-1,-1,28,30,32,-1,-1,-1,-1,34,-1,-1,36,38,40,42,-1,-1,44,-1,-1,-1,46,-1,-1,-1,-1,48,-1,-1,-1],"split_conditions":[3.9E0,1E-1,2.107502E0,-1.5E0,1.75E0,5.7124257E0,6.275E0,-3.75E0,3.5636857E0,-1.08E3,2.425E0,2.0114407E-1,1.1040636E-1,6.759015E0,9.849637E-2,-8.560103E-2,-1.3500828E-1,7.596667E2,-8.3736494E-2,-7.520254E-3,2.3E0,1E0,1.6666666E0,6.0476255E-2,3.417945E-2,-3.721037E-2,-6.005601E-2,4.164777E0,-1.5607287E-2,-2.8743068E-2,-2.4492937E-16,1E1,2.55E0,-5.712682E-1,-2.0069582E-2,7.6156035E-3,3.2568808E0,-6.7828023E-3,6.6888104E-3,5.6736404E-3,2.7966635E0,-2.5094414E-2,-4.887266E-2,-1.2579066E-2,-5.522693E-4,2.1858182E0,1.5454563E-2,1.7440561E-2,2.8367117E-2],"split_indices":[74,74,42,74,74,50,74,83,45,57,74,0,0,30,0,0,0,55,0,0,78,73,5,0,0,0,0,17,0,0,69,33,74,68,0,0,42,0,0,0,50,0,0,0,0,17,0,0,0],"split_type":[0,0,0,0,0,0,0,0,0,0,0,0,0,0,0,0,0,0,0,0,0,0,0,0,0,0,0,0,0,0,0,0,0,0,0,0,0,0,0,0,0,0,0,0,0,0,0,0,0],"sum_hessian":[3.57E2,2.78E2,7.9E1,8.5E1,1.93E2,3.2E1,4.7E1,4.1E1,4.4E1,7.2E1,1.21E2,1.5E1,1.7E1,3.2E1,1.5E1,1.4E1,2.7E1,3.1E1,1.3E1,1.3E1,5.9E1,4.7E1,7.4E1,2.1E1,1.1E1,1.4E1,1.7E1,4.8E1,1.1E1,9E0,3.8E1,2E1,5.4E1,3.9E1,9E0,1.4E1,2.4E1,9E0,1.1E1,1.1E1,4.3E1,1.1E1,2.8E1,1E1,1.4E1,2.7E1,1.6E1,9E0,1.8E1],"tree_param":{"num_deleted":"0","num_feature":"84","num_nodes":"49","size_leaf_vector":"1"}},{"base_weights":[-6.17742E-3,-7.7539575E-1,2.2772515E0,-2.806511E0,-3.5723013E-1,1.2329242E0,3.3628843E0,-1.3024288E-1,-8.2538016E-2,-1.0529915E0,2.961982E-2,9.276259E-1,1.5250131E0,2.8343625E0,2.0426717E-1,-1.2196321E0,-6.761521E-1,-2.6329544E-1,3.502171E-1,4.9741168E-2,1.3154097E-2,7.07154E-2,4.398819E-2,1.344555E-1,8.947878E-2,-1.3244045E0,-3.6703322E-2,-1.6166016E-2,-4.4112217E-2,-1.3604088E-1,-2.9802226E-2,5.5036163E-1,1.5139027E-1,-6.106117E-2,-4.2269766E-2,1.0202043E-2,-2.1192129E-1,3.710615E-2,3.3531898E-1,2.5171167E-1,-6.341912E-3,-2.9764435E-1,6.1596986E-3,8.441914E-3,1.8350748E-2,1.3555172E-1,1.7608216E-2,-2.2652846E-2,-1.9594699E-1,8.917719E-3,1.64176E-3,-3.085002E-1,3.864648E-5,-8.281826E-3,-1.5865328E-2],"categories":[],"categories_nodes":[],"categories_segments":[],"categories_sizes":[],"default_left":[0,0,0,0,0,0,0,0,0,0,0,0,0,0,0,0,0,0,0,0,0,0,0,0,0,0,0,0,0,0,0,0,0,0,0,0,0,0,0,0,0,0,0,0,0,0,0,0,0,0,0,0,0,0,0],"id":16,"left_children":[1,3,5,7,9,11,13,-1,-1,15,17,19,21,23,-1,25,27,29,31,-1,-1,-1,-1,-1,-1,33,-1,-1,-1,35,-1,37,39,-1,-1,-1,41,-1,43,45,-1,47,-1,-1,-1,49,-1,-1,51,-1,-1,53,-1,-1,-1],"loss_changes":[6.62193E2,2.3851201E2,1.0356064E2,7.701111E0,6.328268E1,3.0440674E0,2.524591E1,0E0,0E0,4.4502716E0,1.4366202E1,4.28944E0,3.1707382E-1,3.5783691E0,0E0,7.5188446E-1,2.730669E0,4.6206107E0,2.8216505E0,0E0,0E0,0E0,0E0,0E0,0E0,4.483719E-1,0E0,0E0,0E0,1.9218001E0,0E0,2.4421892E0,1.2057428E0,0E0,0E0,0E0,1.7211626E0,0E0,2.565291E-1,5.4058397E-1,0E0,1.0321736E0,0E0,0E0,0E0,1.4000899E-1,0E0,0E0,7.315893E-1,0E0,0E0,9.731674E-2,0E0,0E0,0E0],"parents":[2147483647,0,0,1,1,2,2,3,3,4,4,5,5,6,6,9,9,10,10,11,11,12,12,13,13,15,15,16,16,17,17,18,18,25,25,29,29,31,31,32,32,36,36,38,38,39,39,41,41,45,45,48,48,51,51],"right_children":[2,4,6,8,10,12,14,-1,-1,16,18,20,22,24,-1,26,28,30,32,-1,-1,-1,-1,-1,-1,34,-1,-1,-1,36,-1,38,40,-1,-1,-1,42,-1,44,46,-1,48,-1,-1,-1,50,-1,-1,52,-1,-1,54,-1,-1,-1],"split_conditions":[3.75E0,-1E0,6.25E0,-2.25E0,1.25E0,5.25E0,1.075E1,-1.3024288E-1,-8.2538016E-2,3.4309895E0,2.425E0,3.3589537E0,6.1688223E0,3.9487778E3,2.0426717E-1,5.5E-1,2.9532163E0,8E0,4.361111E2,4.9741168E-2,1.3154097E-2,7.07154E-2,4.398819E-2,1.344555E-1,8.947878E-2,3.7247474E0,-3.6703322E-2,-1.6166016E-2,-4.4112217E-2,5E0,-2.9802226E-2,2.2222223E0,2.77E0,-6.106117E-2,-4.2269766E-2,1.0202043E-2,1.3675E3,3.710615E-2,2E0,2.75E0,-6.341912E-3,2.5E0,6.1596986E-3,8.441914E-3,1.8350748E-2,2.38414E0,1.7608216E-2,-2.2652846E-2,4.593254E0,8.917719E-3,1.64176E-3,4.688645E0,3.864648E-5,-8.281826E-3,-1.5865328E-2],"split_indices":[74,74,74,74,74,78,74,0,0,42,74,49,33,55,0,79,5,71,58,0,0,0,0,0,0,30,0,0,0,72,0,38,80,0,0,0,56,0,73,75,0,38,0,0,0,17,0,0,42,0,0,33,0,0,0],"split_type":[0,0,0,0,0,0,0,0,0,0,0,0,0,0,0,0,0,0,0,0,0,0,0,0,0,0,0,0,0,0,0,0,0,0,0,0,0,0,0,0,0,0,0,0,0,0,0,0,0,0,0,0,0,0,0],"sum_hessian":[3.75E2,2.81E2,9.4E1,4.7E1,2.34E2,4.9E1,4.5E1,3E1,1.7E1,8.3E1,1.51E2,2.6E1,2.3E1,3.6E1,9E0,5.6E1,2.7E1,7.9E1,7.2E1,1.7E1,9E0,1.4E1,9E0,1.9E1,1.7E1,4E1,1.6E1,1.7E1,1E1,6.3E1,1.6E1,3.5E1,3.7E1,2.3E1,1.7E1,1E1,5.3E1,1.2E1,2.3E1,2.8E1,9E0,4.3E1,1E1,1.2E1,1.1E1,1.8E1,1E1,1.1E1,3.2E1,9E0,9E0,2E1,1.2E1,1E1,1E1],"tree_param":{"num_deleted":"0","num_feature":"84","num_nodes":"55","size_leaf_vector":"1"}},{"base_weights":[2.0258369E-2,-7.485911E-1,2.1853828E0,-1.9719555E0,-1.2619178E-1,1.4614859E0,3.632749E0,-2.7360575E0,-1.2890469E0,-6.1690956E-1,1.4703147E-1,9.474056E-1,1.962435E0,8.1017844E-2,4.295976E0,-7.376389E-2,-1.2466899E-1,-1.1062986E0,-6.7809485E-2,-8.9217377E-1,-4.5900077E-1,-6.671676E-3,4.6249104E-1,1.9877553E-2,1.1392239E0,9.106229E-2,5.7143573E-2,2.091602E-1,1.15588814E-1,-2.8865376E-2,-4.9628615E-2,-4.5372896E-2,-2.768507E-2,-6.155566E-4,-5.7273996E-1,2.8879738E-1,-9.567549E-2,5.9603846E-1,4.6059173E-3,5.8520943E-2,3.571913E-2,-7.009316E-1,-9.402451E-3,1.6590022E-2,5.9072934E-3,-2.6410562E-1,8.6707406E-2,6.846836E-1,1.5088365E-2,-2.0660939E-2,-3.714007E-2,-2.178458E-2,-8.610381E-2,2.0156762E-1,-5.7586012E-3,2.008132E-2,3.3255532E-2,2.1337478E-3,-7.956072E-3,3.710118E-3,1.2902832E-2],"categories":[],"categories_nodes":[],"categories_segments":[],"categories_sizes":[],"default_left":[0,0,0,0,0,0,0,0,0,0,0,0,0,0,0,0,0,0,0,0,0,0,0,0,0,0,0,0,0,0,0,0,0,0,0,0,0,0,0,0,0,0,0,0,0,0,0,0,0,0,0,0,0,0,0,0,0,0,0,0,0],"id":17,"left_children":[1,3,5,7,9,11,13,15,17,19,21,23,25,-1,27,-1,-1,29,-1,31,33,35,37,-1,39,-1,-1,-1,-1,-1,-1,-1,-1,-1,41,43,45,47,-1,-1,-1,49,-1,-1,-1,51,53,55,-1,-1,-1,-1,57,59,-1,-1,-1,-1,-1,-1,-1],"loss_changes":[6.2255225E2,2.099034E2,9.736975E1,4.5001617E1,2.47606E1,1.5395157E1,2.667163E1,6.8032227E0,1.5707016E0,2.4592915E0,5.773055E0,2.5533257E0,1.7574615E0,0E0,1.1786743E1,0E0,0E0,6.980324E-1,0E0,3.2286263E-1,2.2133455E0,2.1577585E0,1.756753E0,0E0,6.098442E-1,0E0,0E0,0E0,0E0,0E0,0E0,0E0,0E0,0E0,1.3800449E0,2.6020908E-1,1.9581827E0,3.1401348E-1,0E0,0E0,0E0,5.527992E-1,0E0,0E0,0E0,1.5239491E0,8.371559E-1,7.088947E-2,0E0,0E0,0E0,0E0,3.2326046E-1,2.354241E-1,0E0,0E0,0E0,0E0,0E0,0E0,0E0],"parents":[2147483647,0,0,1,1,2,2,3,3,4,4,5,5,6,6,7,7,8,8,9,9,10,10,11,11,12,12,14,14,17,17,19,19,20,20,21,21,22,22,24,24,34,34,35,35,36,36,37,37,41,41,45,45,46,46,47,47,52,52,53,53],"right_children":[2,4,6,8,10,12,14,16,18,20,22,24,26,-1,28,-1,-1,30,-1,32,34,36,38,-1,40,-1,-1,-1,-1,-1,-1,-1,-1,-1,42,44,46,48,-1,-1,-1,50,-1,-1,-1,52,54,56,-1,-1,-1,-1,58,60,-1,-1,-1,-1,-1,-1,-1],"split_conditions":[3.75E0,2E-1,7.15E0,-1.5E0,1.75E0,4.95E0,1.6666666E0,-3.75E0,3.8530467E0,5.5E-1,2.8333333E0,3.6E0,3.1217873E0,8.1017844E-2,4.5539017E0,-7.376389E-2,-1.2466899E-1,-3.3E2,-6.7809485E-2,-1.6E-1,1.3E0,-2.4492937E-16,2.6923077E0,1.9877553E-2,8.266667E2,9.106229E-2,5.7143573E-2,2.091602E-1,1.15588814E-1,-2.8865376E-2,-4.9628615E-2,-4.5372896E-2,-2.768507E-2,-6.155566E-4,5.3669105E0,2.267642E0,1.81E0,6.968254E0,4.6059173E-3,5.8520943E-2,3.571913E-2,-3.8333332E1,-9.402451E-3,1.6590022E-2,5.9072934E-3,2.5670497E0,8.9780456E-1,1.2255555E3,1.5088365E-2,-2.0660939E-2,-3.714007E-2,-2.178458E-2,2E0,3.4301608E0,-5.7586012E-3,2.008132E-2,3.3255532E-2,2.1337478E-3,-7.956072E-3,3.710118E-3,1.2902832E-2],"split_indices":[74,74,74,74,74,74,49,83,45,83,74,77,17,0,52,0,0,57,0,78,83,69,17,0,58,0,0,0,0,0,0,0,0,0,20,17,79,33,0,0,0,57,0,0,0,33,68,56,0,0,0,0,75,49,0,0,0,0,0,0,0],"split_type":[0,0,0,0,0,0,0,0,0,0,0,0,0,0,0,0,0,0,0,0,0,0,0,0,0,0,0,0,0,0,0,0,0,0,0,0,0,0,0,0,0,0,0,0,0,0,0,0,0,0,0,0,0,0,0,0,0,0,0,0,0],"sum_hessian":[3.72E2,2.75E2,9.7E1,9.2E1,1.83E2,6.6E1,3.1E1,4.2E1,5E1,6.5E1,1.18E2,3.4E1,3.2E1,1E1,2.1E1,1.2E1,3E1,3.6E1,1.4E1,2.2E1,4.3E1,8E1,3.8E1,1.1E1,2.3E1,2E1,1.2E1,1.2E1,9E0,9E0,2.7E1,9E0,1.3E1,9E0,3.4E1,1.8E1,6.2E1,2.7E1,1.1E1,9E0,1.4E1,2.4E1,1E1,9E0,9E0,3.2E1,3E1,1.8E1,9E0,1.4E1,1E1,1.2E1,2E1,2E1,1E1,9E0,9E0,9E0,1.1E1,1.1E1,9E0],"tree_param":{"num_deleted":"0","num_feature":"84","num_nodes":"61","size_leaf_vector":"1"}},{"base_weights":[-6.376474E-2,-6.906154E-1,2.360908E0,-2.0604434E0,-1.6797632E-1,1.5417763E0,3.5382133E0,-1.1915692E-1,-1.5224997E0,-6.278306E-1,1.8597843E-1,1.754595E0,2.8909814E-2,9.381225E-2,1.6256571E-1,-7.597976E-2,-1.2292619E0,-7.3541415E-1,-4.5074453E-3,3.0293703E-1,-3.798234E-1,8.759218E-2,1.380148E0,-3.5737824E-2,-5.700728E-2,-8.333215E-1,-1.1549811E-2,8.9921676E-2,5.0583565E-1,4.6473416E-3,-3.8279604E-2,3.863191E-2,7.247245E-2,-5.9926224E-1,-9.7527343E-1,1.4471515E-1,-5.8926716E-3,4.79922E-3,6.357595E-1,-3.5897635E-2,-1.2296021E-2,-1.1016537E0,-2.1479132E-2,-3.3465397E-4,2.2428723E-1,4.727107E-1,3.5024397E-2,-5.3145163E-2,-3.3394367E-2,1.1926502E-2,3.360893E-3,2.4155213E-2,1.2594132E-2],"categories":[],"categories_nodes":[],"categories_segments":[],"categories_sizes":[],"default_left":[0,0,0,0,0,0,0,0,0,0,0,0,0,0,0,0,0,0,0,0,0,0,0,0,0,0,0,0,0,0,0,0,0,0,0,0,0,0,0,0,0,0,0,0,0,0,0,0,0,0,0,0,0],"id":18,"left_children":[1,3,5,7,9,11,13,-1,15,17,19,21,-1,-1,-1,-1,23,25,-1,27,29,-1,31,-1,-1,33,-1,35,37,-1,-1,-1,-1,39,41,43,-1,-1,45,-1,-1,47,-1,-1,49,51,-1,-1,-1,-1,-1,-1,-1],"loss_changes":[5.5487695E2,2.0727232E2,6.687247E1,3.1975647E1,3.4460728E1,6.953415E0,6.934204E0,0E0,2.6671143E0,5.0450935E0,8.056108E0,2.1981583E0,0E0,0E0,0E0,0E0,5.1699066E-1,3.1413002E0,0E0,4.2765665E0,5.8415966E0,0E0,1.897686E0,0E0,0E0,1.4755173E0,0E0,6.60911E-1,2.5016928E0,0E0,0E0,0E0,0E0,1.8878775E0,1.5336037E0,5.005864E-1,0E0,0E0,9.499426E-1,0E0,0E0,5.086479E-1,0E0,0E0,2.3207617E-1,2.8163338E-1,0E0,0E0,0E0,0E0,0E0,0E0,0E0],"parents":[2147483647,0,0,1,1,2,2,3,3,4,4,5,5,6,6,8,8,9,9,10,10,11,11,16,16,17,17,19,19,20,20,22,22,25,25,27,27,28,28,33,33,34,34,35,35,38,38,41,41,44,44,45,45],"right_children":[2,4,6,8,10,12,14,-1,16,18,20,22,-1,-1,-1,-1,24,26,-1,28,30,-1,32,-1,-1,34,-1,36,38,-1,-1,-1,-1,40,42,44,-1,-1,46,-1,-1,48,-1,-1,50,52,-1,-1,-1,-1,-1,-1,-1],"split_conditions":[4.26E0,-1E-1,7.15E0,-2.7E0,1.81E0,5.0677505E0,2.938247E0,-1.1915692E-1,-1E0,2.425E0,6.535948E0,2.683971E0,2.8909814E-2,9.381225E-2,1.6256571E-1,-7.597976E-2,-1.75E-1,1.64E0,-4.5074453E-3,2.75E0,1.9660838E0,8.759218E-2,2.7216667E3,-3.5737824E-2,-5.700728E-2,-2.9936314E-1,-1.1549811E-2,6.747685E0,3.1060605E0,4.6473416E-3,-3.8279604E-2,3.863191E-2,7.247245E-2,-3.6666666E2,4.164777E0,3.2568808E0,-5.8926716E-3,4.79922E-3,5E0,-3.5897635E-2,-1.2296021E-2,6.513725E-1,-2.1479132E-2,-3.3465397E-4,2.05E0,1.8E1,3.5024397E-2,-5.3145163E-2,-3.3394367E-2,1.1926502E-2,3.360893E-3,2.4155213E-2,1.2594132E-2],"split_indices":[74,74,74,74,74,12,30,0,74,80,52,42,0,0,0,0,82,74,0,74,35,0,56,0,0,68,0,31,5,0,0,0,0,55,17,42,0,0,71,0,0,68,0,0,83,72,0,0,0,0,0,0,0],"split_type":[0,0,0,0,0,0,0,0,0,0,0,0,0,0,0,0,0,0,0,0,0,0,0,0,0,0,0,0,0,0,0,0,0,0,0,0,0,0,0,0,0,0,0,0,0,0,0,0,0,0,0,0,0],"sum_hessian":[3.63E2,2.89E2,7.4E1,7.9E1,2.1E2,4.5E1,2.9E1,2.9E1,5E1,9.1E1,1.19E2,3.5E1,1E1,9E0,2E1,2.1E1,2.9E1,7.5E1,1.6E1,9.9E1,2E1,1.5E1,2E1,1.1E1,1.8E1,6.1E1,1.4E1,4.9E1,5E1,1.1E1,9E0,1.1E1,9E0,2.5E1,3.6E1,4E1,9E0,1.3E1,3.7E1,1.2E1,1.3E1,2.7E1,9E0,1.4E1,2.6E1,2.3E1,1.4E1,1.4E1,1.3E1,1.7E1,9E0,1.2E1,1.1E1],"tree_param":{"num_deleted":"0","num_feature":"84","num_nodes":"53","size_leaf_vector":"1"}},{"base_weights":[-3.161085E-2,-6.055031E-1,2.3048184E0,-1.8113635E0,-8.5723035E-2,1.5720375E0,3.5902536E0,-1.1207119E-1,-1.35087E0,-4.3138734E-1,3.5307088E-1,1.7989918E0,3.4443296E-2,1.0418657E-1,1.6488402E-1,-1.4710007E0,-3.2939304E-2,-2.1788356E-1,-7.661005E-1,1.3258559E-1,5.805649E-1,5.852503E-2,9.5036745E-2,-1.7460666E0,-4.49401E-2,-2.7683E-2,-1.037414E-1,-1.8105052E-2,-9.54069E-1,2.3944528E-1,-1.17563335E-2,7.4196166E-1,5.6834943E-3,-5.0218523E-2,-7.994834E-2,1.3800726E-2,-2.1396251E-1,-2.7882947E-2,-4.907002E-2,1.7307194E-2,1.1529253E-1,3.684554E-2,2.169247E-2,3.7109207E-3,-2.9869866E-1,1.0119681E-3,9.0254815E-3,-1.4312944E-3,-3.8224125E-1,-2.0060748E-2,-7.0654065E-3],"categories":[],"categories_nodes":[],"categories_segments":[],"categories_sizes":[],"default_left":[0,0,0,0,0,0,0,0,0,0,0,0,0,0,0,0,0,0,0,0,0,0,0,0,0,0,0,0,0,0,0,0,0,0,0,0,0,0,0,0,0,0,0,0,0,0,0,0,0,0,0],"id":19,"left_children":[1,3,5,7,9,11,13,-1,15,17,19,21,-1,-1,-1,23,-1,25,27,29,31,-1,-1,33,-1,-1,35,-1,37,39,-1,41,-1,-1,-1,-1,43,-1,-1,-1,45,-1,-1,-1,47,-1,-1,-1,49,-1,-1],"loss_changes":[4.8276382E2,1.8098476E2,6.1233887E1,3.324872E1,3.0942413E1,6.296379E0,1.0929871E0,0E0,2.764305E0,7.979805E0,4.4373436E0,3.4402008E0,0E0,0E0,0E0,3.036003E0,0E0,3.6360497E0,2.2626266E0,2.174681E0,3.0355864E0,0E0,0E0,3.747406E-1,0E0,0E0,2.8870654E0,0E0,9.819946E-1,8.131871E-1,0E0,5.9204483E-1,0E0,0E0,0E0,0E0,1.2396283E0,0E0,0E0,0E0,2.2255933E-1,0E0,0E0,0E0,8.020482E-1,0E0,0E0,0E0,5.4485226E-1,0E0,0E0],"parents":[2147483647,0,0,1,1,2,2,3,3,4,4,5,5,6,6,8,8,9,9,10,10,11,11,15,15,17,17,18,18,19,19,20,20,23,23,26,26,28,28,29,29,31,31,36,36,40,40,44,44,48,48],"right_children":[2,4,6,8,10,12,14,-1,16,18,20,22,-1,-1,-1,24,-1,26,28,30,32,-1,-1,34,-1,-1,36,-1,38,40,-1,42,-1,-1,-1,-1,44,-1,-1,-1,46,-1,-1,-1,48,-1,-1,-1,50,-1,-1],"split_conditions":[4.4E0,1E-1,7.15E0,-2.7E0,2.3E0,6.6787734E0,-1.1436111E3,-1.1207119E-1,1.6E0,8E0,3.05E0,6.25E0,3.4443296E-2,1.0418657E-1,1.6488402E-1,6.158333E2,-3.2939304E-2,1E0,-1.1466666E3,6.535948E0,4.0707965E0,5.852503E-2,9.5036745E-2,2.1310542E0,-4.49401E-2,-2.7683E-2,2.8105648E0,-1.8105052E-2,7.5E-1,2.312009E0,-1.17563335E-2,4.9387755E0,5.6834943E-3,-5.0218523E-2,-7.994834E-2,1.3800726E-2,-7.116667E2,-2.7882947E-2,-4.907002E-2,1.7307194E-2,2.55E0,3.684554E-2,2.169247E-2,3.7109207E-3,1.125E0,1.0119681E-3,9.0254815E-3,-1.4312944E-3,2.51E0,-2.0060748E-2,-7.0654065E-3],"split_indices":[74,74,74,74,74,30,59,0,80,71,74,74,0,0,0,56,0,74,59,52,49,0,0,35,0,0,49,0,75,17,0,5,0,0,0,0,63,0,0,0,74,0,0,0,82,0,0,0,80,0,0],"split_type":[0,0,0,0,0,0,0,0,0,0,0,0,0,0,0,0,0,0,0,0,0,0,0,0,0,0,0,0,0,0,0,0,0,0,0,0,0,0,0,0,0,0,0,0,0,0,0,0,0,0,0],"sum_hessian":[3.58E2,2.88E2,7E1,8.6E1,2.02E2,4.6E1,2.4E1,2.7E1,5.9E1,1.13E2,8.9E1,3.4E1,1.2E1,9E0,1.5E1,4.7E1,1.2E1,7E1,4.3E1,4.6E1,4.3E1,2.2E1,1.2E1,2.5E1,2.2E1,1.3E1,5.7E1,1.7E1,2.6E1,3.7E1,9E0,3.1E1,1.2E1,9E0,1.6E1,1.1E1,4.6E1,1.4E1,1.2E1,1.4E1,2.3E1,1.6E1,1.5E1,1E1,3.6E1,1.3E1,1E1,9E0,2.7E1,1.7E1,1E1],"tree_param":{"num_deleted":"0","num_feature":"84","num_nodes":"51","size_leaf_vector":"1"}},{"base_weights":[-4.6922524E-2,-7.236246E-1,2.0375454E0,-2.362265E0,-3.603196E-1,1.0363253E0,3.0152128E0,-1.1445874E-1,-7.6876186E-2,-8.21388E-1,7.205714E-2,1.1989245E0,1.4240761E-2,2.3703144E0,1.6826381E-1,-9.6039534E-1,-3.2146782E-1,1.329987E-1,-2.4076153E-2,3.2291494E-2,1.3717716E0,6.204636E-2,2.7231421E0,-7.2887926E-3,-1.0519394E0,-2.1488154E-2,1.4305958E-3,4.5782767E-2,4.4953588E-1,3.8659286E-2,6.814706E-2,1.3412921E-1,8.1062235E-2,-9.3997264E-1,-6.4018786E-2,-1.712822E-1,1.800726E-1,2.6727052E-2,1.1188702E-2,-1.0074236E0,-1.9474778E-2,-1.8070068E-2,3.677215E-3,-1.7634718E-2,3.7111056E-1,-2.8606117E-2,-4.494265E-2,5.6981826E-3,-6.521211E-3,6.6149896E-3,-1.0446789E-2,2.6611745E-2,5.717405E-3],"categories":[],"categories_nodes":[],"categories_segments":[],"categories_sizes":[],"default_left":[0,0,0,0,0,0,0,0,0,0,0,0,0,0,0,0,0,0,0,0,0,0,0,0,0,0,0,0,0,0,0,0,0,0,0,0,0,0,0,0,0,0,0,0,0,0,0,0,0,0,0,0,0],"id":20,"left_children":[1,3,5,7,9,11,13,-1,-1,15,17,19,-1,21,-1,23,25,27,-1,-1,29,-1,31,-1,33,-1,-1,35,37,-1,-1,-1,-1,39,-1,41,43,-1,-1,45,-1,-1,47,49,51,-1,-1,-1,-1,-1,-1,-1,-1],"loss_changes":[5.0645627E2,1.6048224E2,8.301492E1,5.0175476E0,4.451541E1,4.6248856E0,2.1167023E1,0E0,0E0,7.196457E0,4.7386985E0,1.4790802E0,0E0,4.9500732E0,0E0,5.831108E0,1.8235512E0,2.9333773E0,0E0,0E0,1.4212723E0,0E0,1.7127533E0,0E0,2.8107758E0,0E0,0E0,2.508561E0,6.441736E-1,0E0,0E0,0E0,0E0,1.5287285E0,0E0,1.5573404E0,2.0083334E0,0E0,0E0,7.46788E-1,0E0,0E0,4.84483E-1,1.1871741E0,1.6480677E0,0E0,0E0,0E0,0E0,0E0,0E0,0E0,0E0],"parents":[2147483647,0,0,1,1,2,2,3,3,4,4,5,5,6,6,9,9,10,10,11,11,13,13,15,15,16,16,17,17,20,20,22,22,24,24,27,27,28,28,33,33,35,35,36,36,39,39,42,42,43,43,44,44],"right_children":[2,4,6,8,10,12,14,-1,-1,16,18,20,-1,22,-1,24,26,28,-1,-1,30,-1,32,-1,34,-1,-1,36,38,-1,-1,-1,-1,40,-1,42,44,-1,-1,46,-1,-1,48,50,52,-1,-1,-1,-1,-1,-1,-1,-1],"split_conditions":[3.75E0,-7.5E-1,6.275E0,-3E0,1.75E0,4.1695857E0,9.5E0,-1.1445874E-1,-7.6876186E-2,2.05E0,8E0,3.1007304E0,1.4240761E-2,4.1261864E0,1.6826381E-1,-1.5477778E3,3.5395365E0,3.05E0,-2.4076153E-2,3.2291494E-2,-4.5E2,6.204636E-2,2.4074075E0,-7.2887926E-3,4.4683027E0,-2.1488154E-2,1.4305958E-3,2.8243022E0,3.066343E0,3.8659286E-2,6.814706E-2,1.3412921E-1,8.1062235E-2,5.990741E0,-6.4018786E-2,1.5E1,-1.6E2,2.6727052E-2,1.1188702E-2,-4.4666666E2,-1.9474778E-2,-1.8070068E-2,1.2938889E3,4.9517994E0,6.0176992E0,-2.8606117E-2,-4.494265E-2,5.6981826E-3,-6.521211E-3,6.6149896E-3,-1.0446789E-2,2.6611745E-2,5.717405E-3],"split_indices":[74,74,74,74,74,52,74,0,0,80,71,35,0,33,0,57,50,74,0,0,59,0,17,0,45,0,0,42,32,0,0,0,0,49,0,59,57,0,0,57,0,0,57,52,16,0,0,0,0,0,0,0,0],"split_type":[0,0,0,0,0,0,0,0,0,0,0,0,0,0,0,0,0,0,0,0,0,0,0,0,0,0,0,0,0,0,0,0,0,0,0,0,0,0,0,0,0,0,0,0,0,0,0,0,0,0,0,0,0],"sum_hessian":[3.57E2,2.7E2,8.7E1,4.8E1,2.22E2,4.4E1,4.3E1,2.3E1,2.5E1,1.07E2,1.15E2,3.5E1,9E0,2.9E1,1.4E1,8.3E1,2.4E1,1.06E2,9E0,1.2E1,2.3E1,1E1,1.9E1,9E0,7.4E1,1.5E1,9E0,8.4E1,2.2E1,1.1E1,1.2E1,9E0,1E1,6.3E1,1.1E1,3.2E1,5.2E1,9E0,1.3E1,5.4E1,9E0,1.2E1,2E1,2.6E1,2.6E1,1.4E1,4E1,1.1E1,9E0,1.5E1,1.1E1,1.1E1,1.5E1],"tree_param":{"num_deleted":"0","num_feature":"84","num_nodes":"53","size_leaf_vector":"1"}},{"base_weights":[-1.612595E-2,-5.881473E-1,2.1577854E0,-1.7158996E0,-1.1112292E-1,1.4964172E0,3.2194693E0,-2.1532712E0,-1.0736939E0,-5.431439E-1,1.2159668E-1,1.6929398E0,3.6180176E-2,7.5778216E-2,1.5730426E-1,-1.0565009E-1,-7.086221E-2,-2.559224E-2,-1.2105433E0,-3.8602434E-2,-4.463496E-1,2.2335601E-1,-3.557237E-1,8.446162E-2,1.4157517E0,-3.7367217E-2,-5.6600027E-2,9.370448E-5,-5.460971E-1,8.2578175E-2,5.9246254E-1,-3.8625736E-2,5.0303517E-3,7.1300045E-2,3.8309783E-2,-6.812803E-1,-1.1618048E-2,-1.00367535E-2,3.3777106E-1,2.9843228E-2,1.2997174E-2,-2.1525444E-2,-3.521536E-2,-1.4843303E-1,1.1485445E-1,1.9220738E-2,6.5544154E-3,3.8473002E-4,-1.0558258E-2,-1.7801431E-3,1.9616164E-1,1.3226595E-2,1.5360005E-3],"categories":[],"categories_nodes":[],"categories_segments":[],"categories_sizes":[],"default_left":[0,0,0,0,0,0,0,0,0,0,0,0,0,0,0,0,0,0,0,0,0,0,0,0,0,0,0,0,0,0,0,0,0,0,0,0,0,0,0,0,0,0,0,0,0,0,0,0,0,0,0,0,0],"id":21,"left_children":[1,3,5,7,9,11,13,15,17,19,21,23,-1,-1,-1,-1,-1,-1,25,-1,27,29,31,-1,33,-1,-1,-1,35,37,39,-1,-1,-1,-1,41,-1,43,45,-1,-1,-1,-1,47,49,-1,-1,-1,-1,-1,51,-1,-1],"loss_changes":[4.1784952E2,1.4290808E2,4.43338E1,1.9877777E1,1.896752E1,3.9357605E0,1.4913757E1,3.8254852E0,1.3358154E0,2.1247654E0,6.0537853E0,4.4142914E-1,0E0,0E0,0E0,0E0,0E0,0E0,1.2794495E-2,0E0,2.46251E0,5.2512007E0,6.287183E0,0E0,1.7985687E0,0E0,0E0,0E0,1.4051981E0,1.7759902E0,8.1373787E-1,0E0,0E0,0E0,0E0,3.5405254E-1,0E0,9.849789E-1,3.9127064E-1,0E0,0E0,0E0,0E0,4.672351E-1,3.945779E-1,0E0,0E0,0E0,0E0,0E0,3.8922477E-1,0E0,0E0],"parents":[2147483647,0,0,1,1,2,2,3,3,4,4,5,5,6,6,7,7,8,8,9,9,10,10,11,11,18,18,20,20,21,21,22,22,24,24,28,28,29,29,30,30,35,35,37,37,38,38,43,43,44,44,50,50],"right_children":[2,4,6,8,10,12,14,16,18,20,22,24,-1,-1,-1,-1,-1,-1,26,-1,28,30,32,-1,34,-1,-1,-1,36,38,40,-1,-1,-1,-1,42,-1,44,46,-1,-1,-1,-1,48,50,-1,-1,-1,-1,-1,52,-1,-1],"split_conditions":[4.26E0,-1E-1,7.5E0,-1E0,1.75E0,3.61532E0,3.4446182E0,-3E0,-3.5E-1,2.178471E0,5.0992064E0,3.8803333E3,3.6180176E-2,7.5778216E-2,1.5730426E-1,-1.0565009E-1,-7.086221E-2,-2.559224E-2,4.5897527E0,-3.8602434E-2,-9.25E1,5.0916666E2,3.1036747E0,8.446162E-2,2.4413145E0,-3.7367217E-2,-5.6600027E-2,9.370448E-5,1.23E0,2.75E0,5.67001E0,-3.8625736E-2,5.0303517E-3,7.1300045E-2,3.8309783E-2,2.675E2,-1.1618048E-2,3.4835005E0,2.7944445E1,2.9843228E-2,1.2997174E-2,-2.1525444E-2,-3.521536E-2,0E0,1.3E0,1.9220738E-2,6.5544154E-3,3.8473002E-4,-1.0558258E-2,-1.7801431E-3,2.05E0,1.3226595E-2,1.5360005E-3],"split_indices":[74,74,74,74,74,42,49,74,79,17,45,55,0,0,0,0,0,0,52,0,58,56,32,0,42,0,0,0,74,75,33,0,0,0,0,57,0,42,55,0,0,0,0,69,80,0,0,0,0,0,83,0,0],"split_type":[0,0,0,0,0,0,0,0,0,0,0,0,0,0,0,0,0,0,0,0,0,0,0,0,0,0,0,0,0,0,0,0,0,0,0,0,0,0,0,0,0,0,0,0,0,0,0,0,0,0,0,0,0],"sum_hessian":[3.34E2,2.65E2,6.9E1,7.8E1,1.87E2,4.4E1,2.5E1,4.5E1,3.3E1,6.5E1,1.22E2,3.2E1,1.2E1,9E0,1.6E1,2E1,2.5E1,9E0,2.4E1,1.1E1,5.4E1,1.01E2,2.1E1,1.1E1,2.1E1,1.1E1,1.3E1,1E1,4.4E1,7.4E1,2.7E1,9E0,1.2E1,1.1E1,1E1,2.8E1,1.6E1,5.5E1,1.9E1,1.7E1,1E1,1.7E1,1.1E1,2.6E1,2.9E1,1E1,9E0,1.1E1,1.5E1,1E1,1.9E1,1E1,9E0],"tree_param":{"num_deleted":"0","num_feature":"84","num_nodes":"53","size_leaf_vector":"1"}},{"base_weights":[-1.0210572E-1,-8.423894E-1,1.3542327E0,-2.1580875E0,-4.5974472E-1,7.06191E-1,2.5540624E0,-1.0941243E-1,-6.6633284E-2,-8.898034E-1,-1.5400502E-1,1.0698696E0,4.4355467E-1,1.9099474E0,1.373931E-1,-1.0319855E0,-6.775722E-1,-1.9067047E-2,-7.0570016E-1,2.9876646E-2,5.444957E-2,-1.955091E-4,5.4986197E-1,9.783592E-2,5.597608E-2,-8.7179846E-1,-5.6299236E-2,-7.9539925E-1,-1.34082325E-2,-2.1927716E-1,1.3347398E-1,-4.6953745E-2,-1.1505869E-2,3.6693415E-1,3.7540738E-2,-4.13969E-2,-2.7503269E-2,-3.884868E-2,-2.538124E-2,-2.3806741E-2,-6.947706E-2,1.3793852E-2,3.687807E-2,2.4103003E-2,9.175893E-3,5.9082815E-3,-1.202742E-2,1.3376403E-1,-5.632265E-3,9.449591E-3,2.2602556E-3],"categories":[],"categories_nodes":[],"categories_segments":[],"categories_sizes":[],"default_left":[0,0,0,0,0,0,0,0,0,0,0,0,0,0,0,0,0,0,0,0,0,0,0,0,0,0,0,0,0,0,0,0,0,0,0,0,0,0,0,0,0,0,0,0,0,0,0,0,0,0,0],"id":22,"left_children":[1,3,5,7,9,11,13,-1,-1,15,17,19,21,23,-1,25,27,29,31,-1,-1,-1,33,-1,-1,35,-1,37,-1,39,41,-1,-1,43,-1,-1,-1,-1,-1,-1,45,-1,47,-1,-1,-1,-1,49,-1,-1,-1],"loss_changes":[3.7739896E2,1.1580705E2,8.9946014E1,9.809189E0,2.3661938E1,6.975643E0,1.4647095E1,0E0,0E0,1.5639114E0,7.9521194E0,1.8508072E0,2.2426434E0,3.2277985E0,0E0,1.1528587E0,1.10289E0,2.68627E0,3.6019096E0,0E0,0E0,0E0,2.2065563E0,0E0,0E0,2.0949554E-1,0E0,5.728054E-2,0E0,2.0167508E0,9.6785504E-1,0E0,0E0,7.222829E-1,0E0,0E0,0E0,0E0,0E0,0E0,1.3811067E0,0E0,6.0926E-1,0E0,0E0,0E0,0E0,1.6221312E-1,0E0,0E0,0E0],"parents":[2147483647,0,0,1,1,2,2,3,3,4,4,5,5,6,6,9,9,10,10,11,11,12,12,13,13,15,15,16,16,17,17,18,18,22,22,25,25,27,27,29,29,30,30,33,33,40,40,42,42,47,47],"right_children":[2,4,6,8,10,12,14,-1,-1,16,18,20,22,24,-1,26,28,30,32,-1,-1,-1,34,-1,-1,36,-1,38,-1,40,42,-1,-1,44,-1,-1,-1,-1,-1,-1,46,-1,48,-1,-1,-1,-1,50,-1,-1,-1],"split_conditions":[2.8333333E0,-1E0,6.275E0,-3.5E0,9E-1,2.6392405E0,9.25E0,-1.0941243E-1,-6.6633284E-2,1E-1,8E0,4.05E0,-2.4492937E-16,4.474098E0,1.373931E-1,3.8530467E0,6.902778E2,2.9639175E0,5E0,2.9876646E-2,5.444957E-2,-1.955091E-4,4.26E0,9.783592E-2,5.597608E-2,4.7916665E0,-5.6299236E-2,2.9285915E0,-1.34082325E-2,3.5060976E0,4.165193E0,-4.6953745E-2,-1.1505869E-2,-9.625E2,3.7540738E-2,-4.13969E-2,-2.7503269E-2,-3.884868E-2,-2.538124E-2,-2.3806741E-2,2.234931E0,1.3793852E-2,1.9107257E0,2.4103003E-2,9.175893E-3,5.9082815E-3,-1.202742E-2,1.2246469E-16,-5.632265E-3,9.449591E-3,2.2602556E-3],"split_indices":[74,74,74,74,74,49,74,0,0,74,71,75,69,33,0,45,55,42,16,0,0,0,77,0,0,20,0,32,0,32,52,0,0,57,0,0,0,0,0,0,42,0,35,0,0,0,0,69,0,0,0],"split_type":[0,0,0,0,0,0,0,0,0,0,0,0,0,0,0,0,0,0,0,0,0,0,0,0,0,0,0,0,0,0,0,0,0,0,0,0,0,0,0,0,0,0,0,0,0,0,0,0,0,0,0],"sum_hessian":[3.48E2,2.31E2,1.17E2,5.1E1,1.8E2,7.7E1,4E1,2.4E1,2.7E1,7.4E1,1.06E2,3.1E1,4.6E1,2.4E1,1.6E1,4.2E1,3.2E1,8.6E1,2E1,1.5E1,1.6E1,9E0,3.7E1,1.1E1,1.3E1,3.1E1,1.1E1,2.3E1,9E0,3.7E1,4.9E1,9E0,1.1E1,2.6E1,1.1E1,1.6E1,1.5E1,1E1,1.3E1,1E1,2.7E1,1.5E1,3.4E1,9E0,1.7E1,1.4E1,1.3E1,2.2E1,1.2E1,9E0,1.3E1],"tree_param":{"num_deleted":"0","num_feature":"84","num_nodes":"51","size_leaf_vector":"1"}},{"base_weights":[-5.7272717E-2,-7.568934E-1,1.2285209E0,-1.9306115E0,-4.1654766E-1,7.422205E-1,2.5654712E0,-2.2339997E0,-4.742595E-2,-7.719974E-1,-1.3228399E-1,5.280715E-1,1.3989512E0,2.9967475E0,5.046006E-2,-5.8403425E-2,-1.0017656E-1,-4.780506E-1,-9.1556144E-1,-4.750191E-2,-5.090722E-1,1.3122474E-1,7.278663E-1,6.6524364E-2,3.878699E-2,1.4370665E-1,7.723598E-2,-2.6482861E-2,-1.0334025E-2,-1.0119147E0,-2.0253945E-2,-2.0028545E-1,6.650795E-2,-2.5586237E-3,-3.70981E-2,-7.5025824E-3,1.2641847E-2,5.7237077E-1,4.152491E-2,-2.623164E-2,-1.1052902E0,5.6094145E-3,-3.302047E-1,1.3387242E-1,-8.869824E-3,4.1703936E-1,3.0394172E-2,-3.6401123E-2,-5.358909E-2,-1.8843994E-2,-2.6344706E-3,1.3813386E-2,4.819424E-2,1.0874993E-2,2.1202032E-2,-5.3202175E-3,1.4366013E-1,8.572633E-3,2.3502333E-3],"categories":[],"categories_nodes":[],"categories_segments":[],"categories_sizes":[],"default_left":[0,0,0,0,0,0,0,0,0,0,0,0,0,0,0,0,0,0,0,0,0,0,0,0,0,0,0,0,0,0,0,0,0,0,0,0,0,0,0,0,0,0,0,0,0,0,0,0,0,0,0,0,0,0,0,0,0,0,0],"id":23,"left_children":[1,3,5,7,9,11,13,15,-1,17,19,21,23,25,-1,-1,-1,27,29,31,33,35,37,-1,-1,-1,-1,-1,-1,39,-1,41,43,-1,-1,-1,-1,45,-1,-1,47,-1,49,51,-1,53,-1,-1,-1,-1,-1,-1,55,-1,-1,-1,57,-1,-1],"loss_changes":[3.2927206E2,9.387019E1,8.19664E1,9.859528E0,1.8590542E1,1.276252E1,1.5883606E1,2.789505E0,0E0,3.0227318E0,3.2980864E0,5.7717915E0,7.942848E-1,7.539734E0,0E0,0E0,0E0,9.374404E-1,1.6935387E0,1.51134E0,3.3022127E0,1.5033611E0,1.5913105E0,0E0,0E0,0E0,0E0,0E0,0E0,7.869568E-1,0E0,1.6656225E0,9.816471E-1,0E0,0E0,0E0,0E0,5.831127E-1,0E0,0E0,2.8741455E-1,0E0,8.9967656E-1,6.9700074E-1,0E0,1.6668057E-1,0E0,0E0,0E0,0E0,0E0,0E0,5.2830225E-1,0E0,0E0,0E0,1.0099295E-1,0E0,0E0],"parents":[2147483647,0,0,1,1,2,2,3,3,4,4,5,5,6,6,7,7,9,9,10,10,11,11,12,12,13,13,17,17,18,18,19,19,20,20,21,21,22,22,29,29,31,31,32,32,37,37,40,40,42,42,43,43,45,45,52,52,56,56],"right_children":[2,4,6,8,10,12,14,16,-1,18,20,22,24,26,-1,-1,-1,28,30,32,34,36,38,-1,-1,-1,-1,-1,-1,40,-1,42,44,-1,-1,-1,-1,46,-1,-1,48,-1,50,52,-1,54,-1,-1,-1,-1,-1,-1,56,-1,-1,-1,58,-1,-1],"split_conditions":[2.75E0,-7.5E-1,7.15E0,1.3638889E2,1.2E0,5.8E0,8.266667E2,-3.75E0,-4.742595E-2,-4.4666666E2,8E0,3.05E0,6E0,1E1,5.046006E-2,-5.8403425E-2,-1.0017656E-1,2.2145061E0,3.6163523E0,2.791328E0,1.921922E0,-1.1111111E1,3.4497817E0,6.6524364E-2,3.878699E-2,1.4370665E-1,7.723598E-2,-2.6482861E-2,-1.0334025E-2,-2.1408333E3,-2.0253945E-2,6E0,2.59E0,-2.5586237E-3,-3.70981E-2,-7.5025824E-3,1.2641847E-2,3.06184E0,4.152491E-2,-2.623164E-2,1.2246469E-16,5.6094145E-3,2.1E3,5.0409627E0,-8.869824E-3,-5.712682E-1,3.0394172E-2,-3.6401123E-2,-5.358909E-2,-1.8843994E-2,-2.6344706E-3,1.3813386E-2,1.9E0,1.0874993E-2,2.1202032E-2,-5.3202175E-3,1.0109649E1,8.572633E-3,2.3502333E-3],"split_indices":[74,74,74,56,74,83,58,82,0,57,71,76,75,79,0,0,0,32,42,42,33,55,35,0,0,0,0,0,0,55,0,72,83,0,0,0,0,42,0,0,69,0,58,42,0,68,0,0,0,0,0,0,81,0,0,0,33,0,0],"split_type":[0,0,0,0,0,0,0,0,0,0,0,0,0,0,0,0,0,0,0,0,0,0,0,0,0,0,0,0,0,0,0,0,0,0,0,0,0,0,0,0,0,0,0,0,0,0,0,0,0,0,0,0,0,0,0,0,0,0,0],"sum_hessian":[3.64E2,2.36E2,1.28E2,5.2E1,1.84E2,9.5E1,3.3E1,3.6E1,1.6E1,8.1E1,1.03E2,7.3E1,2.2E1,2.4E1,9E0,9E0,2.7E1,2.8E1,5.3E1,8.5E1,1.8E1,2.5E1,4.8E1,1.3E1,9E0,1.5E1,9E0,1.5E1,1.3E1,4.2E1,1.1E1,3.6E1,4.9E1,9E0,9E0,9E0,1.6E1,3.3E1,1.5E1,1E1,3.2E1,1E1,2.6E1,4E1,9E0,1.9E1,1.4E1,1.8E1,1.4E1,1.7E1,9E0,1.1E1,2.9E1,9E0,1E1,1E1,1.9E1,1E1,9E0],"tree_param":{"num_deleted":"0","num_feature":"84","num_nodes":"59","size_leaf_vector":"1"}},{"base_weights":[-3.2013148E-2,-7.164666E-1,1.2940307E0,-2.0243766E0,-3.9739048E-1,7.1150005E-1,2.4560213E0,-9.203974E-2,-4.82086E-2,-7.2672075E-1,-6.4086296E-2,5.285417E-1,1.2197181E0,1.8520374E0,1.4479972E-1,-9.7071785E-1,-5.7430494E-1,3.0435838E-2,-2.162205E-2,2.279899E-1,6.6680527E-1,6.649745E-2,2.7474208E-2,2.1280403E0,4.5707952E-2,-2.7763322E-2,-4.591866E-2,-4.2640017E-3,-6.594725E-1,-1.288884E-1,1.5261419E-1,1.873113E-2,-3.2961034E-5,5.1076066E-1,3.7226386E-2,1.02412075E-1,6.1846014E-2,-7.515004E-1,-1.4057139E-2,-1.1579371E-2,-1.1367819E-2,2.5424284E-1,-1.9542289E-3,8.812457E-3,6.5514433E-1,-3.9714143E-2,-6.3959557E-1,-7.19783E-3,4.7480403E-3,1.5177034E-2,4.0253336E-3,1.8305985E-2,3.272976E-2,-1.5678728E-2,-2.9995965E-2],"categories":[],"categories_nodes":[],"categories_segments":[],"categories_sizes":[],"default_left":[0,0,0,0,0,0,0,0,0,0,0,0,0,0,0,0,0,0,0,0,0,0,0,0,0,0,0,0,0,0,0,0,0,0,0,0,0,0,0,0,0,0,0,0,0,0,0,0,0,0,0,0,0,0,0],"id":24,"left_children":[1,3,5,7,9,11,13,-1,-1,15,17,19,21,23,-1,25,27,29,-1,31,33,-1,-1,35,-1,-1,-1,-1,37,39,41,-1,-1,43,-1,-1,-1,45,-1,-1,47,49,-1,-1,51,-1,53,-1,-1,-1,-1,-1,-1,-1,-1],"loss_changes":[3.3856003E2,1.0185697E2,8.4218216E1,6.3413544E0,2.1797092E1,7.351841E0,2.0746277E1,0E0,0E0,3.161415E0,4.3950796E0,2.5490742E0,3.7760353E0,3.5282745E0,0E0,8.6273575E-1,2.494917E0,1.654812E0,0E0,1.1523608E0,1.1920128E0,0E0,0E0,8.1489563E-1,0E0,0E0,0E0,0E0,1.3157673E0,6.64401E-1,9.8911095E-1,0E0,0E0,1.0978308E0,0E0,0E0,0E0,3.7670898E-1,0E0,0E0,4.7970197E-1,5.426104E-1,0E0,0E0,2.1106148E-1,0E0,4.301672E-1,0E0,0E0,0E0,0E0,0E0,0E0,0E0,0E0],"parents":[2147483647,0,0,1,1,2,2,3,3,4,4,5,5,6,6,9,9,10,10,11,11,12,12,13,13,15,15,16,16,17,17,19,19,20,20,23,23,28,28,29,29,30,30,33,33,37,37,40,40,41,41,44,44,46,46],"right_children":[2,4,6,8,10,12,14,-1,-1,16,18,20,22,24,-1,26,28,30,-1,32,34,-1,-1,36,-1,-1,-1,-1,38,40,42,-1,-1,44,-1,-1,-1,46,-1,-1,48,50,-1,-1,52,-1,54,-1,-1,-1,-1,-1,-1,-1,-1],"split_conditions":[2.85E0,-1E0,6.25E0,1.8833333E2,1.5E0,4.95E0,1E1,-9.203974E-2,-4.82086E-2,-1E-1,4.8366013E0,2.77E0,5.75E0,5.709988E0,1.4479972E-1,-6E1,-1.08E3,1.81E0,-2.162205E-2,5.0294333E0,2.1193333E3,6.649745E-2,2.7474208E-2,2.1205557E3,4.5707952E-2,-2.7763322E-2,-4.591866E-2,-4.2640017E-3,3.6515775E0,1.81E0,1.9E1,1.873113E-2,-3.2961034E-5,0E0,3.7226386E-2,1.02412075E-1,6.1846014E-2,2.2134502E0,-1.4057139E-2,-1.1579371E-2,-8.313889E2,6.513725E-1,-1.9542289E-3,8.812457E-3,2.860331E0,-3.9714143E-2,2.3333333E2,-7.19783E-3,4.7480403E-3,1.5177034E-2,4.0253336E-3,1.8305985E-2,3.272976E-2,-1.5678728E-2,-2.9995965E-2],"split_indices":[74,74,74,56,74,74,74,0,0,74,45,77,74,30,0,58,57,79,0,33,55,0,0,56,0,0,0,0,42,74,72,0,0,69,0,0,0,17,0,0,55,68,0,0,50,0,58,0,0,0,0,0,0,0,0],"split_type":[0,0,0,0,0,0,0,0,0,0,0,0,0,0,0,0,0,0,0,0,0,0,0,0,0,0,0,0,0,0,0,0,0,0,0,0,0,0,0,0,0,0,0,0,0,0,0,0,0,0,0,0,0,0,0],"sum_hessian":[3.71E2,2.45E2,1.26E2,4.7E1,1.98E2,8.5E1,4.1E1,3.6E1,1.1E1,9.9E1,9.9E1,6.4E1,2.1E1,2.8E1,1.3E1,3.6E1,6.3E1,8.3E1,1.6E1,2.1E1,4.3E1,1.1E1,1E1,1.9E1,9E0,1.4E1,2.2E1,1E1,5.3E1,3.6E1,4.7E1,1E1,1.1E1,2.8E1,1.5E1,1E1,9E0,4E1,1.3E1,1.5E1,2.1E1,3.1E1,1.6E1,1E1,1.8E1,1.1E1,2.9E1,9E0,1.2E1,1.7E1,1.4E1,9E0,9E0,9E0,2E1],"tree_param":{"num_deleted":"0","num_feature":"84","num_nodes":"55","size_leaf_vector":"1"}},{"base_weights":[-7.8814015E-2,-5.664972E-1,1.6938933E0,-1.9839381E0,-2.5908795E-1,1.3473393E0,1.4417823E-1,-2.194681E0,-4.9163062E-2,-6.466698E-1,5.9464302E-2,9.108895E-1,1.7826377E0,-1.0045374E-1,-7.218404E-2,-3.6194269E-3,-7.033258E-1,-2.817944E-1,2.2941792E-1,1.0372189E0,1.9627154E-2,2.156517E0,2.8989611E-2,-7.5463873E-1,-9.575489E-3,-3.3831213E-2,-1.18498236E-1,-7.0761074E-4,4.301808E-1,3.093561E-2,5.4435976E-2,1.01077296E-1,6.0585324E-2,-9.422823E-1,-5.89889E-1,-1.3047776E-2,1.3995453E-2,1.3284662E-1,-8.4019415E-3,5.339543E-1,4.8256847E-3,-2.8089315E-2,-1.1523453E0,-3.3822912E-1,-7.3799926E-1,-6.872052E-3,6.2572625E-3,-1.7307543E-4,1.2017554E-2,3.7987894E-1,3.1384513E-2,-3.4548957E-2,-5.648846E-2,-1.904035E-2,-7.904034E-3,-3.7449803E-2,-2.0569487E-2,9.589313E-3,2.1233162E-2],"categories":[],"categories_nodes":[],"categories_segments":[],"categories_sizes":[],"default_left":[0,0,0,0,0,0,0,0,0,0,0,0,0,0,0,0,0,0,0,0,0,0,0,0,0,0,0,0,0,0,0,0,0,0,0,0,0,0,0,0,0,0,0,0,0,0,0,0,0,0,0,0,0,0,0,0,0,0,0],"id":25,"left_children":[1,3,5,7,9,11,-1,13,-1,15,17,19,21,-1,-1,-1,23,25,27,29,-1,31,-1,33,-1,-1,35,37,39,-1,-1,-1,-1,41,43,-1,45,47,-1,49,-1,-1,51,53,55,-1,-1,-1,-1,57,-1,-1,-1,-1,-1,-1,-1,-1,-1],"loss_changes":[3.1650922E2,1.2454177E2,4.5162125E1,5.803711E0,2.9299675E1,1.129525E1,0E0,1.0421753E-2,0E0,3.3229866E0,7.6624064E0,1.4689598E0,1.1745644E1,0E0,0E0,0E0,2.1620026E0,3.806259E0,4.065962E0,1.2154102E0,0E0,1.3876877E0,0E0,2.1336937E0,0E0,0E0,9.3070495E-1,1.1727381E0,1.461237E0,0E0,0E0,0E0,0E0,1.3174324E0,1.576786E0,0E0,5.7941735E-1,5.7238245E-1,0E0,9.577236E-1,0E0,0E0,2.3522377E-1,2.7749443E-1,7.8525543E-1,0E0,0E0,0E0,0E0,3.4226775E-1,0E0,0E0,0E0,0E0,0E0,0E0,0E0,0E0,0E0],"parents":[2147483647,0,0,1,1,2,2,3,3,4,4,5,5,7,7,9,9,10,10,11,11,12,12,16,16,17,17,18,18,19,19,21,21,23,23,26,26,27,27,28,28,33,33,34,34,36,36,37,37,39,39,42,42,43,43,44,44,49,49],"right_children":[2,4,6,8,10,12,-1,14,-1,16,18,20,22,-1,-1,-1,24,26,28,30,-1,32,-1,34,-1,-1,36,38,40,-1,-1,-1,-1,42,44,-1,46,48,-1,50,-1,-1,52,54,56,-1,-1,-1,-1,58,-1,-1,-1,-1,-1,-1,-1,-1,-1],"split_conditions":[3.85E0,-1E0,1E1,1.3638889E2,1.5E0,6.25E0,1.4417823E-1,2.2222223E0,-4.9163062E-2,-1.5477778E3,1.81E0,6.6787734E0,8.46E0,-1.0045374E-1,-7.218404E-2,-3.6194269E-3,2.75E0,2.179251E0,2.75E0,2.6522238E0,1.9627154E-2,5.258467E0,2.8989611E-2,1E-1,-9.575489E-3,-3.3831213E-2,1.35E0,2.7E0,2.8151398E0,3.093561E-2,5.4435976E-2,1.01077296E-1,6.0585324E-2,-1.75E-1,-8.822222E2,-1.3047776E-2,-2.9666666E2,2.45E0,-8.4019415E-3,1.9265233E0,4.8256847E-3,-2.8089315E-2,-1E-1,2.8522062E0,-5.777778E2,-6.872052E-3,6.2572625E-3,-1.7307543E-4,1.2017554E-2,1.1E2,3.1384513E-2,-3.4548957E-2,-5.648846E-2,-1.904035E-2,-7.904034E-3,-3.7449803E-2,-2.0569487E-2,9.589313E-3,2.1233162E-2],"split_indices":[75,74,74,56,74,74,0,44,0,57,79,30,76,0,0,0,80,17,74,17,0,30,0,74,0,0,76,82,17,0,0,0,0,79,59,0,55,80,0,35,0,0,76,42,55,0,0,0,0,60,0,0,0,0,0,0,0,0,0],"split_type":[0,0,0,0,0,0,0,0,0,0,0,0,0,0,0,0,0,0,0,0,0,0,0,0,0,0,0,0,0,0,0,0,0,0,0,0,0,0,0,0,0,0,0,0,0,0,0,0,0,0,0,0,0,0,0,0,0,0,0],"sum_hessian":[3.64E2,2.86E2,7.8E1,5E1,2.36E2,6.7E1,1.1E1,3.8E1,1.2E1,1.06E2,1.3E2,3.5E1,3.2E1,2.1E1,1.7E1,1E1,9.6E1,4.3E1,8.7E1,2.6E1,9E0,2.3E1,9E0,8.6E1,1E1,9E0,3.4E1,4.1E1,4.6E1,1.5E1,1.1E1,1.4E1,9E0,3.8E1,4.8E1,1.3E1,2.1E1,2.5E1,1.6E1,3.4E1,1.2E1,1.9E1,1.9E1,1.9E1,2.9E1,9E0,1.2E1,1.4E1,1.1E1,2.2E1,1.2E1,1E1,9E0,9E0,1E1,1.5E1,1.4E1,1.2E1,1E1],"tree_param":{"num_deleted":"0","num_feature":"84","num_nodes":"59","size_leaf_vector":"1"}},{"base_weights":[-2.0378876E-2,-5.1272875E-1,1.8200334E0,-1.3990684E0,-8.0184154E-2,1.3479924E0,3.264587E0,-1.8502815E0,-9.469644E-1,-3.029506E-1,2.363562E-1,1.4834297E0,2.0310393E-2,1.5900919E-1,9.530213E-2,-4.989338E-2,-2.0276017E0,-7.5579536E-1,-1.2054867E0,-1.6247314E-1,-5.763317E-1,-6.511025E-3,3.2456246E-1,1.9137114E0,1.1412538E0,-8.968986E-2,-5.7111382E-2,-1.855492E-2,-3.7519477E-2,-6.0546856E-2,-3.2248363E-2,-2.22228E-2,-5.911751E-2,-3.1407043E-1,-7.986599E-1,4.814112E-1,-1.006598E-2,5.726112E-2,9.1357954E-2,3.050323E-2,6.1173134E-2,-1.2821718E-1,1.3400539E-2,-1.8078754E-2,-5.867149E-3,-1.9035557E-2,-4.144089E-2,6.711633E-1,1.664521E-1,8.109999E-3,-1.230322E-2,-1.5147998E-2,-2.971324E-1,1.8786607E-2,3.4414273E-2,1.3340616E-2,-3.739977E-4,-1.27266E-1,8.241294E-3,-2.1072315E-2,5.9266563E-4,-4.161918E-4,-1.0418304E-2],"categories":[],"categories_nodes":[],"categories_segments":[],"categories_sizes":[],"default_left":[0,0,0,0,0,0,0,0,0,0,0,0,0,0,0,0,0,0,0,0,0,0,0,0,0,0,0,0,0,0,0,0,0,0,0,0,0,0,0,0,0,0,0,0,0,0,0,0,0,0,0,0,0,0,0,0,0,0,0,0,0,0,0],"id":26,"left_children":[1,3,5,7,9,11,13,15,17,19,21,23,-1,-1,-1,-1,25,27,29,31,33,-1,35,37,39,-1,-1,-1,-1,-1,-1,-1,41,43,45,47,49,-1,-1,-1,-1,51,-1,-1,-1,-1,-1,53,55,-1,-1,57,59,-1,-1,-1,-1,61,-1,-1,-1,-1,-1],"loss_changes":[3.434491E2,1.1451883E2,5.015045E1,1.8239395E1,1.4315547E1,6.4246674E0,1.9472961E0,2.9234314E0,1.6093941E0,4.4764223E0,2.9794235E0,5.619255E0,0E0,0E0,0E0,0E0,6.073456E-1,1.1317692E0,1.1113567E0,3.1062176E0,2.0814886E0,0E0,3.6263833E0,4.6617126E-1,3.3492508E0,0E0,0E0,0E0,0E0,0E0,0E0,0E0,1.7487676E0,3.7073398E-1,1.0200329E0,2.6971989E0,1.4459156E0,0E0,0E0,0E0,0E0,1.0459498E0,0E0,0E0,0E0,0E0,0E0,6.541929E-1,5.331395E-1,0E0,0E0,8.495675E-1,1.4937593E0,0E0,0E0,0E0,0E0,3.3907968E-1,0E0,0E0,0E0,0E0,0E0],"parents":[2147483647,0,0,1,1,2,2,3,3,4,4,5,5,6,6,7,7,8,8,9,9,10,10,11,11,16,16,17,17,18,18,19,19,20,20,22,22,23,23,24,24,32,32,33,33,34,34,35,35,36,36,41,41,47,47,48,48,51,51,52,52,57,57],"right_children":[2,4,6,8,10,12,14,16,18,20,22,24,-1,-1,-1,-1,26,28,30,32,34,-1,36,38,40,-1,-1,-1,-1,-1,-1,-1,42,44,46,48,50,-1,-1,-1,-1,52,-1,-1,-1,-1,-1,54,56,-1,-1,58,60,-1,-1,-1,-1,62,-1,-1,-1,-1,-1],"split_conditions":[4.26E0,1E-1,9.5E0,-1.5E0,2.425E0,6.6787734E0,2.4657533E0,-3.75E0,3.8530467E0,8E0,3.7686567E0,2.683971E0,2.0310393E-2,1.5900919E-1,9.530213E-2,-4.989338E-2,2.279389E3,-1.75E-1,6.158333E2,1E0,-8.633333E2,-6.511025E-3,8.245614E0,6.3782053E0,-4.8333334E2,-8.968986E-2,-5.7111382E-2,-1.855492E-2,-3.7519477E-2,-6.0546856E-2,-3.2248363E-2,-2.22228E-2,2.77E0,4.4560184E0,7E-1,5.514541E0,4E0,5.726112E-2,9.1357954E-2,3.050323E-2,6.1173134E-2,1.9E0,1.3400539E-2,-1.8078754E-2,-5.867149E-3,-1.9035557E-2,-4.144089E-2,2.77E0,1.6666666E0,8.109999E-3,-1.230322E-2,4.2961097E0,1.6E2,1.8786607E-2,3.4414273E-2,1.3340616E-2,-3.739977E-4,1E0,8.241294E-3,-2.1072315E-2,5.9266563E-4,-4.161918E-4,-1.0418304E-2],"split_indices":[74,74,74,74,74,30,17,83,45,71,33,42,0,0,0,0,55,83,56,74,59,0,33,35,59,0,0,0,0,0,0,0,80,17,80,32,71,0,0,0,0,78,0,0,0,0,0,81,12,0,0,20,60,0,0,0,0,78,0,0,0,0,0],"split_type":[0,0,0,0,0,0,0,0,0,0,0,0,0,0,0,0,0,0,0,0,0,0,0,0,0,0,0,0,0,0,0,0,0,0,0,0,0,0,0,0,0,0,0,0,0,0,0,0,0,0,0,0,0,0,0,0,0,0,0,0,0,0,0],"sum_hessian":[3.77E2,2.98E2,7.9E1,9.7E1,2.01E2,6.1E1,1.8E1,4.7E1,5E1,1.18E2,8.3E1,5.2E1,9E0,9E0,9E0,1.2E1,3.5E1,3.1E1,1.9E1,7.9E1,3.9E1,1.5E1,6.8E1,2.1E1,3.1E1,2.6E1,9E0,1.2E1,1.9E1,1E1,9E0,1.6E1,6.3E1,1.9E1,2E1,4.6E1,2.2E1,1E1,1.1E1,1.6E1,1.5E1,5.4E1,9E0,1E1,9E0,9E0,1.1E1,2.8E1,1.8E1,1.3E1,9E0,3.3E1,2.1E1,1.4E1,1.4E1,9E0,9E0,2.2E1,1.1E1,1.2E1,9E0,1.2E1,1E1],"tree_param":{"num_deleted":"0","num_feature":"84","num_nodes":"63","size_leaf_vector":"1"}},{"base_weights":[4.810397E-2,-4.3242195E-1,1.8198086E0,-1.4331754E0,-6.644258E-2,2.891712E0,1.2488607E0,-9.0029925E-2,-1.0389432E0,-3.1994665E-1,2.5942615E-1,1.4811237E-1,5.6465466E-2,1.6419594E0,7.586357E-1,-1.2213634E0,-7.7522933E-1,-5.874131E-1,-1.953588E-1,3.3163777E-1,-6.8299514E-3,3.904569E-2,8.331889E-2,1.9182384E-2,4.0633123E-2,-6.001809E-2,-3.3222586E-2,-1.9686174E-2,-3.773093E-2,-9.165366E-3,-6.963867E-1,-9.174437E-2,-2.8375106E-2,7.534494E-2,5.556256E-1,-3.225676E-2,-2.0923918E-2,-1.657591E-1,9.833399E-3,1.5855229E-1,-7.113125E-3,1.4203872E-2,6.374543E-1,-1.725727E-2,-6.461248E-2,1.1959917E-2,7.3118865E-2,3.2753162E-2,1.9537767E-2,5.3513832E-2,-9.900496E-3,5.2460115E-3,4.4994778E-4,1.00775715E-2,-4.259008E-3],"categories":[],"categories_nodes":[],"categories_segments":[],"categories_sizes":[],"default_left":[0,0,0,0,0,0,0,0,0,0,0,0,0,0,0,0,0,0,0,0,0,0,0,0,0,0,0,0,0,0,0,0,0,0,0,0,0,0,0,0,0,0,0,0,0,0,0,0,0,0,0,0,0,0,0],"id":27,"left_children":[1,3,5,7,9,11,13,-1,15,17,19,-1,-1,21,23,25,27,29,31,33,-1,-1,-1,-1,-1,-1,-1,-1,-1,-1,35,37,-1,39,41,-1,-1,43,-1,45,-1,-1,47,-1,49,-1,51,-1,-1,53,-1,-1,-1,-1,-1],"loss_changes":[3.0727292E2,1.0392124E2,4.3512756E1,2.0569672E1,1.7348293E1,2.3407303E1,8.775093E0,0E0,1.5547142E0,3.8173647E0,2.8854322E0,0E0,0E0,5.5994415E0,1.2258301E0,1.7044907E0,5.852709E-1,1.31145E0,4.156804E0,4.493249E0,0E0,0E0,0E0,0E0,0E0,0E0,0E0,0E0,0E0,0E0,6.92215E-2,1.7331569E0,0E0,8.142962E-1,4.9810696E-1,0E0,0E0,1.4438345E0,0E0,3.0856657E-1,0E0,0E0,3.7255287E-1,0E0,8.9039373E-1,0E0,6.333923E-2,0E0,0E0,8.1238216E-1,0E0,0E0,0E0,0E0,0E0],"parents":[2147483647,0,0,1,1,2,2,3,3,4,4,5,5,6,6,8,8,9,9,10,10,13,13,14,14,15,15,16,16,17,17,18,18,19,19,30,30,31,31,33,33,34,34,37,37,39,39,42,42,44,44,46,46,49,49],"right_children":[2,4,6,8,10,12,14,-1,16,18,20,-1,-1,22,24,26,28,30,32,34,-1,-1,-1,-1,-1,-1,-1,-1,-1,-1,36,38,-1,40,42,-1,-1,44,-1,46,-1,-1,48,-1,50,-1,52,-1,-1,54,-1,-1,-1,-1,-1],"split_conditions":[4.26E0,-1E-1,1.6666666E0,-3E0,2.425E0,6.155831E0,4.90861E0,-9.0029925E-2,6.158333E2,9E-1,5.88141E0,1.4811237E-1,5.6465466E-2,-4.5E2,4.2591665E3,4.1066666E0,1.3308334E3,0E0,4.289406E0,3.05E0,-6.8299514E-3,3.904569E-2,8.331889E-2,1.9182384E-2,4.0633123E-2,-6.001809E-2,-3.3222586E-2,-1.9686174E-2,-3.773093E-2,-9.165366E-3,4.4661922E0,-3.10587E-3,-2.8375106E-2,1.9265233E0,-9.8333336E1,-3.225676E-2,-2.0923918E-2,1.5E0,9.833399E-3,6.6063347E0,-7.113125E-3,1.4203872E-2,8.266667E2,-1.725727E-2,1.8E1,1.1959917E-2,7.8873873E0,3.2753162E-2,1.9537767E-2,6.513725E-1,-9.900496E-3,5.2460115E-3,4.4994778E-4,1.00775715E-2,-4.259008E-3],"split_indices":[74,74,42,74,74,50,33,0,56,74,35,0,0,59,55,33,56,76,45,74,0,0,0,0,0,0,0,0,0,0,50,66,0,35,58,0,0,74,0,16,0,0,58,0,72,0,16,0,0,68,0,0,0,0,0],"split_type":[0,0,0,0,0,0,0,0,0,0,0,0,0,0,0,0,0,0,0,0,0,0,0,0,0,0,0,0,0,0,0,0,0,0,0,0,0,0,0,0,0,0,0,0,0,0,0,0,0,0,0,0,0,0,0],"sum_hessian":[3.59E2,2.83E2,7.6E1,7.5E1,2.08E2,2.5E1,5.1E1,2.4E1,5.1E1,1.17E2,9.1E1,1.6E1,9E0,2.7E1,2.4E1,2.8E1,2.3E1,3.6E1,8.1E1,7.8E1,1.3E1,1.1E1,1.6E1,1.2E1,1.2E1,1.6E1,1.2E1,9E0,1.4E1,9E0,2.7E1,6.8E1,1.3E1,3.7E1,4.1E1,1.6E1,1.1E1,5.6E1,1.2E1,2.8E1,9E0,1.3E1,2.8E1,1.5E1,4.1E1,1E1,1.8E1,1.2E1,1.6E1,2.5E1,1.6E1,9E0,9E0,1.1E1,1.4E1],"tree_param":{"num_deleted":"0","num_feature":"84","num_nodes":"55","size_leaf_vector":"1"}},{"base_weights":[9.53917E-3,-4.5136994E-1,1.7644169E0,-1.3933213E0,-8.563352E-2,2.3983297E0,1.0340264E0,-8.5579745E-2,-1.1088117E0,-4.397738E-1,1.5850694E-1,2.79581E0,4.9395513E-2,5.7000387E-1,6.2235538E-2,-9.195815E-1,-7.399969E-2,-2.895296E-3,-5.028194E-1,1.9986501E-2,3.5414934E-1,6.286368E-2,3.2638903E0,3.6592197E-2,8.023561E-3,-4.0999677E-2,-2.0415533E-2,-5.590752E-1,-3.3312317E-3,-2.0928377E-1,1.4339271E-1,4.3356404E-1,-1.2582979E-3,1.5837057E-1,9.097626E-2,-3.5247616E-2,-4.8331976E-1,-2.7623674E-2,2.4755332E-3,3.0375782E-1,2.6357388E-2,2.7441856E-1,2.964098E-2,-3.054738E-1,-5.686975E-1,7.709167E-3,1.6066788E-2,7.2935903E-3,-4.0994515E-3,6.3210675E-3,1.5759852E-2,-5.163856E-3,-1.8077271E-2,-2.5596486E-2,-1.5808083E-2],"categories":[],"categories_nodes":[],"categories_segments":[],"categories_sizes":[],"default_left":[0,0,0,0,0,0,0,0,0,0,0,0,0,0,0,0,0,0,0,0,0,0,0,0,0,0,0,0,0,0,0,0,0,0,0,0,0,0,0,0,0,0,0,0,0,0,0,0,0,0,0,0,0,0,0],"id":28,"left_children":[1,3,5,7,9,11,13,-1,15,17,19,21,-1,23,-1,25,-1,-1,27,29,31,-1,33,-1,-1,-1,-1,35,-1,37,39,41,-1,-1,-1,-1,43,-1,-1,45,47,49,-1,51,53,-1,-1,-1,-1,-1,-1,-1,-1,-1,-1],"loss_changes":[3.0330225E2,1.0219894E2,3.363437E1,1.4073639E1,1.8658602E1,1.6082794E1,7.667549E0,0E0,6.3749237E0,2.012579E0,3.461782E0,1.2724838E1,0E0,2.3602495E0,0E0,1.1972847E0,0E0,0E0,1.7332573E0,2.1803062E0,1.6330872E0,0E0,4.5691986E0,0E0,0E0,0E0,0E0,1.0875607E0,0E0,3.4223943E0,9.30413E-1,1.8280096E0,0E0,0E0,0E0,0E0,6.6140366E-1,0E0,0E0,1.4046407E-1,5.9215325E-1,3.3743525E-1,0E0,4.3075168E-1,1.2590027E-1,0E0,0E0,0E0,0E0,0E0,0E0,0E0,0E0,0E0,0E0],"parents":[2147483647,0,0,1,1,2,2,3,3,4,4,5,5,6,6,8,8,9,9,10,10,11,11,13,13,15,15,18,18,19,19,20,20,22,22,27,27,29,29,30,30,31,31,36,36,39,39,40,40,41,41,43,43,44,44],"right_children":[2,4,6,8,10,12,14,-1,16,18,20,22,-1,24,-1,26,-1,-1,28,30,32,-1,34,-1,-1,-1,-1,36,-1,38,40,42,-1,-1,-1,-1,44,-1,-1,46,48,50,-1,52,54,-1,-1,-1,-1,-1,-1,-1,-1,-1,-1],"split_conditions":[4.4E0,-1E-1,2.5024154E0,-3.5E0,1.81E0,4.7825E3,2.7216667E3,-8.5579745E-2,5.075E0,-2.8E2,2.75E0,7.5E0,4.9395513E-2,2E0,6.2235538E-2,2.4114773E0,-7.399969E-2,-2.895296E-3,8.087774E0,3.5287123E0,4.26E0,6.286368E-2,8.46E0,3.6592197E-2,8.023561E-3,-4.0999677E-2,-2.0415533E-2,2.178471E0,-3.3312317E-3,1.5E1,5.275096E0,2.2222223E0,-1.2582979E-3,1.5837057E-1,9.097626E-2,-3.5247616E-2,2.2417154E0,-2.7623674E-2,2.4755332E-3,-1.0444444E2,2.4170983E0,3.3E0,2.964098E-2,1.125E0,9.925094E0,7.709167E-3,1.6066788E-2,7.2935903E-3,-4.0994515E-3,6.3210675E-3,1.5759852E-2,-5.163856E-3,-1.8077271E-2,-2.5596486E-2,-1.5808083E-2],"split_indices":[74,74,42,74,74,55,56,0,29,63,79,74,0,73,0,12,0,0,49,5,76,0,77,0,0,0,0,17,0,59,38,35,0,0,0,0,33,0,0,55,17,75,0,80,16,0,0,0,0,0,0,0,0,0,0],"split_type":[0,0,0,0,0,0,0,0,0,0,0,0,0,0,0,0,0,0,0,0,0,0,0,0,0,0,0,0,0,0,0,0,0,0,0,0,0,0,0,0,0,0,0,0,0,0,0,0,0,0,0,0,0,0,0],"sum_hessian":[3.73E2,2.96E2,7.7E1,8.2E1,2.14E2,4E1,3.7E1,2.2E1,6E1,8.7E1,1.27E2,2.9E1,1.1E1,2E1,1.7E1,4.9E1,1.1E1,1.3E1,7.4E1,7.5E1,5.2E1,9E0,2E1,1E1,1E1,4E1,9E0,6.5E1,9E0,2.6E1,4.9E1,4.3E1,9E0,1.1E1,9E0,1.1E1,5.4E1,9E0,1.7E1,2E1,2.9E1,2.9E1,1.4E1,1.9E1,3.5E1,1E1,1E1,1.3E1,1.6E1,1.5E1,1.4E1,9E0,1E1,2.5E1,1E1],"tree_param":{"num_deleted":"0","num_feature":"84","num_nodes":"55","size_leaf_vector":"1"}}]},"name":"gbtree"},"learner_model_param":{"base_score":"2.2758334E0","boost_from_average":"0","num_class":"0","num_feature":"84","num_target":"1"},"objective":{"name":"reg:squarederror","reg_loss_param":{"scale_pos_weight":"1"}}},"version":[2,0,3]}