{"learner":{"attributes":{"best_iteration":"23","best_score":"0.00833249083574676","scikit_learn":"{\"_estimator_type\": \"regressor\"}"},"feature_names":[],"feature_types":["float","float","float","float","float","float","float","float","float","float","float","float","float","float","float","float","float","float","float","float","float","float","float","float","float","float","float","float","float","float","float","float","float","float","float","float","float","float","float","float","float","float","float","float","float","float","float","float","float","float","float","float","float","float","float","float","float","float","float","float","float","float","float","float","float","float","float","float","float","float","float","float","float","float","float","float","float","float","float","float","float","float","float","float"],"gradient_booster":{"model":{"gbtree_model_param":{"num_parallel_tree":"1","num_trees":"39"},"iteration_indptr":[0,1,2,3,4,5,6,7,8,9,10,11,12,13,14,15,16,17,18,19,20,21,22,23,24,25,26,27,28,29,30,31,32,33,34,35,36,37,38,39],"tree_info":[0,0,0,0,0,0,0,0,0,0,0,0,0,0,0,0,0,0,0,0,0,0,0,0,0,0,0,0,0,0,0,0,0,0,0,0,0,0,0],"trees":[{"base_weights":[1.9337615E0,7.04546E-1,7.0856276E0,-2.8733332E0,1.5160071E0,2.2409889E-1,9.030871E0,-1.5259886E-1,-1.9142308E0,2.5545055E-1,2.2997203E0,4.1032436E-1,2.7105474E-1,-9.423923E-2,-4.385032E-2,-2.5123784E-1,6.180392E-1,1.9004704E0,1.20684706E-1,9.0396805E-3,-4.1073573E-1,1.3297665E-3,7.7826995E-1,1.594151E0,8.8992916E-2,-4.1271234E-3,-2.6117003E-2,4.6849012E-2,4.8773333E-1,7.106448E-2,4.1268364E-2,3.344643E-2,6.044031E-3],"categories":[],"categories_nodes":[],"categories_segments":[],"categories_sizes":[],"default_left":[0,0,0,0,0,0,0,0,0,0,0,0,0,0,0,0,0,0,0,0,0,0,0,0,0,0,0,0,0,0,0,0,0],"id":0,"left_children":[1,3,5,7,9,-1,11,-1,13,15,17,-1,-1,-1,-1,19,21,23,-1,-1,25,-1,27,29,-1,-1,-1,-1,31,-1,-1,-1,-1],"loss_changes":[2.135479E3,7.998629E2,1.5544775E2,3.4383484E1,2.2070544E2,0E0,3.515625E-2,0E0,5.9815826E0,1.6138866E1,2.9877563E1,0E0,0E0,0E0,0E0,2.8743653E0,4.760195E0,3.820343E0,0E0,0E0,1.9003224E0,0E0,3.6774197E0,1.9342575E0,0E0,0E0,0E0,0E0,2.5589986E0,0E0,0E0,0E0,0E0],"parents":[2147483647,0,0,1,1,2,2,3,3,4,4,6,6,8,8,9,9,10,10,15,15,16,16,17,17,20,20,22,22,23,23,28,28],"right_children":[2,4,6,8,10,-1,12,-1,14,16,18,-1,-1,-1,-1,20,22,24,-1,-1,26,-1,28,30,-1,-1,-1,-1,32,-1,-1,-1,-1],"split_conditions":[4.05E0,-7.5E-1,7.15E0,-2.7E0,1.5E0,2.2409889E-1,4.256825E3,-1.5259886E-1,-1.5E0,2E-1,2.75E0,4.1032436E-1,2.7105474E-1,-9.423923E-2,-4.385032E-2,-6E-1,0E0,2.05E0,1.20684706E-1,9.0396805E-3,4.988889E2,1.3297665E-3,6.841667E2,4.7358246E0,8.8992916E-2,-4.1271234E-3,-2.6117003E-2,4.6849012E-2,-8.633333E2,7.106448E-2,4.1268364E-2,3.344643E-2,6.044031E-3],"split_indices":[74,74,74,74,74,0,55,0,74,74,74,0,0,0,0,83,79,74,0,0,58,0,58,50,0,0,0,0,59,0,0,0,0],"split_type":[0,0,0,0,0,0,0,0,0,0,0,0,0,0,0,0,0,0,0,0,0,0,0,0,0,0,0,0,0,0,0,0,0],"sum_hessian":[3.37E2,2.73E2,6.4E1,5E1,2.23E2,3.7E1,2.7E1,2.5E1,2.5E1,8.6E1,1.37E2,1.7E1,1E1,1.6E1,9E0,3.6E1,5E1,8.7E1,5E1,9E0,2.7E1,1.1E1,3.9E1,4.4E1,4.3E1,1.2E1,1.5E1,1.6E1,2.3E1,3.4E1,1E1,1.1E1,1.2E1],"tree_param":{"num_deleted":"0","num_feature":"84","num_nodes":"33","size_leaf_vector":"1"}},{"base_weights":[2.006944E0,6.5356064E-1,7.014771E0,-1.7899016E0,1.8265845E0,5.31359E0,3.6977458E-1,-3.224855E0,-4.941283E-1,9.176067E-1,2.429812E0,1.5661122E-1,2.3651335E-1,-8.763798E-2,-1.4664921E-1,-2.9447356E-1,-3.8008947E-2,4.4638008E-1,1.2088922E0,1.9913267E0,1.2806958E-1,-7.7233166E-2,-2.1317936E-2,1.965548E-1,3.186407E-2,1.3963553E0,2.9351104E-2,8.678404E-2,4.110021E-2,5.1103355E-3,-1.11267995E-2,5.836966E-4,1.4727921E-2,3.9733548E-2,6.536822E-2],"categories":[],"categories_nodes":[],"categories_segments":[],"categories_sizes":[],"default_left":[0,0,0,0,0,0,0,0,0,0,0,0,0,0,0,0,0,0,0,0,0,0,0,0,0,0,0,0,0,0,0,0,0,0,0],"id":1,"left_children":[1,3,5,7,9,11,-1,13,15,17,19,-1,-1,-1,-1,21,-1,23,25,27,-1,29,-1,31,-1,33,-1,-1,-1,-1,-1,-1,-1,-1,-1],"loss_changes":[2.3878765E3,8.029502E2,2.0778027E2,1.6760959E2,1.01402954E2,7.1932373E0,0E0,8.810455E0,3.9622917E0,1.00295105E1,2.8158508E1,0E0,0E0,0E0,0E0,1.6742306E0,0E0,2.409092E0,3.3441849E0,6.803528E0,0E0,7.7852285E-1,0E0,5.583577E-1,0E0,1.2463989E0,0E0,0E0,0E0,0E0,0E0,0E0,0E0,0E0,0E0],"parents":[2147483647,0,0,1,1,2,2,3,3,4,4,5,5,7,7,8,8,9,9,10,10,15,15,17,17,18,18,19,19,21,21,23,23,25,25],"right_children":[2,4,6,8,10,12,-1,14,16,18,20,-1,-1,-1,-1,22,-1,24,26,28,-1,30,-1,32,-1,34,-1,-1,-1,-1,-1,-1,-1,-1,-1],"split_conditions":[4.4E0,1E-1,7.5E0,-1.75E0,1.81E0,5.05E0,3.6977458E-1,-3.75E0,3.8530467E0,9E-1,3.05E0,1.5661122E-1,2.3651335E-1,-8.763798E-2,-1.4664921E-1,3.2833334E2,-3.8008947E-2,1.25E0,8E0,4.0173984E0,1.2806958E-1,3.3333333E0,-2.1317936E-2,-8.988889E2,3.186407E-2,2.215966E0,2.9351104E-2,8.678404E-2,4.110021E-2,5.1103355E-3,-1.11267995E-2,5.836966E-4,1.4727921E-2,3.9733548E-2,6.536822E-2],"split_indices":[74,74,74,74,74,74,0,83,45,74,74,0,0,0,0,57,0,77,71,45,0,5,0,55,0,17,0,0,0,0,0,0,0,0,0],"split_type":[0,0,0,0,0,0,0,0,0,0,0,0,0,0,0,0,0,0,0,0,0,0,0,0,0,0,0,0,0,0,0,0,0,0,0],"sum_hessian":[3.52E2,2.78E2,7.4E1,9E1,1.88E2,4.2E1,3.2E1,4.2E1,4.8E1,7.6E1,1.12E2,1.2E1,3E1,1.2E1,3E1,3.4E1,1.4E1,3E1,4.6E1,7.1E1,4.1E1,1.8E1,1.6E1,1.8E1,1.2E1,3.2E1,1.4E1,6.2E1,9E0,9E0,9E0,9E0,9E0,1.2E1,2E1],"tree_param":{"num_deleted":"0","num_feature":"84","num_nodes":"35","size_leaf_vector":"1"}},{"base_weights":[1.8507042E0,7.287086E-1,6.6370807E0,-1.659503E0,1.8482699E0,5.117902E0,3.6123854E-1,-3.1182816E0,-4.446542E-1,8.8399047E-1,2.447704E0,1.4688726E-1,2.2688171E-1,-1.5001751E-1,-9.748228E-2,-3.7874892E-2,-2.3121648E-1,3.159173E-1,1.1728762E0,2.0544405E0,1.277575E-1,9.5056975E-3,-3.829203E-1,2.8087094E-2,2.9841687E-3,2.9625122E-2,1.3197659E0,1.6840482E0,9.1373414E-2,-6.3476707E-3,-1.9590776E-2,3.6915265E-2,6.1575264E-2,7.677438E-2,4.591174E-2],"categories":[],"categories_nodes":[],"categories_segments":[],"categories_sizes":[],"default_left":[0,0,0,0,0,0,0,0,0,0,0,0,0,0,0,0,0,0,0,0,0,0,0,0,0,0,0,0,0,0,0,0,0,0,0],"id":2,"left_children":[1,3,5,7,9,11,-1,13,15,17,19,-1,-1,-1,-1,-1,21,23,25,27,-1,-1,29,-1,-1,-1,31,33,-1,-1,-1,-1,-1,-1,-1],"loss_changes":[1.9499502E3,7.944971E2,1.8275342E2,1.6697202E2,1.1459668E2,7.624634E0,0E0,8.520386E0,5.2063494E0,1.2594017E1,2.618927E1,0E0,0E0,0E0,0E0,0E0,2.7582176E0,2.4630966E0,2.4859924E0,1.4725952E0,0E0,0E0,5.5379725E-1,0E0,0E0,0E0,1.5494308E0,1.0939178E0,0E0,0E0,0E0,0E0,0E0,0E0,0E0],"parents":[2147483647,0,0,1,1,2,2,3,3,4,4,5,5,7,7,8,8,9,9,10,10,16,16,17,17,18,18,19,19,22,22,26,26,27,27],"right_children":[2,4,6,8,10,12,-1,14,16,18,20,-1,-1,-1,-1,-1,22,24,26,28,-1,-1,30,-1,-1,-1,32,34,-1,-1,-1,-1,-1,-1,-1],"split_conditions":[4.4E0,2E-1,8E0,-1.5E0,1.81E0,4.95E0,3.6123854E-1,-3E0,2.4746473E0,9E-1,3.05E0,1.4688726E-1,2.2688171E-1,-1.5001751E-1,-9.748228E-2,-3.7874892E-2,2.4179518E0,-4.4666666E2,2.7288826E0,1.81E0,1.277575E-1,9.5056975E-3,2.1977124E0,2.8087094E-2,2.9841687E-3,2.9625122E-2,3.0048409E0,1.65E0,9.1373414E-2,-6.3476707E-3,-1.9590776E-2,3.6915265E-2,6.1575264E-2,7.677438E-2,4.591174E-2],"split_indices":[74,74,74,74,74,74,0,74,32,74,74,0,0,0,0,0,30,57,50,79,0,0,42,0,0,0,32,83,0,0,0,0,0,0,0],"split_type":[0,0,0,0,0,0,0,0,0,0,0,0,0,0,0,0,0,0,0,0,0,0,0,0,0,0,0,0,0,0,0,0,0,0,0],"sum_hessian":[3.63E2,2.95E2,6.8E1,9.4E1,2.01E2,4.2E1,2.6E1,4.2E1,5.2E1,7.8E1,1.23E2,1.1E1,3.1E1,2.2E1,2E1,1.5E1,3.7E1,2.7E1,5.1E1,8E1,4.3E1,9E0,2.8E1,1E1,1.7E1,1.4E1,3.7E1,2.9E1,5.1E1,9E0,1.9E1,1.3E1,2.4E1,2E1,9E0],"tree_param":{"num_deleted":"0","num_feature":"84","num_nodes":"35","size_leaf_vector":"1"}},{"base_weights":[1.7972238E0,6.647004E-1,6.095047E0,-1.9141179E0,1.6733052E0,5.060153E0,3.3865166E-1,-3.0802078E0,-5.494493E-1,6.755121E-1,2.1817675E0,1.4906728E-1,2.2060247E-1,-1.4609778E-1,-9.253436E-2,-2.3953101E-1,-4.2203344E-2,-2.8814927E-3,8.258419E-1,1.7254859E0,1.0997768E-1,4.774403E-3,-1.8328957E-2,4.9138942E-1,1.0204641E0,3.723742E-2,7.532704E-2,7.7585345E-3,2.706279E-2,2.4648536E-2,1.1337619E0,3.4267817E-2,6.22489E-2],"categories":[],"categories_nodes":[],"categories_segments":[],"categories_sizes":[],"default_left":[0,0,0,0,0,0,0,0,0,0,0,0,0,0,0,0,0,0,0,0,0,0,0,0,0,0,0,0,0,0,0,0,0],"id":3,"left_children":[1,3,5,7,9,11,-1,13,15,17,19,-1,-1,-1,-1,21,-1,-1,23,25,-1,-1,-1,27,29,-1,-1,-1,-1,-1,31,-1,-1],"loss_changes":[1.7725442E3,7.5749536E2,1.2846606E2,1.2879639E2,1.045603E2,5.0808105E0,0E0,9.459381E0,5.5539064E0,8.130314E0,2.6893738E1,0E0,0E0,0E0,0E0,1.8988527E0,0E0,0E0,3.4040642E0,5.181549E0,0E0,0E0,0E0,1.098311E0,1.0760307E0,0E0,0E0,0E0,0E0,0E0,1.9389191E0,0E0,0E0],"parents":[2147483647,0,0,1,1,2,2,3,3,4,4,5,5,7,7,8,8,9,9,10,10,15,15,18,18,19,19,23,23,24,24,30,30],"right_children":[2,4,6,8,10,12,-1,14,16,18,20,-1,-1,-1,-1,22,-1,-1,24,26,-1,-1,-1,28,30,-1,-1,-1,-1,-1,32,-1,-1],"split_conditions":[4.26E0,2E-1,8.25E0,-1.5E0,1.75E0,4.95E0,3.3865166E-1,-3E0,3.8530467E0,0E0,2.75E0,1.4906728E-1,2.2060247E-1,-1.4609778E-1,-9.253436E-2,1E-1,-4.2203344E-2,-2.8814927E-3,8E-1,1.6E0,1.0997768E-1,4.774403E-3,-1.8328957E-2,2.8243022E0,2.2268648E0,3.723742E-2,7.532704E-2,7.7585345E-3,2.706279E-2,2.4648536E-2,3.3115017E0,3.4267817E-2,6.22489E-2],"split_indices":[74,74,74,74,74,74,0,74,45,79,74,0,0,0,0,83,0,0,74,75,0,0,0,42,17,0,0,0,0,0,50,0,0],"split_type":[0,0,0,0,0,0,0,0,0,0,0,0,0,0,0,0,0,0,0,0,0,0,0,0,0,0,0,0,0,0,0,0,0],"sum_hessian":[3.64E2,2.89E2,7.5E1,8.1E1,2.08E2,5.3E1,2.2E1,4.3E1,3.8E1,7.1E1,1.37E2,1.2E1,4.1E1,2.5E1,1.8E1,2.4E1,1.4E1,1.2E1,5.9E1,7.4E1,6.3E1,9E0,1.5E1,2.3E1,3.6E1,1E1,6.4E1,9E0,1.4E1,9E0,2.7E1,1.7E1,1E1],"tree_param":{"num_deleted":"0","num_feature":"84","num_nodes":"33","size_leaf_vector":"1"}},{"base_weights":[1.7495326E0,4.6241558E-1,5.2910314E0,-2.5307283E0,1.152046E0,4.158176E0,7.569185E0,-1.347163E-1,-1.6744643E0,3.025642E-1,1.9078103E0,1.3498992E-1,2.008143E-1,2.1566568E-1,3.4064004E-1,-8.0363296E-2,-4.3051332E-2,-3.4369864E-2,9.118721E-1,1.4994671E0,2.1906385E0,-3.0463016E-1,2.805895E-1,1.1403345E0,2.2755956E-2,3.5590217E-2,6.8035446E-2,6.4113766E-2,9.573059E-2,-4.5040864E-4,-5.389965E-1,2.2441903E-2,1.1765143E-3,5.7300862E-2,2.9421767E-2,-1.0926957E-2,-3.2178063E-2],"categories":[],"categories_nodes":[],"categories_segments":[],"categories_sizes":[],"default_left":[0,0,0,0,0,0,0,0,0,0,0,0,0,0,0,0,0,0,0,0,0,0,0,0,0,0,0,0,0,0,0,0,0,0,0,0,0],"id":4,"left_children":[1,3,5,7,9,11,13,-1,15,17,19,-1,-1,-1,-1,-1,-1,21,23,25,27,29,31,33,-1,-1,-1,-1,-1,-1,35,-1,-1,-1,-1,-1,-1],"loss_changes":[1.6066416E3,5.395979E2,2.111228E2,2.6177032E1,1.3552847E2,2.5500977E1,7.496216E0,0E0,2.4005432E0,2.0766296E1,9.650238E0,0E0,0E0,0E0,0E0,0E0,0E0,5.7034626E0,2.30204E0,3.507782E0,2.136383E0,2.471614E0,2.067455E0,1.2807636E0,0E0,0E0,0E0,0E0,0E0,0E0,1.130559E0,0E0,0E0,0E0,0E0,0E0,0E0],"parents":[2147483647,0,0,1,1,2,2,3,3,4,4,5,5,6,6,8,8,9,9,10,10,17,17,18,18,19,19,20,20,21,21,22,22,23,23,30,30],"right_children":[2,4,6,8,10,12,14,-1,16,18,20,-1,-1,-1,-1,-1,-1,22,24,26,28,30,32,34,-1,-1,-1,-1,-1,-1,36,-1,-1,-1,-1,-1,-1],"split_conditions":[3.75E0,-7.5E-1,7.15E0,-2.7E0,1.75E0,4.95E0,1.6666666E0,-1.347163E-1,-1.5E0,9E-1,2.425E0,1.3498992E-1,2.008143E-1,2.1566568E-1,3.4064004E-1,-8.0363296E-2,-4.3051332E-2,1E-1,8E0,1.6E0,1.81E0,6E1,-3.8333332E1,1.81E0,2.2755956E-2,3.5590217E-2,6.8035446E-2,6.4113766E-2,9.573059E-2,-4.5040864E-4,4.5897527E0,2.2441903E-2,1.1765143E-3,5.7300862E-2,2.9421767E-2,-1.0926957E-2,-3.2178063E-2],"split_indices":[75,74,74,74,74,74,49,0,74,74,74,0,0,0,0,0,0,74,71,75,79,58,57,78,0,0,0,0,0,0,52,0,0,0,0,0,0],"split_type":[0,0,0,0,0,0,0,0,0,0,0,0,0,0,0,0,0,0,0,0,0,0,0,0,0,0,0,0,0,0,0,0,0,0,0,0,0],"sum_hessian":[3.52E2,2.59E2,9.3E1,4.8E1,2.11E2,6.4E1,2.9E1,2.4E1,2.4E1,1E2,1.11E2,3.2E1,3.2E1,9E0,2E1,1.5E1,9E0,6.5E1,3.5E1,4.8E1,6.3E1,3.5E1,3E1,2E1,1.5E1,1.1E1,3.7E1,1.4E1,4.9E1,1.6E1,1.9E1,1.4E1,1.6E1,1.1E1,9E0,1E1,9E0],"tree_param":{"num_deleted":"0","num_feature":"84","num_nodes":"37","size_leaf_vector":"1"}},{"base_weights":[1.6308079E0,6.34939E-1,5.8978486E0,-1.6632658E0,1.5665777E0,4.9124975E0,3.6052158E-1,-2.8566432E0,-4.312079E-1,7.802897E-1,2.0887208E0,1.5949759E-1,2.282305E-1,-1.3609022E-1,-8.8504836E-2,-2.3042928E-1,-3.5949532E-2,3.351299E-1,1.0048344E0,1.7531748E0,1.0693961E-1,7.8113056E-3,-4.1129565E-1,2.6761455E-2,-1.0649029E-3,1.701077E-2,1.1089736E0,4.178209E-2,1.8330008E0,-2.433143E-2,-9.821107E-3,1.2693546E0,8.0581456E-1,5.972817E-2,8.012842E-2,3.8902365E-2,5.903129E-2,2.289779E-2,3.987517E-2],"categories":[],"categories_nodes":[],"categories_segments":[],"categories_sizes":[],"default_left":[0,0,0,0,0,0,0,0,0,0,0,0,0,0,0,0,0,0,0,0,0,0,0,0,0,0,0,0,0,0,0,0,0,0,0,0,0,0,0],"id":5,"left_children":[1,3,5,7,9,11,-1,13,15,17,19,-1,-1,-1,-1,21,-1,23,25,27,-1,-1,29,-1,-1,-1,31,-1,33,-1,-1,35,37,-1,-1,-1,-1,-1,-1],"loss_changes":[1.526044E3,6.2994684E2,1.5080396E2,1.2374454E2,8.417621E1,1.3785645E1,0E0,6.7200317E0,3.6451206E0,8.159706E0,1.721936E1,0E0,0E0,0E0,0E0,2.4385605E0,0E0,3.4574196E0,2.9802856E0,2.761444E0,0E0,0E0,5.461395E-1,0E0,0E0,0E0,1.2623215E0,0E0,3.4872437E-1,0E0,0E0,2.1804428E-1,2.4045086E-1,0E0,0E0,0E0,0E0,0E0,0E0],"parents":[2147483647,0,0,1,1,2,2,3,3,4,4,5,5,7,7,8,8,9,9,10,10,15,15,17,17,18,18,19,19,22,22,26,26,28,28,31,31,32,32],"right_children":[2,4,6,8,10,12,-1,14,16,18,20,-1,-1,-1,-1,22,-1,24,26,28,-1,-1,30,-1,-1,-1,32,-1,34,-1,-1,36,38,-1,-1,-1,-1,-1,-1],"split_conditions":[4.4E0,1E-1,1E1,-1.5E0,1.81E0,6.275E0,3.6052158E-1,-3E0,3.8530467E0,8E-1,3.05E0,1.5949759E-1,2.282305E-1,-1.3609022E-1,-8.8504836E-2,-1.8333333E2,-3.5949532E-2,-3.475E2,2.178471E0,2.822548E0,1.0693961E-1,7.8113056E-3,9.816667E2,2.6761455E-2,-1.0649029E-3,1.701077E-2,5.866667E2,4.178209E-2,-2.2033333E2,-2.433143E-2,-9.821107E-3,3.1269114E0,1.1622575E1,5.972817E-2,8.012842E-2,3.8902365E-2,5.903129E-2,2.289779E-2,3.987517E-2],"split_indices":[74,74,74,74,74,74,0,74,45,74,74,0,0,0,0,57,0,57,17,33,0,0,56,0,0,0,58,0,55,0,0,50,16,0,0,0,0,0,0],"split_type":[0,0,0,0,0,0,0,0,0,0,0,0,0,0,0,0,0,0,0,0,0,0,0,0,0,0,0,0,0,0,0,0,0,0,0,0,0,0,0],"sum_hessian":[3.59E2,2.92E2,6.7E1,8.4E1,2.08E2,5.2E1,1.5E1,4.2E1,4.2E1,8.4E1,1.24E2,2.3E1,2.9E1,2.3E1,1.9E1,3E1,1.2E1,2.9E1,5.5E1,7.8E1,4.6E1,9E0,2.1E1,1.5E1,1.4E1,9E0,4.6E1,9E0,6.9E1,9E0,1.2E1,2.8E1,1.8E1,2E1,4.9E1,1.2E1,1.6E1,9E0,9E0],"tree_param":{"num_deleted":"0","num_feature":"84","num_nodes":"39","size_leaf_vector":"1"}},{"base_weights":[1.6669503E0,4.4846326E-1,4.9158134E0,-2.3825042E0,1.0843223E0,3.5721285E0,6.3278956E0,-2.7122865E0,-3.518221E-2,6.8647857E-3,1.611701E0,3.9412766E0,1.1847344E-1,2.2473139E-1,3.3906773E-1,-1.2401049E-1,-8.50434E-2,-2.910538E-1,2.884941E-1,1.25632E0,2.007277E0,1.1650272E-1,1.7751585E-1,5.045924E-3,-4.859891E-1,5.369653E-1,-1.4811009E-4,1.3798355E0,2.8349753E-2,7.303571E-2,9.5464855E-2,-9.494132E-3,-2.9565796E-2,9.746282E-3,3.1168068E-2,1.1266166E0,1.5758946E0,3.2795526E-2,5.1919173E-2,7.0905276E-2,4.7689114E-2],"categories":[],"categories_nodes":[],"categories_segments":[],"categories_sizes":[],"default_left":[0,0,0,0,0,0,0,0,0,0,0,0,0,0,0,0,0,0,0,0,0,0,0,0,0,0,0,0,0,0,0,0,0,0,0,0,0,0,0,0,0],"id":6,"left_children":[1,3,5,7,9,11,13,15,-1,17,19,21,-1,-1,-1,-1,-1,23,25,27,29,-1,-1,-1,31,33,-1,35,-1,-1,-1,-1,-1,-1,-1,37,39,-1,-1,-1,-1],"loss_changes":[1.4070918E3,4.706084E2,1.6144287E2,2.1803162E1,1.2102156E2,1.7129517E0,3.0304565E1,1.4989929E0,0E0,6.0410523E0,1.7581177E1,9.378052E-1,0E0,0E0,0E0,0E0,0E0,2.8852775E0,2.6874022E0,4.4879074E0,6.405945E-1,0E0,0E0,0E0,1.2687521E0,1.1553359E0,0E0,1.3522644E0,0E0,0E0,0E0,0E0,0E0,0E0,0E0,4.0208054E-1,7.924652E-2,0E0,0E0,0E0,0E0],"parents":[2147483647,0,0,1,1,2,2,3,3,4,4,5,5,6,6,7,7,9,9,10,10,11,11,17,17,18,18,19,19,20,20,24,24,25,25,27,27,35,35,36,36],"right_children":[2,4,6,8,10,12,14,16,-1,18,20,22,-1,-1,-1,-1,-1,24,26,28,30,-1,-1,-1,32,34,-1,36,-1,-1,-1,-1,-1,-1,-1,38,40,-1,-1,-1,-1],"split_conditions":[3.65E0,-7.5E-1,6.275E0,-1.5E0,1E0,6.1688223E0,1E1,-3E0,-3.518221E-2,1E-1,2.425E0,4.2E0,1.1847344E-1,2.2473139E-1,3.3906773E-1,-1.2401049E-1,-8.50434E-2,2.5E0,-3.8333332E1,8E0,3.05E0,1.1650272E-1,1.7751585E-1,5.045924E-3,-1E-1,1.9117647E0,-1.4811009E-4,2.9639175E0,2.8349753E-2,7.303571E-2,9.5464855E-2,-9.494132E-3,-2.9565796E-2,9.746282E-3,3.1168068E-2,1.65E0,4.051724E0,3.2795526E-2,5.1919173E-2,7.0905276E-2,4.7689114E-2],"split_indices":[74,74,74,74,74,33,74,74,0,74,74,74,0,0,0,0,0,5,57,71,74,0,0,0,79,32,0,42,0,0,0,0,0,0,0,74,45,0,0,0,0],"split_type":[0,0,0,0,0,0,0,0,0,0,0,0,0,0,0,0,0,0,0,0,0,0,0,0,0,0,0,0,0,0,0,0,0,0,0,0,0,0,0,0,0],"sum_hessian":[3.55E2,2.59E2,9.6E1,4.7E1,2.12E2,5.1E1,4.5E1,3.8E1,9E0,7E1,1.42E2,3E1,2.1E1,3.4E1,1.1E1,2.3E1,1.5E1,3.4E1,3.6E1,7.7E1,6.5E1,1E1,2E1,1.1E1,2.3E1,1.9E1,1.7E1,6.2E1,1.5E1,4.2E1,2.3E1,1.2E1,1.1E1,9E0,1E1,3E1,3.2E1,1.1E1,1.9E1,2.1E1,1.1E1],"tree_param":{"num_deleted":"0","num_feature":"84","num_nodes":"41","size_leaf_vector":"1"}},{"base_weights":[1.4316688E0,4.849091E-1,5.643187E0,-2.2888875E0,1.176371E0,4.348834E0,3.1023893E-1,-1.2141755E-1,-1.390515E0,2.9359886E-1,1.8869529E0,1.90326E-1,1.1959098E-1,-7.27817E-2,-3.3215698E-2,1.6312217E-2,8.40237E-1,1.4370413E0,2.309115E0,-2.2913066E-1,2.6794782E-1,1.6006688E-2,1.015534E0,3.43952E-2,1.5502324E0,2.606315E0,1.870318E0,9.186535E-3,-3.9898732E-1,2.3744809E-2,2.9445538E-2,3.0807953E-2,5.360292E-2,1.2292142E0,6.895617E-2,7.475274E-2,1.1424521E-1,4.650894E-2,8.691295E-2,-2.6465014E-1,-2.5187498E-2,-6.3442676E-3,9.335553E-3,3.632037E-2,5.861382E-2,-4.287659E-3,-1.6328586E-2],"categories":[],"categories_nodes":[],"categories_segments":[],"categories_sizes":[],"default_left":[0,0,0,0,0,0,0,0,0,0,0,0,0,0,0,0,0,0,0,0,0,0,0,0,0,0,0,0,0,0,0,0,0,0,0,0,0,0,0,0,0,0,0,0,0,0,0],"id":7,"left_children":[1,3,5,7,9,11,-1,-1,13,15,17,-1,-1,-1,-1,19,21,23,25,27,29,-1,31,-1,33,35,37,-1,39,-1,41,-1,-1,43,-1,-1,-1,-1,-1,45,-1,-1,-1,-1,-1,-1,-1],"loss_changes":[1.4765502E3,5.8575684E2,1.3640234E2,3.273651E1,1.5250278E2,4.517517E0,0E0,0E0,4.8126106E0,1.6659595E1,2.2322998E1,0E0,0E0,0E0,0E0,4.6317954E0,2.521122E0,3.3033447E0,3.993225E0,3.0145526E0,2.7291036E0,0E0,1.0218124E0,0E0,2.9885864E-1,2.8045654E-1,3.2878113E0,0E0,6.4741373E-1,0E0,8.3855444E-1,0E0,0E0,1.09659195E-1,0E0,0E0,0E0,0E0,0E0,3.6470532E-1,0E0,0E0,0E0,0E0,0E0,0E0,0E0],"parents":[2147483647,0,0,1,1,2,2,3,3,4,4,5,5,8,8,9,9,10,10,15,15,16,16,17,17,18,18,19,19,20,20,22,22,24,24,25,25,26,26,28,28,30,30,33,33,39,39],"right_children":[2,4,6,8,10,12,-1,-1,14,16,18,-1,-1,-1,-1,20,22,24,26,28,30,-1,32,-1,34,36,38,-1,40,-1,42,-1,-1,44,-1,-1,-1,-1,-1,46,-1,-1,-1,-1,-1,-1,-1],"split_conditions":[4.4E0,-7.5E-1,8E0,-2.7E0,1.75E0,5.1833334E0,3.1023893E-1,-1.2141755E-1,-1.5E0,9E-1,2.65E0,1.90326E-1,1.1959098E-1,-7.27817E-2,-3.3215698E-2,2E-1,2.2270956E0,1.6E0,4.165193E0,-3.5E-1,-3.475E2,1.6006688E-2,-4.5916666E2,3.43952E-2,1.55E0,3.05E0,3.1060605E0,9.186535E-3,6E0,2.3744809E-2,3.325E2,3.0807953E-2,5.360292E-2,-8.697222E2,6.895617E-2,7.475274E-2,1.1424521E-1,4.650894E-2,8.691295E-2,4.7011857E0,-2.5187498E-2,-6.3442676E-3,9.335553E-3,3.632037E-2,5.861382E-2,-4.287659E-3,-1.6328586E-2],"split_indices":[74,74,74,74,74,12,0,0,74,74,74,0,0,0,0,74,17,75,52,79,57,0,56,0,80,76,5,0,31,0,57,0,0,55,0,0,0,0,0,52,0,0,0,0,0,0,0],"split_type":[0,0,0,0,0,0,0,0,0,0,0,0,0,0,0,0,0,0,0,0,0,0,0,0,0,0,0,0,0,0,0,0,0,0,0,0,0,0,0,0,0,0,0,0,0,0,0],"sum_hessian":[3.7E2,3.03E2,6.7E1,6E1,2.43E2,4.2E1,2.5E1,3.3E1,2.7E1,1.09E2,1.34E2,3.3E1,9E0,1.5E1,1.2E1,7.3E1,3.6E1,6.7E1,6.7E1,3.7E1,3.6E1,1.1E1,2.5E1,1.2E1,5.5E1,3.7E1,3E1,1E1,2.7E1,1.5E1,2.1E1,1.5E1,1E1,1.9E1,3.6E1,9E0,2.8E1,9E0,2.1E1,1.8E1,9E0,1.1E1,1E1,9E0,1E1,9E0,9E0],"tree_param":{"num_deleted":"0","num_feature":"84","num_nodes":"47","size_leaf_vector":"1"}},{"base_weights":[1.455159E0,4.0684946E-2,3.581467E0,-2.2877312E0,6.7302525E-1,2.6389835E0,5.7557535E0,-1.24147214E-1,-1.7238525E0,-2.713059E-2,1.2091357E0,8.5159644E-2,3.1501524E0,6.2855754E0,1.6603285E-1,-8.8858664E-2,-5.0352465E-2,6.905322E-2,-2.4672449E-2,6.9622964E-1,1.4472684E0,8.9651756E-2,3.3009686E0,2.8846622E-1,1.8497021E-1,2.3425234E-2,-6.493109E-2,8.4236956E-1,1.1310704E-2,1.5082994E0,3.914125E-2,1.4522614E-1,9.769762E-2,-1.7467627E-1,1.5169001E-2,4.1508425E-2,2.0626523E-2,5.0095722E-2,6.886372E-2,-3.6789393E-1,2.6481204E-2,-5.441394E-3,-2.1340491E-2,-6.1429776E-3,8.872889E-3],"categories":[],"categories_nodes":[],"categories_segments":[],"categories_sizes":[],"default_left":[0,0,0,0,0,0,0,0,0,0,0,0,0,0,0,0,0,0,0,0,0,0,0,0,0,0,0,0,0,0,0,0,0,0,0,0,0,0,0,0,0,0,0,0,0],"id":8,"left_children":[1,3,5,7,9,11,13,-1,15,17,19,-1,21,23,-1,-1,-1,25,-1,27,29,-1,31,-1,-1,-1,33,35,-1,37,-1,-1,-1,39,-1,-1,-1,-1,-1,41,43,-1,-1,-1,-1],"loss_changes":[1.0916157E3,3.2398465E2,2.8194897E2,1.4398514E1,6.4970215E1,2.3042236E1,1.3416626E1,0E0,3.7133636E0,4.2421293E0,1.0962051E1,0E0,3.383789E-1,9.516602E0,0E0,0E0,0E0,4.4788656E0,0E0,1.7948456E0,5.443115E-1,0E0,1.0791321E0,0E0,0E0,0E0,2.5942588E0,8.75206E-1,0E0,7.4479675E-1,0E0,0E0,0E0,1.6810308E0,0E0,0E0,0E0,0E0,0E0,7.204876E-1,7.6913154E-1,0E0,0E0,0E0,0E0],"parents":[2147483647,0,0,1,1,2,2,3,3,4,4,5,5,6,6,8,8,9,9,10,10,12,12,13,13,17,17,19,19,20,20,22,22,26,26,27,27,29,29,33,33,39,39,40,40],"right_children":[2,4,6,8,10,12,14,-1,16,18,20,-1,22,24,-1,-1,-1,26,-1,28,30,-1,32,-1,-1,-1,34,36,-1,38,-1,-1,-1,40,-1,-1,-1,-1,-1,42,44,-1,-1,-1,-1],"split_conditions":[2.75E0,-1E0,6.25E0,-3.5E0,9E-1,3.75E0,9E0,-1.24147214E-1,6.6666665E0,5.025641E0,1.75E0,8.5159644E-2,3.31E0,5.4229536E0,1.6603285E-1,-8.8858664E-2,-5.0352465E-2,3.5313532E0,-2.4672449E-2,-1.06666664E2,4.051724E0,8.9651756E-2,5.085745E0,2.8846622E-1,1.8497021E-1,2.3425234E-2,8E-1,3.9435586E-1,1.1310704E-2,3.3530183E0,3.914125E-2,1.4522614E-1,9.769762E-2,-1E-1,1.5169001E-2,4.1508425E-2,2.0626523E-2,5.0095722E-2,6.886372E-2,0E0,5.4854913E0,-5.441394E-3,-2.1340491E-2,-6.1429776E-3,8.872889E-3],"split_indices":[74,74,74,74,74,74,71,0,56,45,74,0,76,50,0,0,0,20,0,59,45,0,32,0,0,0,78,68,0,42,0,0,0,74,0,0,0,0,0,58,50,0,0,0,0],"split_type":[0,0,0,0,0,0,0,0,0,0,0,0,0,0,0,0,0,0,0,0,0,0,0,0,0,0,0,0,0,0,0,0,0,0,0,0,0,0,0,0,0,0,0,0,0],"sum_hessian":[3.62E2,2.18E2,1.44E2,4.6E1,1.72E2,1.02E2,4.2E1,1.8E1,2.8E1,7.5E1,9.7E1,5.1E1,5.1E1,3E1,1.2E1,1.3E1,1.5E1,6.5E1,1E1,3.2E1,6.5E1,9E0,4.2E1,1.9E1,1.1E1,1.3E1,5.2E1,2.3E1,9E0,5.6E1,9E0,3.1E1,1.1E1,4.2E1,1E1,1.4E1,9E0,2.4E1,3.2E1,2.1E1,2.1E1,9E0,1.2E1,1.1E1,1E1],"tree_param":{"num_deleted":"0","num_feature":"84","num_nodes":"45","size_leaf_vector":"1"}},{"base_weights":[1.4852747E0,5.3024805E-1,4.943509E0,-2.027967E0,1.1259769E0,3.9997737E0,2.6969722E-1,-2.4161189E0,-3.51656E-2,3.0578104E-1,1.7174188E0,1.3792336E-1,1.8865585E-1,-1.1157579E-1,-7.556565E-2,2.513049E-2,8.10234E-1,1.4168001E0,9.5147185E-2,-1.0178928E-1,1.6902316E-2,1.8051662E-2,9.841084E-1,2.3978746E-2,1.4999655E0,-2.5299805E-1,1.0570505E-2,2.422533E-2,5.5734996E-2,1.1190388E0,1.619004E0,-1.1292973E-1,-2.4266914E-2,2.9669475E-2,5.6068417E-2,6.926492E-2,4.473533E-2,1.760894E-3,-1.50318295E-2],"categories":[],"categories_nodes":[],"categories_segments":[],"categories_sizes":[],"default_left":[0,0,0,0,0,0,0,0,0,0,0,0,0,0,0,0,0,0,0,0,0,0,0,0,0,0,0,0,0,0,0,0,0,0,0,0,0,0,0],"id":9,"left_children":[1,3,5,7,9,11,-1,13,-1,15,17,-1,-1,-1,-1,19,21,23,-1,25,-1,-1,27,-1,29,31,-1,-1,-1,33,35,37,-1,-1,-1,-1,-1,-1,-1],"loss_changes":[1.1896558E3,4.3510016E2,9.400525E1,2.2456802E1,1.115325E2,4.4102783E0,0E0,1.9811707E0,0E0,1.3853991E1,2.1012482E1,0E0,0E0,0E0,0E0,3.1864958E0,1.818079E0,5.48822E0,0E0,2.7296343E0,0E0,0E0,2.5910892E0,0E0,1.951889E0,1.5944717E0,0E0,0E0,0E0,1.2701168E0,4.232025E-1,1.0439521E0,0E0,0E0,0E0,0E0,0E0,0E0,0E0],"parents":[2147483647,0,0,1,1,2,2,3,3,4,4,5,5,7,7,9,9,10,10,15,15,16,16,17,17,19,19,22,22,24,24,25,25,29,29,30,30,31,31],"right_children":[2,4,6,8,10,12,-1,14,-1,16,18,-1,-1,-1,-1,20,22,24,-1,26,-1,-1,28,-1,30,32,-1,-1,-1,34,36,38,-1,-1,-1,-1,-1,-1,-1],"split_conditions":[4.4E0,-7.5E-1,8E0,1.8833333E2,1.75E0,6.275E0,2.6969722E-1,-3E0,-3.51656E-2,8E-1,3.05E0,1.3792336E-1,1.8865585E-1,-1.1157579E-1,-7.556565E-2,1.3E0,3.428016E0,1.15E0,9.5147185E-2,4.430329E0,1.6902316E-2,1.8051662E-2,2.9937146E0,2.3978746E-2,1.5E0,5.1924653E0,1.0570505E-2,2.422533E-2,5.5734996E-2,-2.9666666E2,6.7621374E0,6.715976E0,-2.4266914E-2,2.9669475E-2,5.6068417E-2,6.926492E-2,4.473533E-2,1.760894E-3,-1.50318295E-2],"split_indices":[74,74,74,56,74,74,0,74,0,74,74,0,0,0,0,80,32,76,0,50,0,0,50,0,81,33,0,0,0,55,52,0,0,0,0,0,0,0,0],"split_type":[0,0,0,0,0,0,0,0,0,0,0,0,0,0,0,0,0,0,0,0,0,0,0,0,0,0,0,0,0,0,0,0,0,0,0,0,0,0,0],"sum_hessian":[3.6E2,2.83E2,7.7E1,5.3E1,2.3E2,5.1E1,2.6E1,3.9E1,1.4E1,9.7E1,1.33E2,2.8E1,2.3E1,2.3E1,1.6E1,6.3E1,3.4E1,9.1E1,4.2E1,4.8E1,1.5E1,1.2E1,2.2E1,9E0,8.2E1,3.4E1,1.4E1,1.2E1,1E1,2.2E1,6E1,2.5E1,9E0,1E1,1.2E1,5.1E1,9E0,1.6E1,9E0],"tree_param":{"num_deleted":"0","num_feature":"84","num_nodes":"39","size_leaf_vector":"1"}},{"base_weights":[1.3074235E0,3.0204976E-1,3.9585896E0,-2.127272E0,8.3556074E-1,3.007436E0,6.1835713E0,-1.0201888E-1,-5.4227486E-2,-1.904307E-2,1.3611249E0,9.768175E-2,1.4906949E-1,2.015554E-1,2.948129E-1,-3.1294766E-1,1.9727547E-1,9.5178854E-1,1.5907135E0,1.1642824E-3,-5.314579E-1,5.9021117E-5,3.866009E-1,7.527902E-1,1.1286353E0,6.901391E-2,1.228493E0,-8.456518E-3,-3.6944028E-2,-8.0093425E-3,5.8775507E-3,2.4221305E-2,8.7250647E-4,3.7906952E-2,1.8902298E-2,3.33158E-2,5.2691825E-2,6.0964666E-2,3.734048E-2],"categories":[],"categories_nodes":[],"categories_segments":[],"categories_sizes":[],"default_left":[0,0,0,0,0,0,0,0,0,0,0,0,0,0,0,0,0,0,0,0,0,0,0,0,0,0,0,0,0,0,0,0,0,0,0,0,0,0,0],"id":10,"left_children":[1,3,5,7,9,11,13,-1,-1,15,17,-1,-1,-1,-1,19,21,23,25,-1,27,29,31,33,35,-1,37,-1,-1,-1,-1,-1,-1,-1,-1,-1,-1,-1,-1],"loss_changes":[9.690147E2,3.45236E2,1.9303308E2,1.0651688E1,9.7940414E1,1.9613892E1,1.6682129E0,0E0,0E0,5.402206E0,1.11731415E1,0E0,0E0,0E0,0E0,2.7002354E0,1.8295436E0,9.4517136E-1,7.8170776E-1,0E0,2.458539E0,7.2803634E-1,1.8520463E0,9.2685986E-1,1.925087E-1,0E0,3.7034607E-1,0E0,0E0,0E0,0E0,0E0,0E0,0E0,0E0,0E0,0E0,0E0,0E0],"parents":[2147483647,0,0,1,1,2,2,3,3,4,4,5,5,6,6,9,9,10,10,15,15,16,16,17,17,18,18,20,20,21,21,22,22,23,23,24,24,26,26],"right_children":[2,4,6,8,10,12,14,-1,-1,16,18,-1,-1,-1,-1,20,22,24,26,-1,28,30,32,34,36,-1,38,-1,-1,-1,-1,-1,-1,-1,-1,-1,-1,-1,-1],"split_conditions":[3.4E0,-1E0,7.15E0,-2.25E0,1.25E0,4.54E0,1E1,-1.0201888E-1,-5.4227486E-2,-1E-1,2.05E0,9.768175E-2,1.4906949E-1,2.015554E-1,2.948129E-1,-6E1,2.7910054E0,2.9519072E0,4.986316E0,1.1642824E-3,3.5E-1,3.028643E0,3.045977E0,2.05E0,2.7514684E0,6.901391E-2,4.3849587E0,-8.456518E-3,-3.6944028E-2,-8.0093425E-3,5.8775507E-3,2.4221305E-2,8.7250647E-4,3.7906952E-2,1.8902298E-2,3.33158E-2,5.2691825E-2,6.0964666E-2,3.734048E-2],"split_indices":[74,74,74,74,74,74,74,0,0,74,74,0,0,0,0,58,42,5,49,0,82,30,12,78,42,0,35,0,0,0,0,0,0,0,0,0,0,0,0],"split_type":[0,0,0,0,0,0,0,0,0,0,0,0,0,0,0,0,0,0,0,0,0,0,0,0,0,0,0,0,0,0,0,0,0,0,0,0,0,0,0],"sum_hessian":[3.63E2,2.64E2,9.9E1,4.7E1,2.17E2,7.1E1,2.8E1,3.1E1,1.6E1,8.3E1,1.34E2,3.8E1,3.3E1,1.5E1,1.3E1,3.5E1,4.8E1,5E1,8.4E1,1.4E1,2.1E1,2.4E1,2.4E1,2.6E1,2.4E1,6.4E1,2E1,1.2E1,9E0,1E1,1.4E1,1.5E1,9E0,1.5E1,1.1E1,1E1,1.4E1,9E0,1.1E1],"tree_param":{"num_deleted":"0","num_feature":"84","num_nodes":"39","size_leaf_vector":"1"}},{"base_weights":[1.402802E0,3.5458443E-1,4.239926E0,-2.0508332E0,9.1896063E-1,2.887181E0,5.5889626E0,-2.5184429E0,-4.824617E-2,1.7893209E-1,1.4964108E0,9.734036E-2,1.3170005E-1,2.4606611E-1,1.385582E-1,-1.1240402E-1,-7.474189E-2,-2.4762227E-1,4.4172114E-1,1.2508318E0,1.8591853E0,6.2915357E-3,-4.1670632E-1,6.4686364E-1,4.8656516E-2,3.6299687E-2,1.3552912E0,5.2572638E-2,8.03372E-2,-7.168065E-3,-3.3226874E-2,4.698144E-1,4.3907702E-2,-1.1164008E-2,1.1963712E-2,4.3139745E-2,6.0515065E-2,1.0641821E-2,2.6140276E-2],"categories":[],"categories_nodes":[],"categories_segments":[],"categories_sizes":[],"default_left":[0,0,0,0,0,0,0,0,0,0,0,0,0,0,0,0,0,0,0,0,0,0,0,0,0,0,0,0,0,0,0,0,0,0,0,0,0,0,0],"id":11,"left_children":[1,3,5,7,9,11,13,15,-1,17,19,-1,-1,-1,-1,-1,-1,21,23,25,27,-1,29,31,33,-1,35,-1,-1,-1,-1,37,-1,-1,-1,-1,-1,-1,-1],"loss_changes":[1.101822E3,3.711411E2,1.6635388E2,1.8290756E1,9.417209E1,1.044281E0,2.4393433E1,1.2287903E-1,0E0,1.1094575E1,8.721619E0,0E0,0E0,0E0,0E0,0E0,0E0,2.6409247E0,4.8872147E0,1.7397385E0,2.638855E-1,0E0,2.4294624E0,2.500019E0,1.7962476E0,0E0,5.6864166E-1,0E0,0E0,0E0,0E0,8.9265823E-1,0E0,0E0,0E0,0E0,0E0,0E0,0E0],"parents":[2147483647,0,0,1,1,2,2,3,3,4,4,5,5,6,6,7,7,9,9,10,10,17,17,18,18,19,19,20,20,22,22,23,23,24,24,26,26,31,31],"right_children":[2,4,6,8,10,12,14,16,-1,18,20,-1,-1,-1,-1,-1,-1,22,24,26,28,-1,30,32,34,-1,36,-1,-1,-1,-1,38,-1,-1,-1,-1,-1,-1,-1],"split_conditions":[3.65E0,-1E0,6.5E0,-2.7E0,1.65E0,4.54E0,9E0,1.6611111E2,-4.824617E-2,1E-1,2.75E0,9.734036E-2,1.3170005E-1,2.4606611E-1,1.385582E-1,-1.1240402E-1,-7.474189E-2,2.032967E0,4.968491E0,1.81E0,-3.4866666E2,6.2915357E-3,1E-1,4.0667343E0,0E0,3.6299687E-2,1.55E0,5.2572638E-2,8.03372E-2,-7.168065E-3,-3.3226874E-2,4.898148E0,4.3907702E-2,-1.1164008E-2,1.1963712E-2,4.3139745E-2,6.0515065E-2,1.0641821E-2,2.6140276E-2],"split_indices":[74,74,74,74,74,74,71,55,0,74,74,0,0,0,0,0,0,5,20,74,58,0,79,5,83,0,80,0,0,0,0,30,0,0,0,0,0,0,0],"split_type":[0,0,0,0,0,0,0,0,0,0,0,0,0,0,0,0,0,0,0,0,0,0,0,0,0,0,0,0,0,0,0,0,0,0,0,0,0,0,0],"sum_hessian":[3.7E2,2.71E2,9.9E1,5.1E1,2.2E2,5.1E1,4.8E1,3.2E1,1.9E1,9.7E1,1.23E2,2.3E1,2.8E1,3.9E1,9E0,2.2E1,1E1,3.7E1,6E1,7.6E1,4.7E1,1.1E1,2.6E1,3.9E1,2.1E1,1.9E1,5.7E1,9E0,3.8E1,1.7E1,9E0,2.9E1,1E1,9E0,1.2E1,1.9E1,3.8E1,1.4E1,1.5E1],"tree_param":{"num_deleted":"0","num_feature":"84","num_nodes":"39","size_leaf_vector":"1"}},{"base_weights":[1.2691566E0,3.5943204E-1,3.8145366E0,-1.2662605E0,1.1524386E0,2.704885E0,4.8678365E0,-2.158482E0,-4.2303094E-1,4.2602903E-1,1.3879308E0,9.603216E-2,1.3556379E-1,2.311056E-1,1.584276E-1,-1.0180321E-1,-6.4362265E-2,-2.0305145E-1,-3.141263E-2,6.742959E-1,1.9051298E-1,1.2070336E0,1.7820548E0,2.6715572E-3,-1.580464E-2,1.5259254E-2,3.8645808E-2,2.1980074E-4,1.91759E-2,1.2839886E0,1.6774185E-2,7.795874E-2,5.0095446E-2,1.0291454E0,1.4112357E0,2.5248865E-2,1.207813E0,6.0805004E-2,4.0287916E-2,3.5616018E-2,5.6406707E-2],"categories":[],"categories_nodes":[],"categories_segments":[],"categories_sizes":[],"default_left":[0,0,0,0,0,0,0,0,0,0,0,0,0,0,0,0,0,0,0,0,0,0,0,0,0,0,0,0,0,0,0,0,0,0,0,0,0,0,0,0,0],"id":12,"left_children":[1,3,5,7,9,11,13,15,17,19,21,-1,-1,-1,-1,-1,-1,23,-1,25,27,29,31,-1,-1,-1,-1,-1,-1,33,-1,-1,-1,35,37,-1,39,-1,-1,-1,-1],"loss_changes":[8.43821E2,3.4953925E2,9.903735E1,6.604584E1,3.0542297E1,2.94458E0,1.5264038E1,4.316742E0,3.3920708E0,2.5611973E0,7.6165466E0,0E0,0E0,0E0,0E0,0E0,0E0,1.492992E0,0E0,1.4323788E0,1.2805586E0,5.430771E0,4.1871643E-1,0E0,0E0,0E0,0E0,0E0,0E0,1.4013062E0,0E0,0E0,0E0,1.6931419E0,2.6635742E-1,0E0,5.8013916E-2,0E0,0E0,0E0,0E0],"parents":[2147483647,0,0,1,1,2,2,3,3,4,4,5,5,6,6,7,7,8,8,9,9,10,10,17,17,19,19,20,20,21,21,22,22,29,29,33,33,34,34,36,36],"right_children":[2,4,6,8,10,12,14,16,18,20,22,-1,-1,-1,-1,-1,-1,24,-1,26,28,30,32,-1,-1,-1,-1,-1,-1,34,-1,-1,-1,36,38,-1,40,-1,-1,-1,-1],"split_conditions":[3.75E0,1E-1,6.275E0,-1.5E0,1.3E0,4.8E0,1.6666666E0,-3E0,3.8530467E0,-8.933333E2,2.8333333E0,9.603216E-2,1.3556379E-1,2.311056E-1,1.584276E-1,-1.0180321E-1,-6.4362265E-2,4.8333332E1,-3.141263E-2,2.9519072E0,8E-1,8E0,7.5065618E0,2.6715572E-3,-1.580464E-2,1.5259254E-2,3.8645808E-2,2.1980074E-4,1.91759E-2,2.9639175E0,1.6774185E-2,7.795874E-2,5.0095446E-2,1.4777777E2,2.64E0,2.5248865E-2,1.65E0,6.0805004E-2,4.0287916E-2,3.5616018E-2,5.6406707E-2],"split_indices":[74,74,74,74,74,74,42,74,45,59,74,0,0,0,0,0,0,57,0,5,75,71,33,0,0,0,0,0,0,42,0,0,0,58,83,0,80,0,0,0,0],"split_type":[0,0,0,0,0,0,0,0,0,0,0,0,0,0,0,0,0,0,0,0,0,0,0,0,0,0,0,0,0,0,0,0,0,0,0,0,0,0,0,0,0],"sum_hessian":[3.64E2,2.69E2,9.5E1,8.8E1,1.81E2,4.8E1,4.7E1,4.2E1,4.6E1,4.5E1,1.36E2,3.3E1,1.5E1,2.4E1,2.3E1,2.5E1,1.7E1,2.9E1,1.7E1,2.1E1,2.4E1,9.6E1,4E1,1.2E1,1.7E1,1.1E1,1E1,1.5E1,9E0,8.7E1,9E0,3.1E1,9E0,3.2E1,5.5E1,1.1E1,2.1E1,4.5E1,1E1,9E0,1.2E1],"tree_param":{"num_deleted":"0","num_feature":"84","num_nodes":"41","size_leaf_vector":"1"}},{"base_weights":[1.2215292E0,4.8824584E-1,4.402803E0,-1.2209866E0,1.1289178E0,3.7546816E0,2.606003E-1,-1.9888883E0,-3.8239804E-1,5.328268E-1,1.571546E0,1.231276E-1,1.6935317E-1,-9.9331215E-2,-1.5440382E0,3.4127792E-3,-5.2486366E-1,4.3628097E-2,4.053005E-1,1.3811437E0,8.329818E-2,-4.662169E-2,-7.7267826E-2,-7.29492E-3,-3.059713E-2,6.3108546E-1,1.2922952E-1,4.0232886E-2,5.998556E-2,3.387223E-2,4.5849037E-1,-6.939373E-2,2.594181E-2,9.691208E-3,2.8679783E-2,-1.4163241E-2,6.3990112E-3],"categories":[],"categories_nodes":[],"categories_segments":[],"categories_sizes":[],"default_left":[0,0,0,0,0,0,0,0,0,0,0,0,0,0,0,0,0,0,0,0,0,0,0,0,0,0,0,0,0,0,0,0,0,0,0,0,0],"id":13,"left_children":[1,3,5,7,9,11,-1,13,15,17,19,-1,-1,-1,21,-1,23,-1,25,27,-1,-1,-1,-1,-1,29,31,-1,-1,-1,33,35,-1,-1,-1,-1,-1],"loss_changes":[8.2132E2,3.167549E2,5.968921E1,5.011178E1,5.4570435E1,2.2856445E0,0E0,4.171692E0,2.6308389E0,5.734089E0,7.706848E0,0E0,0E0,0E0,1.0442429E0,0E0,2.171668E0,0E0,4.593395E0,1.4467773E0,0E0,0E0,0E0,0E0,0E0,1.0015869E0,3.544128E0,0E0,0E0,0E0,1.119484E0,1.672167E0,0E0,0E0,0E0,0E0,0E0],"parents":[2147483647,0,0,1,1,2,2,3,3,4,4,5,5,7,7,8,8,9,9,10,10,14,14,16,16,18,18,19,19,25,25,26,26,30,30,31,31],"right_children":[2,4,6,8,10,12,-1,14,16,18,20,-1,-1,-1,22,-1,24,-1,26,28,-1,-1,-1,-1,-1,30,32,-1,-1,-1,34,36,-1,-1,-1,-1,-1],"split_conditions":[4.54E0,-1E-1,9.5E0,-1.75E0,1.81E0,5.75E0,2.606003E-1,-3.5E0,-6.236111E2,-2.8E2,3.3E0,1.231276E-1,1.6935317E-1,-9.9331215E-2,4.924925E0,3.4127792E-3,-2.0129852E-1,4.3628097E-2,4.4281044E0,1E0,8.329818E-2,-4.662169E-2,-7.7267826E-2,-7.29492E-3,-3.059713E-2,1.15E0,1.81E0,4.0232886E-2,5.998556E-2,3.387223E-2,1.5E0,3.028643E0,2.594181E-2,9.691208E-3,2.8679783E-2,-1.4163241E-2,6.3990112E-3],"split_indices":[74,74,74,74,74,82,0,74,59,63,77,0,0,0,29,0,68,0,20,73,0,0,0,0,0,78,80,0,0,0,74,30,0,0,0,0,0],"split_type":[0,0,0,0,0,0,0,0,0,0,0,0,0,0,0,0,0,0,0,0,0,0,0,0,0,0,0,0,0,0,0,0,0,0,0,0,0],"sum_hessian":[3.52E2,2.87E2,6.5E1,7.8E1,2.09E2,5.1E1,1.4E1,4E1,3.8E1,9E1,1.19E2,2E1,3.1E1,1.8E1,2.2E1,9E0,2.9E1,1.6E1,7.4E1,8.7E1,3.2E1,1.2E1,1E1,1.2E1,1.7E1,4E1,3.4E1,1.7E1,7E1,1.7E1,2.3E1,2.5E1,9E0,1.3E1,1E1,1.1E1,1.4E1],"tree_param":{"num_deleted":"0","num_feature":"84","num_nodes":"37","size_leaf_vector":"1"}},{"base_weights":[1.2214813E0,5.2716684E-1,4.2024126E0,-9.7133416E-1,1.1199024E0,3.492184E0,2.5980815E-1,-1.892591E0,-3.2005328E-1,7.0834965E-1,1.6183907E0,3.7098815E0,9.44608E-2,-5.028219E-2,-8.966085E-2,-2.674661E-2,-2.010791E-1,3.715086E-1,9.5551705E-1,1.3228041E0,1.910924E0,1.2225844E-1,1.6989832E-1,-2.150921E-2,-1.9133702E-2,9.1209926E-2,5.584461E-1,1.0627409E0,1.2434878E-2,1.4368497E0,2.9172823E-2,8.469415E-2,5.5723205E-2,9.081494E-3,-8.624963E-3,-7.3269233E-3,1.196466E-2,3.7910762E-1,3.485212E-2,5.3598743E-2,9.6304363E-1,6.290594E-2,3.9835937E-2,2.2220168E-2,7.453621E-3,4.5067217E-2,7.707343E-1,2.2593834E-2,3.6097232E-2],"categories":[],"categories_nodes":[],"categories_segments":[],"categories_sizes":[],"default_left":[0,0,0,0,0,0,0,0,0,0,0,0,0,0,0,0,0,0,0,0,0,0,0,0,0,0,0,0,0,0,0,0,0,0,0,0,0,0,0,0,0,0,0,0,0,0,0,0,0],"id":14,"left_children":[1,3,5,7,9,11,-1,13,15,17,19,21,-1,-1,-1,-1,23,25,27,29,31,-1,-1,-1,33,35,37,39,-1,41,-1,-1,-1,-1,-1,-1,-1,43,-1,-1,45,-1,-1,-1,-1,-1,47,-1,-1],"loss_changes":[7.5529626E2,2.6577585E2,8.246741E1,5.0394012E1,4.275659E1,5.42157E0,0E0,4.1792603E0,1.8851347E0,9.552494E0,5.773239E0,1.5439453E0,0E0,0E0,0E0,0E0,2.2857301E0,2.673777E0,4.433216E0,2.5329895E0,1.1215668E0,0E0,0E0,0E0,1.243029E0,1.243406E0,1.2989187E0,1.5509796E-1,0E0,4.132843E-1,0E0,0E0,0E0,0E0,0E0,0E0,0E0,5.7624245E-1,0E0,0E0,3.3110046E-1,0E0,0E0,0E0,0E0,0E0,4.4898987E-2,0E0,0E0],"parents":[2147483647,0,0,1,1,2,2,3,3,4,4,5,5,7,7,8,8,9,9,10,10,11,11,16,16,17,17,18,18,19,19,20,20,24,24,25,25,26,26,27,27,29,29,37,37,40,40,46,46],"right_children":[2,4,6,8,10,12,-1,14,16,18,20,22,-1,-1,-1,-1,24,26,28,30,32,-1,-1,-1,34,36,38,40,-1,42,-1,-1,-1,-1,-1,-1,-1,44,-1,-1,46,-1,-1,-1,-1,-1,48,-1,-1],"split_conditions":[4.4E0,2E-1,1E1,-1.5E0,2.425E0,6.576227E0,2.5980815E-1,-3.75E0,-7.5E-1,1.3E0,3.05E0,6.275E0,9.44608E-2,-5.028219E-2,-8.966085E-2,-2.674661E-2,3.3081589E0,-3.6666666E2,4.931026E0,6.535948E0,4.0707965E0,1.2225844E-1,1.6989832E-1,-2.150921E-2,3.125E0,-2.7E2,3.3214498E0,-2.4492937E-16,1.2434878E-2,8.9780456E-1,2.9172823E-2,8.469415E-2,5.5723205E-2,9.081494E-3,-8.624963E-3,-7.3269233E-3,1.196466E-2,-6.4E2,3.485212E-2,5.3598743E-2,1.81E0,6.290594E-2,3.9835937E-2,2.2220168E-2,7.453621E-3,4.5067217E-2,-1.0116832E-1,2.2593834E-2,3.6097232E-2],"split_indices":[74,74,74,74,74,30,0,82,74,74,74,74,0,0,0,0,50,55,50,52,49,0,0,0,30,60,42,69,0,68,0,0,0,0,0,0,0,57,0,0,75,0,0,0,0,0,68,0,0],"split_type":[0,0,0,0,0,0,0,0,0,0,0,0,0,0,0,0,0,0,0,0,0,0,0,0,0,0,0,0,0,0,0,0,0,0,0,0,0,0,0,0,0,0,0,0,0,0,0,0,0],"sum_hessian":[3.65E2,2.97E2,6.8E1,8.4E1,2.13E2,5.3E1,1.5E1,3.4E1,5E1,1.18E2,9.5E1,4.3E1,1E1,1.2E1,2.2E1,1.2E1,3.8E1,5.1E1,6.7E1,5E1,4.5E1,1.9E1,2.4E1,1.3E1,2.5E1,2.1E1,3E1,5.7E1,1E1,4.1E1,9E0,3.3E1,1.2E1,1.1E1,1.4E1,9E0,1.2E1,2E1,1E1,1.3E1,4.4E1,3.2E1,9E0,1E1,1E1,2.3E1,2.1E1,9E0,1.2E1],"tree_param":{"num_deleted":"0","num_feature":"84","num_nodes":"49","size_leaf_vector":"1"}},{"base_weights":[1.0753986E0,3.1401932E-1,3.7172666E0,-1.1180882E0,9.4725245E-1,4.985598E0,2.7678454E0,-1.8505518E0,-4.096091E-1,3.9499134E-1,1.2699394E0,2.4758366E-1,1.5467644E-1,3.1303291E0,8.625792E-2,-4.7022875E-2,-8.861811E-2,-1.6715817E-1,-3.8315523E-2,-5.166155E-3,5.0997365E-1,9.5142007E-1,1.4568592E0,1.0771633E-1,1.567635E-1,4.3074363E-3,-1.5773505E-2,3.7733298E-2,3.99072E-1,1.3080382E-2,1.0891751E0,4.3327764E-2,6.490835E-2,6.0912794E-1,1.8982528E-1,3.0289676E-2,4.7956474E-2,1.614309E-2,3.3943515E-2,-1.1306979E-3,2.2157563E-2],"categories":[],"categories_nodes":[],"categories_segments":[],"categories_sizes":[],"default_left":[0,0,0,0,0,0,0,0,0,0,0,0,0,0,0,0,0,0,0,0,0,0,0,0,0,0,0,0,0,0,0,0,0,0,0,0,0,0,0,0,0],"id":15,"left_children":[1,3,5,7,9,11,13,15,17,19,21,-1,-1,23,-1,-1,-1,25,-1,-1,27,29,31,-1,-1,-1,-1,-1,33,-1,35,-1,-1,37,39,-1,-1,-1,-1,-1,-1],"loss_changes":[7.1893665E2,2.5407246E2,8.253516E1,4.3870422E1,3.4070633E1,1.9370422E1,4.967224E0,6.708206E0,5.5707717E0,4.4373407E0,5.8775177E0,0E0,0E0,6.8115234E-2,0E0,0E0,0E0,1.9355879E0,0E0,0E0,2.3632383E0,3.8340034E0,2.1159058E0,0E0,0E0,0E0,0E0,0E0,2.038094E0,0E0,2.3589706E-1,0E0,0E0,8.049164E-1,1.9966826E0,0E0,0E0,0E0,0E0,0E0,0E0],"parents":[2147483647,0,0,1,1,2,2,3,3,4,4,5,5,6,6,7,7,8,8,9,9,10,10,13,13,17,17,20,20,21,21,22,22,28,28,30,30,33,33,34,34],"right_children":[2,4,6,8,10,12,14,16,18,20,22,-1,-1,24,-1,-1,-1,26,-1,-1,28,30,32,-1,-1,-1,-1,-1,34,-1,36,-1,-1,38,40,-1,-1,-1,-1,-1,-1],"split_conditions":[3.9E0,1E-1,2.107502E0,-1.5E0,1.75E0,5.7124257E0,6.1688223E0,-3.75E0,3.5636857E0,-3.388889E2,2.425E0,2.4758366E-1,1.5467644E-1,2.2E1,8.625792E-2,-4.7022875E-2,-8.861811E-2,7.596667E2,-3.8315523E-2,-5.166155E-3,-1.08E3,1E0,1.6666666E0,1.0771633E-1,1.567635E-1,4.3074363E-3,-1.5773505E-2,3.7733298E-2,3.5166666E2,1.3080382E-2,-1.0142857E3,4.3327764E-2,6.490835E-2,9.236111E2,3.969017E0,3.0289676E-2,4.7956474E-2,1.614309E-2,3.3943515E-2,-1.1306979E-3,2.2157563E-2],"split_indices":[74,74,42,74,74,50,33,83,45,60,74,0,0,72,0,0,0,55,0,0,57,73,5,0,0,0,0,0,58,0,55,0,0,56,17,0,0,0,0,0,0],"split_type":[0,0,0,0,0,0,0,0,0,0,0,0,0,0,0,0,0,0,0,0,0,0,0,0,0,0,0,0,0,0,0,0,0,0,0,0,0,0,0,0,0],"sum_hessian":[3.57E2,2.78E2,7.9E1,8.5E1,1.93E2,3.2E1,4.7E1,4.1E1,4.4E1,7.2E1,1.21E2,1.5E1,1.7E1,2.8E1,1.9E1,1.4E1,2.7E1,3.1E1,1.3E1,1.3E1,5.9E1,4.7E1,7.4E1,1.9E1,9E0,1.4E1,1.7E1,1.1E1,4.8E1,9E0,3.8E1,2E1,5.4E1,2.3E1,2.5E1,9E0,2.9E1,1.3E1,1E1,1.6E1,9E0],"tree_param":{"num_deleted":"0","num_feature":"84","num_nodes":"41","size_leaf_vector":"1"}},{"base_weights":[1.0823375E0,3.1380346E-1,3.3522768E0,-1.7382057E0,7.316019E-1,2.2941947E0,4.4294906E0,-8.513818E-2,-4.341696E-2,3.810095E-2,1.1100392E0,2.4378922E0,6.707578E-2,1.5829746E-1,2.4970137E-1,-1.4272335E-1,4.0484682E-1,8.151191E-1,1.4180335E0,1.07723534E-1,6.664837E-2,-3.67796E-1,2.0349212E-2,2.6890263E-2,-1.7509616E-3,9.327586E-1,1.3296003E-2,6.519201E-2,1.1479497E0,-6.2860213E-3,-2.4900638E-2,-1.183581E-2,1.6113894E-1,1.0597839E0,7.0634526E-1,3.073691E-2,5.211917E-2,-1.9367061E-3,1.6879508E-2,3.128709E-2,1.2543536E0,1.8378843E-2,3.5494532E-2,3.7511308E-2,5.9900224E-2],"categories":[],"categories_nodes":[],"categories_segments":[],"categories_sizes":[],"default_left":[0,0,0,0,0,0,0,0,0,0,0,0,0,0,0,0,0,0,0,0,0,0,0,0,0,0,0,0,0,0,0,0,0,0,0,0,0,0,0,0,0,0,0,0,0],"id":16,"left_children":[1,3,5,7,9,11,13,-1,-1,15,17,19,-1,-1,-1,21,23,25,27,-1,-1,29,31,-1,-1,33,-1,-1,35,-1,-1,-1,37,39,41,-1,-1,-1,-1,-1,43,-1,-1,-1,-1],"loss_changes":[6.548898E2,2.4303767E2,9.8117065E1,8.832214E0,6.1632675E1,7.4072266E-1,1.9923035E1,0E0,0E0,5.6283727E0,1.2650864E1,1.7327881E0,0E0,0E0,0E0,2.0995655E0,3.1735792E0,4.316757E0,1.5661774E0,0E0,0E0,1.1398952E0,1.5257859E0,0E0,0E0,1.092083E0,0E0,0E0,6.1777496E-1,0E0,0E0,0E0,1.2724838E0,1.2941093E0,6.813507E-1,0E0,0E0,0E0,0E0,0E0,2.0637894E-1,0E0,0E0,0E0,0E0],"parents":[2147483647,0,0,1,1,2,2,3,3,4,4,5,5,6,6,9,9,10,10,11,11,15,15,16,16,17,17,18,18,21,21,22,22,25,25,28,28,32,32,33,33,34,34,40,40],"right_children":[2,4,6,8,10,12,14,-1,-1,16,18,20,-1,-1,-1,22,24,26,28,-1,-1,30,32,-1,-1,34,-1,-1,36,-1,-1,-1,38,40,42,-1,-1,-1,-1,-1,44,-1,-1,-1,-1],"split_conditions":[3.75E0,-1E0,6.25E0,-2.25E0,1.25E0,2.699187E0,1.075E1,-8.513818E-2,-4.341696E-2,3.4309895E0,2.425E0,5.193721E0,6.707578E-2,1.5829746E-1,2.4970137E-1,-1E-1,2.9532163E0,8E0,1.0583334E3,1.07723534E-1,6.664837E-2,1.2246469E-16,2.5496144E0,2.6890263E-2,-1.7509616E-3,1.2246469E-16,1.3296003E-2,6.519201E-2,4.4061303E0,-6.2860213E-3,-2.4900638E-2,-1.183581E-2,3.653733E0,2.9639175E0,5.04843E0,3.073691E-2,5.211917E-2,-1.9367061E-3,1.6879508E-2,3.128709E-2,-2.325E2,1.8378843E-2,3.5494532E-2,3.7511308E-2,5.9900224E-2],"split_indices":[74,74,74,74,74,45,74,0,0,42,74,32,0,0,0,74,5,71,58,0,0,69,17,0,0,69,0,0,38,0,0,0,35,42,38,0,0,0,0,0,57,0,0,0,0],"split_type":[0,0,0,0,0,0,0,0,0,0,0,0,0,0,0,0,0,0,0,0,0,0,0,0,0,0,0,0,0,0,0,0,0,0,0,0,0,0,0,0,0,0,0,0,0],"sum_hessian":[3.75E2,2.81E2,9.4E1,4.7E1,2.34E2,4.9E1,4.5E1,3E1,1.7E1,8.3E1,1.51E2,3.8E1,1.1E1,3.6E1,9E0,5.6E1,2.7E1,7.9E1,7.2E1,2.9E1,9E0,2.3E1,3.3E1,1.7E1,1E1,6.3E1,1.6E1,4.1E1,3.1E1,1.3E1,1E1,1E1,2.3E1,3.8E1,2.5E1,9E0,2.2E1,1.3E1,1E1,1.7E1,2.1E1,1.1E1,1.4E1,1E1,1.1E1],"tree_param":{"num_deleted":"0","num_feature":"84","num_nodes":"45","size_leaf_vector":"1"}},{"base_weights":[1.0679495E0,2.9821986E-1,3.2248623E0,-1.6000361E0,7.048704E-1,2.2070768E0,4.239075E0,-8.3845824E-2,-1.1617153E0,1.7022417E-1,1.1762499E0,2.5061643E0,6.9655254E-2,3.6105235E0,2.3179746E-1,-6.205327E-2,-3.3836223E-2,-1.9002627E-1,4.208655E-1,1.0181895E0,1.4824744E0,7.4953385E-2,1.1712156E-1,1.6473942E-1,1.13657705E-1,-4.8145507E-2,-2.5591787E-2,1.18902445E-1,5.762056E-1,5.3670753E-2,9.175065E-1,6.676419E-2,4.175662E-2,1.1948779E-2,-1.9563451E-1,-6.7888256E-3,1.2858091E-2,6.811215E-1,7.066867E-3,9.824284E-1,1.894994E-2,-1.087178E-2,-2.6576896E-3,4.7830188E-1,3.6597352E-2,7.933281E-1,4.4697598E-2,1.1683193E-2,2.5576526E-2,2.193898E-2,3.8521864E-2],"categories":[],"categories_nodes":[],"categories_segments":[],"categories_sizes":[],"default_left":[0,0,0,0,0,0,0,0,0,0,0,0,0,0,0,0,0,0,0,0,0,0,0,0,0,0,0,0,0,0,0,0,0,0,0,0,0,0,0,0,0,0,0,0,0,0,0,0,0,0,0],"id":17,"left_children":[1,3,5,7,9,11,13,-1,15,17,19,21,-1,23,-1,-1,-1,25,27,29,31,-1,-1,-1,-1,33,-1,35,37,-1,39,-1,-1,-1,41,-1,-1,43,-1,45,-1,-1,-1,47,-1,49,-1,-1,-1,-1,-1],"loss_changes":[6.1830774E2,2.1417963E2,9.180463E1,7.181511E0,5.726062E1,3.493576E0,2.2264282E1,0E0,1.9464874E0,9.83169E0,4.3471985E0,1.9064026E0,0E0,1.1608582E0,0E0,0E0,0E0,2.7419243E0,2.9335337E0,1.2295074E0,9.8223877E-1,0E0,0E0,0E0,0E0,1.809961E0,0E0,1.3259361E0,1.6621227E0,0E0,1.4673119E0,0E0,0E0,0E0,2.1019965E-1,0E0,0E0,9.8861694E-1,0E0,2.7622986E-1,0E0,0E0,0E0,3.5680246E-1,0E0,4.0350914E-1,0E0,0E0,0E0,0E0,0E0],"parents":[2147483647,0,0,1,1,2,2,3,3,4,4,5,5,6,6,8,8,9,9,10,10,11,11,13,13,17,17,18,18,19,19,20,20,25,25,27,27,28,28,30,30,34,34,37,37,39,39,43,43,45,45],"right_children":[2,4,6,8,10,12,14,-1,16,18,20,22,-1,24,-1,-1,-1,26,28,30,32,-1,-1,-1,-1,34,-1,36,38,-1,40,-1,-1,-1,42,-1,-1,44,-1,46,-1,-1,-1,48,-1,50,-1,-1,-1,-1,-1],"split_conditions":[3.75E0,-1E0,6.275E0,-3E0,1.64E0,6.1810856E0,1E1,-8.3845824E-2,4.2724867E0,2E-1,2.8333333E0,4.2E0,6.9655254E-2,4.4194443E3,2.3179746E-1,-6.205327E-2,-3.3836223E-2,3.8530467E0,5.5E-1,-2.4492937E-16,2.6923077E0,7.4953385E-2,1.1712156E-1,1.6473942E-1,1.13657705E-1,1.6666666E0,-2.5591787E-2,-1.6E-1,3.1E0,5.3670753E-2,3E0,6.676419E-2,4.175662E-2,1.1948779E-2,-1.75E-1,-6.7888256E-3,1.2858091E-2,-4.2666666E2,7.066867E-3,1.5E0,1.894994E-2,-1.087178E-2,-2.6576896E-3,-3.4583334E2,3.6597352E-2,-1.0142857E3,4.4697598E-2,1.1683193E-2,2.5576526E-2,2.193898E-2,3.8521864E-2],"split_indices":[74,74,74,74,74,33,74,0,20,74,74,74,0,55,0,0,0,45,83,69,17,0,0,0,0,30,0,78,83,0,77,0,0,0,74,0,0,56,0,81,0,0,0,55,0,55,0,0,0,0,0],"split_type":[0,0,0,0,0,0,0,0,0,0,0,0,0,0,0,0,0,0,0,0,0,0,0,0,0,0,0,0,0,0,0,0,0,0,0,0,0,0,0,0,0,0,0,0,0,0,0,0,0,0,0],"sum_hessian":[3.72E2,2.75E2,9.7E1,4.8E1,2.27E2,5E1,4.7E1,2.2E1,2.6E1,1.07E2,1.2E2,2.9E1,2.1E1,3.5E1,1.2E1,1.1E1,1.5E1,4.4E1,6.3E1,8.2E1,3.8E1,1.2E1,1.7E1,2.1E1,1.4E1,3.4E1,1E1,2.2E1,4.1E1,1.8E1,6.4E1,2.7E1,1.1E1,1E1,2.4E1,9E0,1.3E1,3.2E1,9E0,5.5E1,9E0,1.5E1,9E0,1.8E1,1.4E1,2.3E1,3.2E1,9E0,9E0,1E1,1.3E1],"tree_param":{"num_deleted":"0","num_feature":"84","num_nodes":"51","size_leaf_vector":"1"}},{"base_weights":[9.431427E-1,3.150868E-1,3.3590503E0,-1.5262294E0,7.050536E-1,2.5336142E0,4.5127506E0,-8.3284914E-2,-1.1049411E0,1.4946562E-1,1.1216675E0,1.12703115E-1,6.5553114E-2,1.2581138E-1,2.0440808E-1,-6.2253002E-2,-3.2212716E-2,3.956466E-2,3.7544888E-2,1.1793143E0,1.1136497E-2,-2.3344016E-1,2.2746682E-1,1.0027328E0,1.493635E0,-4.9298864E-2,-2.1012647E-2,-8.465766E-3,3.7343886E-1,7.574919E-1,1.1099126E0,6.690262E-2,3.529258E-2,7.75322E-3,-8.402819E-3,9.391271E-3,-7.8114485E-3,5.6224024E-1,1.0333136E-3,1.859852E-2,3.7637535E-2,9.1603404E-1,1.2141237E0,1.31266145E-2,3.3649474E-2,2.5050048E-2,4.33918E-2,5.574207E-2,3.727893E-2],"categories":[],"categories_nodes":[],"categories_segments":[],"categories_sizes":[],"default_left":[0,0,0,0,0,0,0,0,0,0,0,0,0,0,0,0,0,0,0,0,0,0,0,0,0,0,0,0,0,0,0,0,0,0,0,0,0,0,0,0,0,0,0,0,0,0,0,0,0],"id":18,"left_children":[1,3,5,7,9,11,13,-1,15,17,19,-1,-1,-1,-1,-1,-1,21,-1,23,-1,25,27,29,31,33,-1,35,37,39,41,-1,-1,-1,-1,-1,-1,43,-1,-1,-1,45,47,-1,-1,-1,-1,-1,-1],"loss_changes":[5.512479E2,2.0931125E2,5.998938E1,8.608131E0,5.5384117E1,4.860138E0,5.1862183E0,0E0,2.7668228E0,8.72193E0,6.39299E0,0E0,0E0,0E0,0E0,0E0,0E0,4.7725334E0,0E0,5.6067047E0,0E0,1.9274437E0,1.8973377E0,1.3934631E0,2.4417877E0,9.29318E-1,0E0,9.949748E-1,2.2212439E0,9.9791145E-1,3.9466858E-2,0E0,0E0,0E0,0E0,0E0,0E0,1.1138268E0,0E0,0E0,0E0,3.9522934E-1,2.714424E-1,0E0,0E0,0E0,0E0,0E0,0E0],"parents":[2147483647,0,0,1,1,2,2,3,3,4,4,5,5,6,6,8,8,9,9,10,10,17,17,19,19,21,21,22,22,23,23,24,24,25,25,27,27,28,28,29,29,30,30,37,37,41,41,42,42],"right_children":[2,4,6,8,10,12,14,-1,16,18,20,-1,-1,-1,-1,-1,-1,22,-1,24,-1,26,28,30,32,34,-1,36,38,40,42,-1,-1,-1,-1,-1,-1,44,-1,-1,-1,46,48,-1,-1,-1,-1,-1,-1],"split_conditions":[4.26E0,-1E0,7.15E0,-3.5E0,1.65E0,5.0677505E0,2.938247E0,-8.3284914E-2,4.2724867E0,2.425E0,5.6402736E0,1.12703115E-1,6.5553114E-2,1.2581138E-1,2.0440808E-1,-6.2253002E-2,-3.2212716E-2,2E-1,3.7544888E-2,2.8333333E0,1.1136497E-2,2.7547495E0,-3.6666666E2,2.8243022E0,4.1E0,3.125E0,-2.1012647E-2,-7.533333E2,1.2246469E-16,1.3477778E3,-1.8E2,6.690262E-2,3.529258E-2,7.75322E-3,-8.402819E-3,9.391271E-3,-7.8114485E-3,2.7001634E0,1.0333136E-3,1.859852E-2,3.7637535E-2,6.4529915E0,6.06383E0,1.31266145E-2,3.3649474E-2,2.5050048E-2,4.33918E-2,5.574207E-2,3.727893E-2],"split_indices":[74,74,74,74,74,12,30,0,20,80,50,0,0,0,0,0,0,74,0,74,0,35,55,42,83,30,0,59,69,58,57,0,0,0,0,0,0,42,0,0,0,16,42,0,0,0,0,0,0],"split_type":[0,0,0,0,0,0,0,0,0,0,0,0,0,0,0,0,0,0,0,0,0,0,0,0,0,0,0,0,0,0,0,0,0,0,0,0,0,0,0,0,0,0,0,0,0,0,0,0,0],"sum_hessian":[3.63E2,2.89E2,7.4E1,5E1,2.39E2,4.5E1,2.9E1,2.1E1,2.9E1,1.03E2,1.36E2,3.5E1,1E1,9E0,2E1,1.1E1,1.8E1,9.1E1,1.2E1,1.27E2,9E0,3.7E1,5.4E1,8.4E1,4.3E1,2.3E1,1.4E1,2.1E1,3.3E1,2.8E1,5.6E1,3.4E1,9E0,9E0,1.4E1,9E0,1.2E1,2.1E1,1.2E1,1.1E1,1.7E1,2.3E1,3.3E1,1.2E1,9E0,9E0,1.4E1,2E1,1.3E1],"tree_param":{"num_deleted":"0","num_feature":"84","num_nodes":"49","size_leaf_vector":"1"}},{"base_weights":[9.409479E-1,3.0276003E-1,3.059467E0,-8.546605E-1,8.2837695E-1,2.1162863E0,4.1207E0,-1.4888905E0,-2.2962609E-1,3.5105762E-1,1.0894067E0,5.9210733E-2,2.2628713E0,1.3217421E-1,1.9242449E-1,-3.1394858E-2,-1.7441235E0,-2.5577834E-2,-9.916655E-2,1.6205257E-1,5.4085535E-1,9.516547E-1,5.9507392E-2,1.0161335E-1,6.345919E-2,-8.383537E-2,-4.7993E-2,4.469565E-3,-2.8021386E-1,3.1389993E-2,1.7251238E-2,1.0009816E-2,6.72147E-1,5.49259E-1,1.0558027E0,-3.8877332E-3,-1.7940927E-2,1.0419862E-2,-9.475278E-3,1.6180847E-2,3.849851E-2,3.2160585E-3,3.6729287E-2,1.1325952E0,2.692726E-2,3.5669353E-2,4.9945228E-2],"categories":[],"categories_nodes":[],"categories_segments":[],"categories_sizes":[],"default_left":[0,0,0,0,0,0,0,0,0,0,0,0,0,0,0,0,0,0,0,0,0,0,0,0,0,0,0,0,0,0,0,0,0,0,0,0,0,0,0,0,0,0,0,0,0,0,0],"id":19,"left_children":[1,3,5,7,9,11,13,15,17,19,21,-1,23,-1,-1,-1,25,-1,27,29,31,33,-1,-1,-1,-1,-1,-1,35,37,-1,-1,39,41,43,-1,-1,-1,-1,-1,-1,-1,-1,45,-1,-1,-1],"loss_changes":[4.844464E2,1.6922365E2,7.435693E1,3.414627E1,2.341513E1,1.2641144E0,4.385681E0,6.6011887E0,2.2524943E0,2.3875723E0,4.7521973E0,0E0,1.7117004E0,0E0,0E0,0E0,2.952011E0,0E0,1.3497143E0,1.203723E0,1.1604052E0,3.2756958E0,0E0,0E0,0E0,0E0,0E0,0E0,5.128312E-1,1.5205184E0,0E0,0E0,1.332489E0,3.3564043E0,1.462471E0,0E0,0E0,0E0,0E0,0E0,0E0,0E0,0E0,2.6620483E-1,0E0,0E0,0E0],"parents":[2147483647,0,0,1,1,2,2,3,3,4,4,5,5,6,6,7,7,8,8,9,9,10,10,12,12,16,16,18,18,19,19,20,20,21,21,28,28,29,29,32,32,33,33,34,34,43,43],"right_children":[2,4,6,8,10,12,14,16,18,20,22,-1,24,-1,-1,-1,26,-1,28,30,32,34,-1,-1,-1,-1,-1,-1,36,38,-1,-1,40,42,44,-1,-1,-1,-1,-1,-1,-1,-1,46,-1,-1,-1],"split_conditions":[3.85E0,1E-1,6.3E0,-1.75E0,1.65E0,3.52649E0,7.5E0,-3.75E0,1E1,9E-1,3.05E0,5.9210733E-2,7.835311E0,1.3217421E-1,1.9242449E-1,-3.1394858E-2,-3E0,-2.5577834E-2,1.1E1,5.826558E0,3.0048409E0,1E0,5.9507392E-2,1.0161335E-1,6.345919E-2,-8.383537E-2,-4.7993E-2,4.469565E-3,-1.4166667E2,4.574373E0,1.7251238E-2,1.0009816E-2,3.3115017E0,5E0,2.77E0,-3.8877332E-3,-1.7940927E-2,1.0419862E-2,-9.475278E-3,1.6180847E-2,3.849851E-2,3.2160585E-3,3.6729287E-2,2.05E0,2.692726E-2,3.5669353E-2,4.9945228E-2],"split_indices":[74,74,74,75,74,32,74,82,72,74,74,0,30,0,0,0,74,0,71,50,32,73,0,0,0,0,0,0,58,20,0,0,50,16,83,0,0,0,0,0,0,0,0,74,0,0,0],"split_type":[0,0,0,0,0,0,0,0,0,0,0,0,0,0,0,0,0,0,0,0,0,0,0,0,0,0,0,0,0,0,0,0,0,0,0,0,0,0,0,0,0,0,0,0,0,0,0],"sum_hessian":[3.58E2,2.76E2,8.2E1,8.6E1,1.9E2,4.5E1,3.7E1,4.2E1,4.4E1,6.8E1,1.22E2,1E1,3.5E1,1.7E1,2E1,1.2E1,3E1,1E1,3.4E1,3.5E1,3.3E1,9.1E1,3.1E1,2.5E1,1E1,1.8E1,1.2E1,1.6E1,1.8E1,2.4E1,1.1E1,1.1E1,2.2E1,2E1,7.1E1,9E0,9E0,1.3E1,1.1E1,1.2E1,1E1,9E0,1.1E1,5.8E1,1.3E1,1.7E1,4.1E1],"tree_param":{"num_deleted":"0","num_feature":"84","num_nodes":"47","size_leaf_vector":"1"}},{"base_weights":[8.855962E-1,2.0948547E-1,2.9576464E0,-1.4404653E0,5.7109135E-1,1.9436045E0,3.927515E0,-1.8073287E0,-1.0464197E0,1.1441344E-1,9.91351E-1,8.652881E-2,4.709135E-2,3.2388477E0,2.0676364E-1,-5.0111976E-2,-8.515278E-2,-3.2935772E-2,-5.5557523E-2,-8.468196E-3,6.904626E-1,1.0505898E0,1.0592771E-2,9.269322E-2,1.4820787E-1,2.5582734E-2,-1.1376585E-1,1.3600672E-2,4.0186364E-2,7.85164E-1,1.1634572E0,-1.3895135E-2,-2.7137773E-2,1.6081015E-2,9.0609777E-1,1.2377719E0,3.253713E-2,-1.6249959E-1,1.639197E-1,4.6324294E-2,2.7333917E-2,4.3163016E-2,6.241965E-2,1.2033175E-3,-2.2521345E-1,-4.2049033E-3,2.775953E-1,-1.3693234E-2,-1.0969867E-3,3.9958954E-3,1.9844433E-2],"categories":[],"categories_nodes":[],"categories_segments":[],"categories_sizes":[],"default_left":[0,0,0,0,0,0,0,0,0,0,0,0,0,0,0,0,0,0,0,0,0,0,0,0,0,0,0,0,0,0,0,0,0,0,0,0,0,0,0,0,0,0,0,0,0,0,0,0,0,0,0],"id":20,"left_children":[1,3,5,7,9,11,13,15,17,19,21,-1,-1,23,-1,-1,-1,-1,-1,25,27,29,-1,-1,-1,-1,31,-1,-1,33,35,37,-1,-1,39,41,-1,43,45,-1,-1,-1,-1,-1,47,-1,49,-1,-1,-1,-1],"loss_changes":[5.0091528E2,1.6250986E2,7.891339E1,5.1922684E0,4.268547E1,3.545456E0,1.746759E1,1.2468185E0,8.623314E-1,7.6507196E0,4.7654724E0,0E0,0E0,2.8591614E0,0E0,0E0,0E0,0E0,0E0,6.064461E0,1.649415E0,2.2919846E0,0E0,0E0,0E0,0E0,4.2606974E0,0E0,0E0,1.3078175E0,1.0242462E0,1.7970499E0,0E0,0E0,6.396351E-1,1.5045624E0,0E0,4.517783E-1,9.6752435E-1,0E0,0E0,0E0,0E0,0E0,5.954666E-1,0E0,7.708429E-1,0E0,0E0,0E0,0E0],"parents":[2147483647,0,0,1,1,2,2,3,3,4,4,5,5,6,6,7,7,8,8,9,9,10,10,13,13,19,19,20,20,21,21,26,26,29,29,30,30,31,31,34,34,35,35,37,37,38,38,44,44,46,46],"right_children":[2,4,6,8,10,12,14,16,18,20,22,-1,-1,24,-1,-1,-1,-1,-1,26,28,30,-1,-1,-1,-1,32,-1,-1,34,36,38,-1,-1,40,42,-1,44,46,-1,-1,-1,-1,-1,48,-1,50,-1,-1,-1,-1],"split_conditions":[3.75E0,-7.5E-1,6.275E0,-3E0,1.75E0,4.1695857E0,9.5E0,2.9320989E0,5.075E0,2.425E0,8E0,8.652881E-2,4.709135E-2,4.1261864E0,2.0676364E-1,-5.0111976E-2,-8.515278E-2,-3.2935772E-2,-5.5557523E-2,-1.5477778E3,-1.0338889E3,1.81E0,1.0592771E-2,9.269322E-2,1.4820787E-1,2.5582734E-2,4.4683027E0,1.3600672E-2,4.0186364E-2,3.448845E0,8.9780456E-1,3.5E-1,-2.7137773E-2,1.6081015E-2,2.4170983E0,2.2222223E0,3.253713E-2,2.3622673E0,0E0,4.6324294E-2,2.7333917E-2,4.3163016E-2,6.241965E-2,1.2033175E-3,-1E-1,-4.2049033E-3,4.3E2,-1.3693234E-2,-1.0969867E-3,3.9958954E-3,1.9844433E-2],"split_indices":[74,74,74,74,74,52,74,28,29,80,71,0,0,33,0,0,0,0,0,57,56,79,0,0,0,0,45,0,0,33,68,74,0,0,17,35,0,17,79,0,0,0,0,0,74,0,56,0,0,0,0],"split_type":[0,0,0,0,0,0,0,0,0,0,0,0,0,0,0,0,0,0,0,0,0,0,0,0,0,0,0,0,0,0,0,0,0,0,0,0,0,0,0,0,0,0,0,0,0,0,0,0,0,0,0],"sum_hessian":[3.57E2,2.7E2,8.7E1,4.8E1,2.22E2,4.4E1,4.3E1,2.3E1,2.5E1,1.07E2,1.15E2,3.5E1,9E0,2.9E1,1.4E1,9E0,1.4E1,1.6E1,9E0,8.9E1,1.8E1,1.06E2,9E0,1E1,1.9E1,1.2E1,7.7E1,9E0,9E0,3.4E1,7.2E1,6.6E1,1.1E1,9E0,2.5E1,5.8E1,1.4E1,3.6E1,3E1,1.1E1,1.4E1,3.8E1,2E1,9E0,2.7E1,9E0,2.1E1,1.7E1,1E1,1.2E1,9E0],"tree_param":{"num_deleted":"0","num_feature":"84","num_nodes":"51","size_leaf_vector":"1"}},{"base_weights":[8.7526065E-1,3.0028152E-1,3.0476775E0,-8.365344E-1,7.763888E-1,2.5753973E0,1.8891487E-1,-1.3728883E0,-2.7926704E-1,3.3983502E-1,1.0043252E0,3.0824785E0,1.9969946E0,-3.5773735E-2,-1.5814856E0,2.7216645E-3,-3.8175815E-1,-4.42895E-3,4.313707E-1,1.104437E0,4.9451876E-1,1.4221823E-1,9.341464E-2,6.516062E-2,1.00127965E-1,-7.3238865E-2,-4.3240502E-2,-2.7391283E-2,-2.342592E-1,1.646889E-1,6.04168E-1,9.362708E-1,1.4276855E0,-5.069894E-3,3.8211912E-2,-1.56722E-2,-4.198448E-3,1.4808008E-2,5.158251E-4,4.4335914E-1,3.2420345E-2,2.5054617E-2,9.997144E-1,6.4866E-2,4.205056E-2,2.4029756E-2,9.92272E-3,2.7866479E-2,1.0614712E0,3.427593E-2,4.8239008E-2],"categories":[],"categories_nodes":[],"categories_segments":[],"categories_sizes":[],"default_left":[0,0,0,0,0,0,0,0,0,0,0,0,0,0,0,0,0,0,0,0,0,0,0,0,0,0,0,0,0,0,0,0,0,0,0,0,0,0,0,0,0,0,0,0,0,0,0,0,0,0,0],"id":21,"left_children":[1,3,5,7,9,11,-1,13,15,17,19,21,23,-1,25,-1,27,-1,29,31,33,-1,-1,-1,-1,-1,-1,-1,35,37,39,41,43,-1,-1,-1,-1,-1,-1,45,-1,-1,47,-1,-1,-1,-1,-1,49,-1,-1],"loss_changes":[4.1753143E2,1.44621E2,3.9706482E1,2.3229115E1,1.8365913E1,1.0268921E1,0E0,2.7950363E0,1.44238E0,2.7522678E0,5.731468E0,7.930298E-1,1.3820343E0,0E0,1.029686E0,0E0,1.1526937E0,0E0,2.4350042E0,4.2079697E0,6.0648947E0,0E0,0E0,0E0,0E0,0E0,0E0,0E0,3.9015675E-1,6.8284434E-1,6.394987E-1,8.332443E-1,4.261093E-1,0E0,0E0,0E0,0E0,0E0,0E0,4.3291497E-1,0E0,0E0,4.0514374E-1,0E0,0E0,0E0,0E0,0E0,2.1008301E-1,0E0,0E0],"parents":[2147483647,0,0,1,1,2,2,3,3,4,4,5,5,7,7,8,8,9,9,10,10,11,11,12,12,14,14,16,16,18,18,19,19,20,20,28,28,29,29,30,30,31,31,32,32,39,39,42,42,48,48],"right_children":[2,4,6,8,10,12,-1,14,16,18,20,22,24,-1,26,-1,28,-1,30,32,34,-1,-1,-1,-1,-1,-1,-1,36,38,40,42,44,-1,-1,-1,-1,-1,-1,46,-1,-1,48,-1,-1,-1,-1,-1,50,-1,-1],"split_conditions":[4.26E0,-1E-1,1E1,-1.5E0,1.75E0,2.683971E0,1.8891487E-1,-3.75E0,3.786801E0,2.178471E0,5.0992064E0,3.876634E0,2.665E3,-3.5773735E-2,1.8156349E3,2.7216645E-3,1.0694444E2,-4.42895E-3,5.5E-1,1.9361111E2,3.1036747E0,1.4221823E-1,9.341464E-2,6.516062E-2,1.00127965E-1,-7.3238865E-2,-4.3240502E-2,-2.7391283E-2,-3.15E-1,4.988889E2,-4.5916666E2,7.5E-1,6.719858E0,-5.069894E-3,3.8211912E-2,-1.56722E-2,-4.198448E-3,1.4808008E-2,5.158251E-4,1.35E0,3.2420345E-2,2.5054617E-2,2.0710506E0,6.4866E-2,4.205056E-2,2.4029756E-2,9.92272E-3,2.7866479E-2,3.9012346E0,3.427593E-2,4.8239008E-2],"split_indices":[74,74,74,74,74,42,0,83,20,17,45,32,56,0,55,0,55,0,74,56,32,0,0,0,0,0,0,0,76,58,56,81,33,0,0,0,0,0,0,78,0,0,42,0,0,0,0,0,5,0,0],"split_type":[0,0,0,0,0,0,0,0,0,0,0,0,0,0,0,0,0,0,0,0,0,0,0,0,0,0,0,0,0,0,0,0,0,0,0,0,0,0,0,0,0,0,0,0,0,0,0,0,0,0,0],"sum_hessian":[3.34E2,2.65E2,6.9E1,7.8E1,1.87E2,5.5E1,1.4E1,3.9E1,3.9E1,6.5E1,1.22E2,2.7E1,2.8E1,1.3E1,2.6E1,9E0,3E1,1.1E1,5.4E1,1.01E2,2.1E1,1.6E1,1.1E1,1.7E1,1.1E1,1.7E1,9E0,9E0,2.1E1,2.2E1,3.2E1,6.9E1,3.2E1,9E0,1.2E1,9E0,1.2E1,9E0,1.3E1,1.9E1,1.3E1,1.3E1,5.6E1,2.1E1,1.1E1,1E1,9E0,1.1E1,4.5E1,1.8E1,2.7E1],"tree_param":{"num_deleted":"0","num_feature":"84","num_nodes":"51","size_leaf_vector":"1"}},{"base_weights":[7.576987E-1,2.0722847E-2,2.200247E0,-1.3074247E0,4.0217558E-1,1.5442406E0,3.3945947E0,-7.229498E-2,-8.5370636E-1,-3.411164E-2,7.042257E-1,7.870238E-2,1.2558409E0,1.1135817E-1,1.7190349E-1,-4.595541E-2,-2.3914663E-2,3.366029E-2,-1.9597802E-2,8.338454E-1,1.3369556E-1,3.0174458E-2,1.3596026E0,-1.4636517E-1,1.7016234E-1,9.0349615E-1,1.665137E-2,-1.3774646E-2,2.1071527E-2,4.665323E-2,6.657222E-2,-1.3243865E-2,-3.6387254E-2,1.486265E-2,4.2858906E-2,7.1882015E-1,4.1816637E-2,5.3273956E-3,-8.161963E-3,-7.807365E-3,8.016455E-3,5.56862E-1,4.0072955E-2,2.8303234E-2,1.6865939E-2],"categories":[],"categories_nodes":[],"categories_segments":[],"categories_sizes":[],"default_left":[0,0,0,0,0,0,0,0,0,0,0,0,0,0,0,0,0,0,0,0,0,0,0,0,0,0,0,0,0,0,0,0,0,0,0,0,0,0,0,0,0,0,0,0,0],"id":22,"left_children":[1,3,5,7,9,11,13,-1,15,17,19,-1,21,-1,-1,-1,-1,23,-1,25,27,-1,29,31,33,35,-1,-1,-1,-1,-1,-1,37,-1,39,41,-1,-1,-1,-1,-1,43,-1,-1,-1],"loss_changes":[3.7098444E2,1.1806293E2,8.7210815E1,9.250107E0,2.3876314E1,6.032425E0,1.0817566E1,0E0,1.3690834E0,2.2723029E0,7.8013763E0,0E0,1.5347214E0,0E0,0E0,0E0,0E0,1.6467793E0,0E0,2.2248497E0,3.922982E0,0E0,3.7761688E-1,5.5166537E-1,9.1492045E-1,8.5788345E-1,0E0,0E0,0E0,0E0,0E0,0E0,5.399759E-1,0E0,8.919663E-1,7.9580307E-1,0E0,0E0,0E0,0E0,0E0,1.4322662E-1,0E0,0E0,0E0],"parents":[2147483647,0,0,1,1,2,2,3,3,4,4,5,5,6,6,8,8,9,9,10,10,12,12,17,17,19,19,20,20,22,22,23,23,24,24,25,25,32,32,34,34,35,35,41,41],"right_children":[2,4,6,8,10,12,14,-1,16,18,20,-1,22,-1,-1,-1,-1,24,-1,26,28,-1,30,32,34,36,-1,-1,-1,-1,-1,-1,38,-1,40,42,-1,-1,-1,-1,-1,44,-1,-1,-1],"split_conditions":[2.8333333E0,-1E0,6.275E0,-3.5E0,9E-1,2.6392405E0,9.25E0,-7.229498E-2,4.2724867E0,5.025641E0,8E0,7.870238E-2,-2.4492937E-16,1.1135817E-1,1.7190349E-1,-4.595541E-2,-2.3914663E-2,-1E-1,-1.9597802E-2,2.77E0,5E0,3.0174458E-2,3.85E0,3.3081589E0,-3.475E2,2.9639175E0,1.665137E-2,-1.3774646E-2,2.1071527E-2,4.665323E-2,6.657222E-2,-1.3243865E-2,2.868217E0,1.486265E-2,-1.0116832E-1,2.21E0,4.1816637E-2,5.3273956E-3,-8.161963E-3,-7.807365E-3,8.016455E-3,-1.525E2,4.0072955E-2,2.8303234E-2,1.6865939E-2],"split_indices":[74,74,74,74,74,49,74,0,20,45,71,0,69,0,0,0,0,74,0,82,16,0,76,50,57,42,0,0,0,0,0,0,5,0,68,82,0,0,0,0,0,60,0,0,0],"split_type":[0,0,0,0,0,0,0,0,0,0,0,0,0,0,0,0,0,0,0,0,0,0,0,0,0,0,0,0,0,0,0,0,0,0,0,0,0,0,0,0,0,0,0,0,0],"sum_hessian":[3.48E2,2.31E2,1.17E2,5.1E1,1.8E2,7.7E1,4E1,2.4E1,2.7E1,7.4E1,1.06E2,3.1E1,4.6E1,2.4E1,1.6E1,1.2E1,1.5E1,6.5E1,9E0,8.6E1,2E1,9E0,3.7E1,2.8E1,3.7E1,7.3E1,1.3E1,9E0,1.1E1,2.3E1,1.4E1,1E1,1.8E1,1.4E1,2.3E1,3.1E1,4.2E1,9E0,9E0,9E0,1.4E1,2.1E1,1E1,9E0,1.2E1],"tree_param":{"num_deleted":"0","num_feature":"84","num_nodes":"45","size_leaf_vector":"1"}},{"base_weights":[7.6636666E-1,6.8535864E-2,2.0424871E0,-1.1692768E0,3.973768E-1,1.5566019E0,3.3543253E0,-1.437058E0,-1.8394662E-2,-1.6906936E-4,6.612362E-1,9.6454984E-1,1.7862034E0,3.7867184E0,7.945432E-2,-3.0011466E-2,-6.744381E-2,2.521861E-1,-1.4436856E-1,7.504825E-1,2.9901102E-1,2.1596016E-2,4.785756E-2,6.3668266E-2,9.034213E-2,1.7660919E-1,1.0556397E-1,1.5872129E-3,2.187725E-2,5.3352444E-3,-2.1808888E-1,5.593872E-1,8.8564587E-1,-5.8096414E-3,2.3488216E-2,-7.099494E-2,-1.8396955E-2,3.6430858E-2,4.038896E-1,9.3812174E-1,2.4991164E-2,6.3626845E-3,-9.51729E-3,2.4352636E-2,8.70549E-3,4.452208E-2,7.881964E-1,2.3749605E-2,3.6738545E-2],"categories":[],"categories_nodes":[],"categories_segments":[],"categories_sizes":[],"default_left":[0,0,0,0,0,0,0,0,0,0,0,0,0,0,0,0,0,0,0,0,0,0,0,0,0,0,0,0,0,0,0,0,0,0,0,0,0,0,0,0,0,0,0,0,0,0,0,0,0],"id":23,"left_children":[1,3,5,7,9,11,13,15,-1,17,19,21,23,25,-1,-1,-1,27,29,31,33,-1,-1,-1,-1,-1,-1,-1,-1,-1,35,37,39,-1,-1,41,-1,-1,43,45,-1,-1,-1,-1,-1,-1,47,-1,-1],"loss_changes":[3.2489844E2,9.693395E1,7.70036E1,9.003769E0,1.97206E1,1.1326981E1,1.3484924E1,4.0732727E0,0E0,2.8020086E0,3.4285774E0,1.9588909E0,3.1984253E0,4.6900024E0,0E0,0E0,0E0,1.6613766E0,1.0199419E0,1.8291969E0,2.9779325E0,0E0,0E0,0E0,0E0,0E0,0E0,0E0,0E0,0E0,1.2911181E0,1.6885281E0,1.6711044E-1,0E0,0E0,9.4716567E-1,0E0,0E0,9.29811E-1,5.2505493E-2,0E0,0E0,0E0,0E0,0E0,0E0,2.184105E-2,0E0,0E0],"parents":[2147483647,0,0,1,1,2,2,3,3,4,4,5,5,6,6,7,7,9,9,10,10,11,11,12,12,13,13,17,17,18,18,19,19,20,20,30,30,31,31,32,32,35,35,38,38,39,39,46,46],"right_children":[2,4,6,8,10,12,14,16,-1,18,20,22,24,26,-1,-1,-1,28,30,32,34,-1,-1,-1,-1,-1,-1,-1,-1,-1,36,38,40,-1,-1,42,-1,-1,44,46,-1,-1,-1,-1,-1,-1,48,-1,-1],"split_conditions":[2.75E0,-1E0,7.15E0,1.3638889E2,9E-1,3.1E0,8.266667E2,-3.75E0,-1.8394662E-2,-3.7333334E2,8E0,2.05E0,5.8E0,1E1,7.945432E-2,-3.0011466E-2,-6.744381E-2,2.2145061E0,-2.1408333E3,2.791328E0,5.198718E0,2.1596016E-2,4.785756E-2,6.3668266E-2,9.034213E-2,1.7660919E-1,1.0556397E-1,1.5872129E-3,2.187725E-2,5.3352444E-3,1.2246469E-16,7E0,2.59E0,-5.8096414E-3,2.3488216E-2,1.6666666E0,-1.8396955E-2,3.6430858E-2,-2.0008334E3,-3.2E2,2.4991164E-2,6.3626845E-3,-9.51729E-3,2.4352636E-2,8.70549E-3,4.452208E-2,1.81E0,2.3749605E-2,3.6738545E-2],"split_indices":[74,74,74,56,74,76,58,82,0,57,71,78,83,79,0,0,0,32,55,42,49,0,0,0,0,0,0,0,0,0,69,72,83,0,0,57,0,0,57,59,0,0,0,0,0,0,82,0,0],"split_type":[0,0,0,0,0,0,0,0,0,0,0,0,0,0,0,0,0,0,0,0,0,0,0,0,0,0,0,0,0,0,0,0,0,0,0,0,0,0,0,0,0,0,0,0,0,0,0,0,0],"sum_hessian":[3.64E2,2.36E2,1.28E2,4.9E1,1.87E2,9.5E1,3.3E1,3.5E1,1.4E1,7.5E1,1.12E2,2.8E1,6.7E1,2.4E1,9E0,9E0,2.6E1,2.7E1,4.8E1,8.9E1,2.3E1,1E1,1.8E1,4.6E1,2.1E1,1.5E1,9E0,1.6E1,1.1E1,1E1,3.8E1,3.9E1,5E1,9E0,1.4E1,2.4E1,1.4E1,1.1E1,2.8E1,4E1,1E1,1E1,1.4E1,1.3E1,1.5E1,1.7E1,2.3E1,1E1,1.3E1],"tree_param":{"num_deleted":"0","num_feature":"84","num_nodes":"49","size_leaf_vector":"1"}},{"base_weights":[7.6119506E-1,7.75477E-2,2.0794318E0,-1.2455283E0,3.962919E-1,1.4920845E0,3.2325847E0,-1.4479815E0,-2.1217646E-2,7.0536315E-2,7.1808463E-1,1.2829989E0,1.9509332E0,2.584517E0,1.7810859E-1,-7.419852E-2,-1.1766349E0,-1.890545E-1,2.1951012E-1,8.098411E-1,1.0458759E-2,1.3589283E0,3.0843223E-2,9.166334E-2,5.679605E-2,1.18279725E-1,7.506146E-2,-3.4474187E-2,-6.137911E-2,1.5922667E-3,-3.2945883E-1,8.8391975E-2,5.035504E-1,6.0114145E-1,9.107883E-1,3.4981247E-2,1.4429816E0,-5.136144E-3,-2.3877366E-2,-1.0103691E-2,1.9109672E-1,2.9295536E-2,9.066048E-3,1.7311964E-2,2.9982787E-2,9.831347E-1,2.5988277E-2,4.081039E-2,6.335954E-2,1.5550573E-2,7.642242E-2,1.0580778E0,2.6445137E-2,8.360962E-3,-2.3554333E-3,3.0523203E-2,4.708548E-2],"categories":[],"categories_nodes":[],"categories_segments":[],"categories_sizes":[],"default_left":[0,0,0,0,0,0,0,0,0,0,0,0,0,0,0,0,0,0,0,0,0,0,0,0,0,0,0,0,0,0,0,0,0,0,0,0,0,0,0,0,0,0,0,0,0,0,0,0,0,0,0,0,0,0,0,0,0],"id":24,"left_children":[1,3,5,7,9,11,13,15,-1,17,19,21,23,25,-1,-1,27,29,31,33,-1,35,-1,-1,-1,-1,-1,-1,-1,-1,37,39,41,43,45,-1,47,-1,-1,-1,49,-1,-1,-1,-1,51,-1,-1,-1,-1,53,55,-1,-1,-1,-1,-1],"loss_changes":[3.3508856E2,1.0423741E2,8.119391E1,6.325432E0,2.0809679E1,5.7476807E0,1.90271E1,1.5024109E0,0E0,3.9087224E0,4.0416756E0,1.4761658E0,9.299011E-1,1.283844E0,0E0,0E0,1.3235359E0,1.1966757E0,2.3390322E0,1.2010994E0,0E0,1.0217667E0,0E0,0E0,0E0,0E0,0E0,0E0,0E0,0E0,1.1148145E0,1.5945506E0,1.0337024E0,3.897066E-1,4.587059E-1,0E0,4.779892E-1,0E0,0E0,0E0,7.2631574E-1,0E0,0E0,0E0,0E0,3.5650253E-1,0E0,0E0,0E0,0E0,4.0430588E-1,5.1727295E-2,0E0,0E0,0E0,0E0,0E0],"parents":[2147483647,0,0,1,1,2,2,3,3,4,4,5,5,6,6,7,7,9,9,10,10,11,11,12,12,13,13,16,16,17,17,18,18,19,19,21,21,30,30,31,31,32,32,33,33,34,34,36,36,40,40,45,45,50,50,51,51],"right_children":[2,4,6,8,10,12,14,16,-1,18,20,22,24,26,-1,-1,28,30,32,34,-1,36,-1,-1,-1,-1,-1,-1,-1,-1,38,40,42,44,46,-1,48,-1,-1,-1,50,-1,-1,-1,-1,52,-1,-1,-1,-1,54,56,-1,-1,-1,-1,-1],"split_conditions":[2.85E0,-1E0,6.25E0,1.8833333E2,1.5E0,4.75E0,1E1,-3.75E0,-2.1217646E-2,-1E-1,4.289406E0,6.774194E0,5.75E0,2.5865555E0,1.7810859E-1,-7.419852E-2,-2.8E0,-6E1,3.5989347E0,1.75E0,1.0458759E-2,2.35E0,3.0843223E-2,9.166334E-2,5.679605E-2,1.18279725E-1,7.506146E-2,-3.4474187E-2,-6.137911E-2,1.5922667E-3,3.3333333E0,2.2134502E0,1.6666666E0,-8.313889E2,1E0,3.4981247E-2,-1.4580555E3,-5.136144E-3,-2.3877366E-2,-1.0103691E-2,2.3333333E2,2.9295536E-2,9.066048E-3,1.7311964E-2,2.9982787E-2,1.0038759E1,2.5988277E-2,4.081039E-2,6.335954E-2,1.5550573E-2,-7.6666664E1,3.5434895E0,2.6445137E-2,8.360962E-3,-2.3554333E-3,3.0523203E-2,4.708548E-2],"split_indices":[74,74,74,56,74,74,74,74,0,74,45,45,74,17,0,0,75,58,42,80,0,76,0,0,0,0,0,0,0,0,5,17,30,55,69,0,56,0,0,0,58,0,0,0,0,33,0,0,0,0,57,52,0,0,0,0,0],"split_type":[0,0,0,0,0,0,0,0,0,0,0,0,0,0,0,0,0,0,0,0,0,0,0,0,0,0,0,0,0,0,0,0,0,0,0,0,0,0,0,0,0,0,0,0,0,0,0,0,0,0,0,0,0,0,0,0,0],"sum_hessian":[3.71E2,2.45E2,1.26E2,4.7E1,1.98E2,8.5E1,4.1E1,3.6E1,1.1E1,9.9E1,9.9E1,6.1E1,2.4E1,2.8E1,1.3E1,1.3E1,2.3E1,3.6E1,6.3E1,8.2E1,1.7E1,5.2E1,9E0,1.4E1,1E1,1.8E1,1E1,1.3E1,1E1,1.4E1,2.2E1,4.4E1,1.9E1,2.9E1,5.3E1,9E0,4.3E1,1.3E1,9E0,1E1,3.4E1,1E1,9E0,1.4E1,1.5E1,4E1,1.3E1,1E1,3.3E1,1.2E1,2.2E1,3.1E1,9E0,1.1E1,1.1E1,9E0,2.2E1],"tree_param":{"num_deleted":"0","num_feature":"84","num_nodes":"57","size_leaf_vector":"1"}},{"base_weights":[6.8500715E-1,1.9925945E-1,2.4410145E0,-1.2239058E0,5.046694E-1,2.0780318E0,1.7607442E-1,-1.4230318E0,-2.1827642E-2,1.2306944E-1,8.1250554E-1,1.6434746E0,2.4891236E0,-6.819599E-2,-4.3061998E-2,-7.891127E-2,2.709411E-1,4.6030876E-1,9.7937095E-1,1.7722148E0,4.6392675E-2,1.1748926E-1,5.4804202E-2,6.675523E-3,-2.2622882E-1,2.7349412E-2,4.2406878E-1,-5.012549E-3,6.1360455E-1,7.3503935E-1,1.1768721E0,8.022572E-2,5.1777884E-2,-8.243505E-4,-1.7108053E-2,-7.1268077E-3,9.283204E-3,2.286072E-1,5.8855385E-1,7.045848E-1,1.5600922E-2,3.3867616E-2,1.7986806E-2,5.276633E-2,3.2385476E-2,1.3777436E-3,1.6430758E-2,1.3843672E-2,3.3033375E-2,2.2552168E-2,3.432555E-2],"categories":[],"categories_nodes":[],"categories_segments":[],"categories_sizes":[],"default_left":[0,0,0,0,0,0,0,0,0,0,0,0,0,0,0,0,0,0,0,0,0,0,0,0,0,0,0,0,0,0,0,0,0,0,0,0,0,0,0,0,0,0,0,0,0,0,0,0,0,0,0],"id":25,"left_children":[1,3,5,7,9,11,-1,13,-1,15,17,19,21,-1,-1,23,25,27,29,31,-1,-1,-1,-1,33,35,37,-1,39,41,43,-1,-1,-1,-1,-1,-1,45,47,49,-1,-1,-1,-1,-1,-1,-1,-1,-1,-1,-1],"loss_changes":[3.1085004E2,1.2536191E2,4.4225708E1,6.265129E0,2.7740452E1,8.056885E0,0E0,1.7460175E0,0E0,3.2171733E0,7.2479935E0,3.6737823E-1,1.0486832E1,0E0,0E0,1.6749357E0,2.3010411E0,4.0044336E0,3.381462E0,6.63147E-2,0E0,0E0,0E0,0E0,1.133568E0,1.0405508E0,1.0871711E0,0E0,4.7414207E-1,7.702141E-1,9.8615265E-1,0E0,0E0,0E0,0E0,0E0,0E0,6.2433517E-1,8.1757164E-1,3.136158E-2,0E0,0E0,0E0,0E0,0E0,0E0,0E0,0E0,0E0,0E0,0E0],"parents":[2147483647,0,0,1,1,2,2,3,3,4,4,5,5,7,7,9,9,10,10,11,11,12,12,15,15,16,16,17,17,18,18,19,19,24,24,25,25,26,26,28,28,29,29,30,30,37,37,38,38,39,39],"right_children":[2,4,6,8,10,12,-1,14,-1,16,18,20,22,-1,-1,24,26,28,30,32,-1,-1,-1,-1,34,36,38,-1,40,42,44,-1,-1,-1,-1,-1,-1,46,48,50,-1,-1,-1,-1,-1,-1,-1,-1,-1,-1,-1],"split_conditions":[3.85E0,-1E0,1E1,1.3638889E2,1.5E0,6.25E0,1.7607442E-1,2.2222223E0,-2.1827642E-2,2E-1,1.81E0,6.6787734E0,8.46E0,-6.819599E-2,-4.3061998E-2,-1.75E-1,-5.777778E2,2.179251E0,2.75E0,4.4174385E0,4.6392675E-2,1.1748926E-1,5.4804202E-2,6.675523E-3,5.141667E2,4.328859E0,2.9396327E0,-5.012549E-3,2.9135296E0,2.85E0,2.8151398E0,8.022572E-2,5.1777884E-2,-8.243505E-4,-1.7108053E-2,-7.1268077E-3,9.283204E-3,8E-1,4.5E2,-1.6E2,1.5600922E-2,3.3867616E-2,1.7986806E-2,5.276633E-2,3.2385476E-2,1.3777436E-3,1.6430758E-2,1.3843672E-2,3.3033375E-2,2.2552168E-2,3.432555E-2],"split_indices":[75,74,74,56,74,74,0,44,0,74,79,30,76,0,0,83,55,17,74,42,0,0,0,0,58,31,42,0,35,81,17,0,0,0,0,0,0,74,56,57,0,0,0,0,0,0,0,0,0,0,0],"split_type":[0,0,0,0,0,0,0,0,0,0,0,0,0,0,0,0,0,0,0,0,0,0,0,0,0,0,0,0,0,0,0,0,0,0,0,0,0,0,0,0,0,0,0,0,0,0,0,0,0,0,0],"sum_hessian":[3.64E2,2.86E2,7.8E1,5E1,2.36E2,6.7E1,1.1E1,3.8E1,1.2E1,1.06E2,1.3E2,3.5E1,3.2E1,2.1E1,1.7E1,4.5E1,6.1E1,4.3E1,8.7E1,2.6E1,9E0,2.3E1,9E0,1.7E1,2.8E1,2.4E1,3.7E1,9E0,3.4E1,4.1E1,4.6E1,1.7E1,9E0,1.4E1,1.4E1,1.2E1,1.2E1,1.8E1,1.9E1,2.3E1,1.1E1,3E1,1.1E1,3.4E1,1.2E1,9E0,9E0,1E1,9E0,1.3E1,1E1],"tree_param":{"num_deleted":"0","num_feature":"84","num_nodes":"51","size_leaf_vector":"1"}},{"base_weights":[7.1298057E-1,2.2066213E-1,2.5441084E0,-6.698179E-1,6.5158486E-1,2.0548387E0,1.642777E-1,-1.1451445E0,-2.093181E-1,4.3554643E-1,9.498823E-1,2.190012E0,4.645034E-2,-2.6624857E-2,-1.2923585E0,-4.7193643E-2,-4.5825133E-1,5.783943E-1,1.3896197E-1,1.4188612E-2,1.0177263E0,1.0618821E-1,1.7697148E0,-5.8464646E-2,-3.2897573E-2,7.425979E-3,-1.9323875E-1,-3.0675989E-2,-3.8330206E-3,7.5590997E-3,6.66487E-1,3.770524E-1,-9.440805E-2,8.3278865E-1,5.5525895E-2,5.701917E-2,8.729732E-2,-1.2416713E-2,-3.1171504E-3,5.330395E-1,8.586813E-1,8.397254E-3,2.168132E-2,7.950512E-3,-1.3399204E-2,9.9276686E-1,1.7252328E-2,1.2820336E-2,5.940328E-1,2.0906907E-2,4.334483E-2,4.4376414E-2,2.832155E-2,1.836531E-2,2.7661186E-2],"categories":[],"categories_nodes":[],"categories_segments":[],"categories_sizes":[],"default_left":[0,0,0,0,0,0,0,0,0,0,0,0,0,0,0,0,0,0,0,0,0,0,0,0,0,0,0,0,0,0,0,0,0,0,0,0,0,0,0,0,0,0,0,0,0,0,0,0,0,0,0,0,0,0,0],"id":26,"left_children":[1,3,5,7,9,11,-1,13,15,17,19,21,-1,-1,23,25,27,29,31,-1,33,-1,35,-1,-1,-1,37,-1,-1,-1,39,41,43,45,-1,-1,-1,-1,-1,47,49,-1,-1,-1,-1,51,-1,-1,53,-1,-1,-1,-1,-1,-1],"loss_changes":[3.4020483E2,1.1517114E2,4.901776E1,2.1211308E1,1.2603912E1,5.245117E0,0E0,2.6639252E0,2.03664E0,4.961235E0,3.0888977E0,4.325592E0,0E0,0E0,1.2125816E0,1.1020173E0,2.0452662E0,2.653984E0,2.2581234E0,0E0,3.540413E0,0E0,9.900589E-1,0E0,0E0,0E0,2.3391944E-1,0E0,0E0,0E0,1.2093983E0,4.144814E-1,1.4705157E0,2.943718E0,0E0,0E0,0E0,0E0,0E0,3.6528206E-1,1.1917019E0,0E0,0E0,0E0,0E0,2.263031E-1,0E0,0E0,6.2973976E-2,0E0,0E0,0E0,0E0,0E0,0E0],"parents":[2147483647,0,0,1,1,2,2,3,3,4,4,5,5,7,7,8,8,9,9,10,10,11,11,14,14,15,15,16,16,17,17,18,18,20,20,22,22,26,26,30,30,31,31,32,32,33,33,39,39,40,40,45,45,48,48],"right_children":[2,4,6,8,10,12,-1,14,16,18,20,22,-1,-1,24,26,28,30,32,-1,34,-1,36,-1,-1,-1,38,-1,-1,-1,40,42,44,46,-1,-1,-1,-1,-1,48,50,-1,-1,-1,-1,52,-1,-1,54,-1,-1,-1,-1,-1,-1],"split_conditions":[4.26E0,1E-1,9.5E0,-1.5E0,2.425E0,6.6787734E0,1.642777E-1,-3.75E0,3.8530467E0,8E0,2.2222223E0,3.0980392E0,4.645034E-2,-2.6624857E-2,2.279389E3,-1.75E-1,6.158333E2,8E-1,-8.633333E2,1.4188612E-2,3.3E0,1.0618821E-1,-4.8333334E2,-5.8464646E-2,-3.2897573E-2,7.425979E-3,2E0,-3.0675989E-2,-3.8330206E-3,7.5590997E-3,-5.161111E2,4.4560184E0,7E-1,4.8530197E-1,5.5525895E-2,5.701917E-2,8.729732E-2,-1.2416713E-2,-3.1171504E-3,1.65E0,1.55E0,8.397254E-3,2.168132E-2,7.950512E-3,-1.3399204E-2,1.0255962E1,1.7252328E-2,1.2820336E-2,-8.697222E2,2.0906907E-2,4.334483E-2,4.4376414E-2,2.832155E-2,1.836531E-2,2.7661186E-2],"split_indices":[74,74,74,74,74,30,0,83,45,71,20,42,0,0,55,83,56,74,59,0,77,0,59,0,0,0,73,0,0,0,56,17,80,68,0,0,0,0,0,74,80,0,0,0,0,33,0,0,55,0,0,0,0,0,0],"split_type":[0,0,0,0,0,0,0,0,0,0,0,0,0,0,0,0,0,0,0,0,0,0,0,0,0,0,0,0,0,0,0,0,0,0,0,0,0,0,0,0,0,0,0,0,0,0,0,0,0,0,0,0,0,0,0],"sum_hessian":[3.77E2,2.98E2,7.9E1,9.7E1,2.01E2,6.1E1,1.8E1,4.7E1,5E1,1.18E2,8.3E1,5.2E1,9E0,1.2E1,3.5E1,3.1E1,1.9E1,7.9E1,3.9E1,9E0,7.4E1,2.4E1,2.8E1,2.6E1,9E0,1.2E1,1.9E1,1E1,9E0,1.5E1,6.4E1,1.9E1,2E1,5E1,2.4E1,1.6E1,1.2E1,9E0,1E1,4E1,2.4E1,1E1,9E0,9E0,1.1E1,3.5E1,1.5E1,1E1,3E1,1E1,1.4E1,2.5E1,1E1,1.3E1,1.7E1],"tree_param":{"num_deleted":"0","num_feature":"84","num_nodes":"55","size_leaf_vector":"1"}},{"base_weights":[7.517958E-1,2.7103975E-1,2.5152106E0,-7.2082114E-1,6.3041955E-1,3.6142957E0,1.9172984E0,-1.3147331E0,-2.5900477E-1,3.840268E-1,9.395927E-1,1.7823169E-1,8.229007E-2,2.3148935E0,1.3953E0,-1.0464517E0,-6.752609E-2,-2.2304982E-2,-1.5917489E-1,5.1654136E-1,1.12709895E-1,1.0151311E0,1.829528E-2,6.533179E-2,1.10206835E-1,4.3581225E-2,6.643282E-2,-2.9591378E-2,-5.4589838E-2,-1.9257408E-2,-1.022187E-2,4.96322E-3,5.9986085E-1,2.8105658E-1,-1.7237868E-2,7.37917E-1,5.0912745E-2,7.4042697E-3,-1.0338008E-2,7.266621E-1,4.17395E-1,2.1958353E-2,9.212364E-2,3.374577E-2,1.7104737E-2,5.6919444E-1,4.1298766E-2,-5.132341E-4,6.114817E-1,8.169934E-3,-9.935024E-4,2.719402E-2,1.6570918E-2,3.370022E-2,1.30712595E-2],"categories":[],"categories_nodes":[],"categories_segments":[],"categories_sizes":[],"default_left":[0,0,0,0,0,0,0,0,0,0,0,0,0,0,0,0,0,0,0,0,0,0,0,0,0,0,0,0,0,0,0,0,0,0,0,0,0,0,0,0,0,0,0,0,0,0,0,0,0,0,0,0,0,0,0],"id":27,"left_children":[1,3,5,7,9,11,13,15,17,19,21,-1,-1,23,25,27,-1,-1,29,31,33,35,-1,-1,-1,-1,-1,-1,-1,-1,37,-1,39,41,-1,43,-1,-1,-1,45,47,-1,49,-1,-1,51,-1,-1,53,-1,-1,-1,-1,-1,-1],"loss_changes":[3.0451636E2,1.0168758E2,4.3671356E1,2.0504631E1,1.5560379E1,2.1897858E1,7.5623016E0,1.2179756E0,1.1653562E0,4.184284E0,2.9756851E0,0E0,0E0,3.2530823E0,1.472168E-1,9.824791E-1,0E0,0E0,1.5677869E0,2.5305767E0,3.7082984E0,4.047142E0,0E0,0E0,0E0,0E0,0E0,0E0,0E0,0E0,1.1534374E0,0E0,1.200594E0,1.4413235E0,0E0,6.9441223E-1,0E0,0E0,0E0,1.0616646E0,2.4274254E0,0E0,2.4169536E-1,0E0,0E0,1.3556957E-1,0E0,0E0,9.699464E-1,0E0,0E0,0E0,0E0,0E0,0E0],"parents":[2147483647,0,0,1,1,2,2,3,3,4,4,5,5,6,6,7,7,8,8,9,9,10,10,13,13,14,14,15,15,18,18,19,19,20,20,21,21,30,30,32,32,33,33,35,35,39,39,40,40,42,42,45,45,48,48],"right_children":[2,4,6,8,10,12,14,16,18,20,22,-1,-1,24,26,28,-1,-1,30,32,34,36,-1,-1,-1,-1,-1,-1,-1,-1,38,-1,40,42,-1,44,-1,-1,-1,46,48,-1,50,-1,-1,52,-1,-1,54,-1,-1,-1,-1,-1,-1],"split_conditions":[4.26E0,-1E-1,1.6666666E0,-2.25E0,2.425E0,6.155831E0,4.90861E0,2.699187E0,3.0791285E0,8E0,5.88141E0,1.7823169E-1,8.229007E-2,-4.5E2,4.2591665E3,3.4308887E0,-6.752609E-2,-2.2304982E-2,1.1E1,8E-1,1.1594445E3,3.05E0,1.829528E-2,6.533179E-2,1.10206835E-1,4.3581225E-2,6.643282E-2,-2.9591378E-2,-5.4589838E-2,-1.9257408E-2,1.6666666E0,4.96322E-3,1.9E0,2E1,-1.7237868E-2,1.9265233E0,5.0912745E-2,7.4042697E-3,-1.0338008E-2,4.2961097E0,2E0,2.1958353E-2,4.7161016E0,3.374577E-2,1.7104737E-2,2.4025223E0,4.1298766E-2,-5.132341E-4,9.061111E2,8.169934E-3,-9.935024E-4,2.719402E-2,1.6570918E-2,3.370022E-2,1.30712595E-2],"split_indices":[74,74,42,74,74,50,33,45,50,71,35,0,0,59,55,0,0,0,72,74,56,74,0,0,0,0,0,0,0,0,49,0,78,72,0,35,0,0,0,20,80,0,33,0,0,17,0,0,57,0,0,0,0,0,0],"split_type":[0,0,0,0,0,0,0,0,0,0,0,0,0,0,0,0,0,0,0,0,0,0,0,0,0,0,0,0,0,0,0,0,0,0,0,0,0,0,0,0,0,0,0,0,0,0,0,0,0,0,0,0,0,0,0],"sum_hessian":[3.59E2,2.83E2,7.6E1,7.5E1,2.08E2,2.5E1,5.1E1,3.2E1,4.3E1,1.17E2,9.1E1,1.6E1,9E0,2.7E1,2.4E1,2E1,1.2E1,1E1,3.3E1,7.8E1,3.9E1,7.8E1,1.3E1,1.1E1,1.6E1,1.2E1,1.2E1,1.1E1,9E0,1E1,2.3E1,1.4E1,6.4E1,3E1,9E0,3.7E1,4.1E1,1.3E1,1E1,3.6E1,2.8E1,1.2E1,1.8E1,2.8E1,9E0,2.5E1,1.1E1,9E0,1.9E1,9E0,9E0,1.4E1,1.1E1,1E1,9E0],"tree_param":{"num_deleted":"0","num_feature":"84","num_nodes":"55","size_leaf_vector":"1"}},{"base_weights":[6.826863E-1,2.2146943E-1,2.430106E0,-7.247427E-1,5.8572125E-1,3.0921361E0,1.6518601E0,-1.1233642E0,-2.462117E-1,2.4807978E-1,8.132738E-1,3.4932458E0,7.5099014E-2,1.1530935E0,8.7821364E-2,-6.232954E-2,-8.9509356E-1,-2.16805E-2,-1.0103522E-1,2.411897E-2,1.8127035E-1,5.182666E-1,9.14465E-1,8.871203E-2,3.960014E0,6.0493506E-2,2.9762268E-2,-2.6155004E-2,-4.7633845E-2,-1.4282458E-2,6.2934593E-3,-6.2911753E-3,2.4746093E-1,3.5585945E-3,7.6928186E-1,1.3596317E-2,9.722769E-1,1.8737975E-1,1.1610155E-1,3.1634212E-1,-1.7138269E-3,2.368315E-2,3.8601134E-2,8.5514003E-1,5.7011414E-2,5.6916387E-3,4.0101996E-1,8.9268994E-1,2.2317376E-2,2.3358418E-2,2.6945877E-1,2.8724026E-2,4.010484E-2,6.341025E-3,1.5591172E-2],"categories":[],"categories_nodes":[],"categories_segments":[],"categories_sizes":[],"default_left":[0,0,0,0,0,0,0,0,0,0,0,0,0,0,0,0,0,0,0,0,0,0,0,0,0,0,0,0,0,0,0,0,0,0,0,0,0,0,0,0,0,0,0,0,0,0,0,0,0,0,0,0,0,0,0],"id":28,"left_children":[1,3,5,7,9,11,13,15,17,19,21,23,-1,25,-1,-1,27,-1,29,-1,31,33,35,-1,37,-1,-1,-1,-1,-1,-1,-1,39,-1,41,-1,43,-1,-1,45,-1,-1,-1,47,-1,-1,49,51,-1,-1,53,-1,-1,-1,-1],"loss_changes":[3.0088315E2,1.0278836E2,3.507956E1,1.5555893E1,1.6316948E1,1.4330261E1,6.819481E0,2.71595E0,1.5465136E0,1.8934069E0,3.3471375E0,1.0049286E1,0E0,1.8207912E0,0E0,0E0,1.3850918E0,0E0,1.753142E0,0E0,1.6995878E0,3.723939E0,2.8449554E0,0E0,1.5166626E0,0E0,0E0,0E0,0E0,0E0,0E0,0E0,1.2684779E0,0E0,1.8222237E-1,0E0,2.9752274E0,0E0,0E0,7.109699E-1,0E0,0E0,0E0,3.1938553E-1,0E0,0E0,6.0108185E-1,2.999382E-1,0E0,0E0,2.0833611E-1,0E0,0E0,0E0,0E0],"parents":[2147483647,0,0,1,1,2,2,3,3,4,4,5,5,6,6,7,7,8,8,9,9,10,10,11,11,13,13,16,16,18,18,20,20,21,21,22,22,24,24,32,32,34,34,36,36,39,39,43,43,46,46,47,47,50,50],"right_children":[2,4,6,8,10,12,14,16,18,20,22,24,-1,26,-1,-1,28,-1,30,-1,32,34,36,-1,38,-1,-1,-1,-1,-1,-1,-1,40,-1,42,-1,44,-1,-1,46,-1,-1,-1,48,-1,-1,50,52,-1,-1,54,-1,-1,-1,-1],"split_conditions":[4.4E0,-1E-1,2.5024154E0,-1.5E0,1.81E0,4.7825E3,2.7216667E3,-3.75E0,3.3081589E0,-2.8E2,1.81E0,7.5E0,7.5099014E-2,2E0,8.7821364E-2,-6.232954E-2,4.924925E0,-2.16805E-2,-3E-1,2.411897E-2,-1.6E-1,3.5287123E0,2.2222223E0,8.871203E-2,8.46E0,6.0493506E-2,2.9762268E-2,-2.6155004E-2,-4.7633845E-2,-1.4282458E-2,6.2934593E-3,-6.2911753E-3,2.9E0,3.5585945E-3,-2.2033333E2,1.3596317E-2,3.9E0,1.8737975E-1,1.1610155E-1,2.4413145E0,-1.7138269E-3,2.368315E-2,3.8601134E-2,4.5594263E0,5.7011414E-2,5.6916387E-3,3.5313532E0,2.59E0,2.2317376E-2,2.3358418E-2,3.3530183E0,2.8724026E-2,4.010484E-2,6.341025E-3,1.5591172E-2],"split_indices":[74,74,42,74,74,55,56,74,50,63,79,74,0,73,0,0,29,0,76,0,79,5,20,0,77,0,0,0,0,0,0,0,83,0,55,0,81,0,0,42,0,0,0,50,0,0,20,74,0,0,42,0,0,0,0],"split_type":[0,0,0,0,0,0,0,0,0,0,0,0,0,0,0,0,0,0,0,0,0,0,0,0,0,0,0,0,0,0,0,0,0,0,0,0,0,0,0,0,0,0,0,0,0,0,0,0,0,0,0,0,0,0,0],"sum_hessian":[3.73E2,2.96E2,7.7E1,8.2E1,2.14E2,4E1,3.7E1,4.4E1,3.8E1,8.7E1,1.27E2,2.9E1,1.1E1,2E1,1.7E1,1.4E1,3E1,1.2E1,2.6E1,1.3E1,7.4E1,3.4E1,9.3E1,9E0,2E1,1E1,1E1,1.7E1,1.3E1,1.3E1,1.3E1,1.2E1,6.2E1,1.3E1,2.1E1,9E0,8.4E1,1.1E1,9E0,5E1,1.2E1,1.2E1,9E0,6.8E1,1.6E1,1.7E1,3.3E1,5.9E1,9E0,1.3E1,2E1,2.1E1,3.8E1,1.1E1,9E0],"tree_param":{"num_deleted":"0","num_feature":"84","num_nodes":"55","size_leaf_vector":"1"}},{"base_weights":[6.29574E-1,2.0224631E-1,2.3595295E0,-6.0981697E-1,5.6393355E-1,1.8402686E0,3.2828994E0,-1.0481247E0,-2.0378923E-1,3.6534527E-1,8.260708E-1,8.457852E-2,3.6230657E-2,1.5813859E-1,1.0070541E-1,-2.59111E-2,-1.2212605E0,-5.8956027E-2,-1.8447904E-2,4.8622376E-1,6.134483E-2,1.1235953E-2,8.933295E-1,-6.350898E-2,-9.499907E-1,5.78115E-3,-1.7041127E-1,3.8189918E-1,6.8495953E-1,3.307785E-1,-1.1450535E-2,6.913319E-1,1.2107967E0,-2.7021764E-2,-4.698251E-2,-2.850232E-3,-1.1252133E-2,4.467179E-1,1.0699972E-3,3.3919904E-2,1.5979575E-2,5.4813125E-3,1.9675022E-2,8.281718E-1,1.43002495E-2,4.0230226E-2,6.138755E-2,3.0935612E-1,5.4718465E-1,4.1342027E-2,6.600419E-1,1.7671272E-2,6.638962E-3,1.50046E-2,2.6604889E-2,3.1607173E-2,2.005611E-2],"categories":[],"categories_nodes":[],"categories_segments":[],"categories_sizes":[],"default_left":[0,0,0,0,0,0,0,0,0,0,0,0,0,0,0,0,0,0,0,0,0,0,0,0,0,0,0,0,0,0,0,0,0,0,0,0,0,0,0,0,0,0,0,0,0,0,0,0,0,0,0,0,0,0,0,0,0],"id":29,"left_children":[1,3,5,7,9,11,13,15,17,19,21,-1,-1,-1,-1,-1,23,25,-1,27,29,-1,31,-1,33,-1,35,37,39,41,-1,43,45,-1,-1,-1,-1,47,-1,-1,-1,-1,-1,49,-1,-1,-1,51,53,-1,55,-1,-1,-1,-1,-1,-1],"loss_changes":[2.7230896E2,8.757663E1,2.89599E1,1.6159195E1,1.042202E1,8.612061E0,2.3918152E0,2.398388E0,1.7204254E0,4.3430777E0,3.02248E0,0E0,0E0,0E0,0E0,0E0,1.1956329E0,7.371984E-1,0E0,1.5007229E0,3.3045454E0,0E0,4.164894E0,0E0,3.2774544E-1,0E0,2.0133823E-1,1.3259735E0,8.5426426E-1,5.235615E-1,0E0,2.05484E0,4.3798447E-1,0E0,0E0,0E0,0E0,5.069399E-1,0E0,0E0,0E0,0E0,0E0,3.946724E-1,0E0,0E0,0E0,3.4271288E-1,2.6020718E-1,0E0,2.0701408E-2,0E0,0E0,0E0,0E0,0E0,0E0],"parents":[2147483647,0,0,1,1,2,2,3,3,4,4,5,5,6,6,7,7,8,8,9,9,10,10,16,16,17,17,19,19,20,20,22,22,24,24,26,26,27,27,28,28,29,29,31,31,32,32,37,37,43,43,47,47,48,48,50,50],"right_children":[2,4,6,8,10,12,14,16,18,20,22,-1,-1,-1,-1,-1,24,26,-1,28,30,-1,32,-1,34,-1,36,38,40,42,-1,44,46,-1,-1,-1,-1,48,-1,-1,-1,-1,-1,50,-1,-1,-1,52,54,-1,56,-1,-1,-1,-1,-1,-1],"split_conditions":[4.4E0,1E-1,8E0,-1.5E0,2.425E0,6.6787734E0,8.46E0,-3.75E0,3.8530467E0,4.968491E0,2.333143E0,8.457852E-2,3.6230657E-2,1.5813859E-1,1.0070541E-1,-2.59111E-2,-2.761111E2,3.7827716E0,-1.8447904E-2,4.296875E0,8E0,1.1235953E-2,3.05E0,-6.350898E-2,2.3333333E0,5.78115E-3,1.2246469E-16,4.4661922E0,2.05E0,2.8202794E0,-1.1450535E-2,6.513725E-1,3.1007304E0,-2.7021764E-2,-4.698251E-2,-2.850232E-3,-1.1252133E-2,1.3E0,1.0699972E-3,3.3919904E-2,1.5979575E-2,5.4813125E-3,1.9675022E-2,4.475108E0,1.43002495E-2,4.0230226E-2,6.138755E-2,-2.9936314E-1,2E0,4.1342027E-2,5.275096E0,1.7671272E-2,6.638962E-3,1.50046E-2,2.6604889E-2,3.1607173E-2,2.005611E-2],"split_indices":[74,74,74,74,74,30,77,82,45,20,20,0,0,0,0,0,55,20,0,5,71,0,80,0,0,0,69,50,83,42,0,68,35,0,0,0,0,74,0,0,0,0,0,20,0,0,0,68,73,0,38,0,0,0,0,0,0],"split_type":[0,0,0,0,0,0,0,0,0,0,0,0,0,0,0,0,0,0,0,0,0,0,0,0,0,0,0,0,0,0,0,0,0,0,0,0,0,0,0,0,0,0,0,0,0,0,0,0,0,0,0,0,0,0,0,0,0],"sum_hessian":[3.68E2,2.96E2,7.2E1,9.1E1,2.05E2,4.8E1,2.4E1,4.3E1,4.8E1,1.18E2,8.7E1,3.8E1,1E1,1.2E1,1.2E1,1.4E1,2.9E1,3.1E1,1.7E1,8.4E1,3.4E1,1E1,7.7E1,1.1E1,1.8E1,1.1E1,2E1,5.7E1,2.7E1,1.9E1,1.5E1,4.9E1,2.8E1,9E0,9E0,1.1E1,9E0,4.8E1,9E0,1.7E1,1E1,9E0,1E1,3.4E1,1.5E1,1.8E1,1E1,2.2E1,2.6E1,1.4E1,2E1,1.1E1,1.1E1,1.1E1,1.5E1,1E1,1E1],"tree_param":{"num_deleted":"0","num_feature":"84","num_nodes":"57","size_leaf_vector":"1"}},{"base_weights":[6.1485064E-1,1.1522655E-1,1.6303339E0,-1.0691857E0,3.5391983E-1,1.1836942E0,2.4818099E0,-1.3573123E0,-7.1319366E-1,5.625376E-2,5.552506E-1,2.5862042E-2,1.2845725E0,1.1802148E-1,7.3759995E-2,-3.8308784E-2,-6.793176E-2,-2.0201266E-2,-3.4800556E-2,2.0319173E-2,-1.2604656E-2,6.545546E-1,1.596574E-1,1.4262362E0,3.2828066E-2,-1.2579884E-1,2.452278E-1,5.0584227E-1,7.3039424E-1,2.291939E-2,-1.6376548E-2,6.461865E-2,3.4149986E-2,-6.519106E-2,-1.3724936E-2,-7.790181E-4,1.7614283E-2,2.5131196E-2,3.833804E-1,8.0039006E-1,2.0756839E-2,3.901924E-3,-1.4592616E-1,1.1042095E-2,1.882324E-2,3.823217E-2,2.7595865E-2,-1.0376348E-2,3.7344143E-4],"categories":[],"categories_nodes":[],"categories_segments":[],"categories_sizes":[],"default_left":[0,0,0,0,0,0,0,0,0,0,0,0,0,0,0,0,0,0,0,0,0,0,0,0,0,0,0,0,0,0,0,0,0,0,0,0,0,0,0,0,0,0,0,0,0,0,0,0,0],"id":30,"left_children":[1,3,5,7,9,11,13,15,17,19,21,-1,23,-1,-1,-1,-1,-1,-1,-1,25,27,29,31,-1,33,35,37,39,-1,-1,-1,-1,41,-1,-1,-1,-1,43,45,-1,-1,47,-1,-1,-1,-1,-1,-1],"loss_changes":[1.7840285E2,6.738097E1,4.117743E1,3.1348076E0,1.1834776E1,3.5403137E0,5.386627E0,1.1125717E0,1.7973137E-1,2.4566562E0,4.531006E0,0E0,3.3137436E0,0E0,0E0,0E0,0E0,0E0,0E0,0E0,2.102994E0,6.906929E-1,5.805082E0,3.0430908E0,0E0,6.113941E-1,1.0800191E0,2.2411251E-1,5.360832E-1,0E0,0E0,0E0,0E0,5.317547E-1,0E0,0E0,0E0,0E0,4.045844E-2,1.124115E-1,0E0,0E0,4.5085067E-1,0E0,0E0,0E0,0E0,0E0,0E0],"parents":[2147483647,0,0,1,1,2,2,3,3,4,4,5,5,6,6,7,7,8,8,9,9,10,10,12,12,20,20,21,21,22,22,23,23,25,25,26,26,27,27,28,28,33,33,38,38,39,39,42,42],"right_children":[2,4,6,8,10,12,14,16,18,20,22,-1,24,-1,-1,-1,-1,-1,-1,-1,26,28,30,32,-1,34,36,38,40,-1,-1,-1,-1,42,-1,-1,-1,-1,44,46,-1,-1,48,-1,-1,-1,-1,-1,-1],"split_conditions":[3.05E0,-1.75E0,6.25E0,-3E0,1.23E0,2.77E0,4.4978887E3,-1.45E2,3.3854167E0,-2.8E2,4.0173984E0,2.5862042E-2,5.2472177E0,1.1802148E-1,7.3759995E-2,-3.8308784E-2,-6.793176E-2,-2.0201266E-2,-3.4800556E-2,2.0319173E-2,4.135638E0,3.5669043E0,6.061947E0,5.025641E0,3.2828066E-2,3.097561E0,2.4604588E0,2.38414E0,2.4E1,2.291939E-2,-1.6376548E-2,6.461865E-2,3.4149986E-2,2.2268648E0,-1.3724936E-2,-7.790181E-4,1.7614283E-2,2.5131196E-2,1.81E0,8.6805554E2,2.0756839E-2,3.901924E-3,-1E-1,1.1042095E-2,1.882324E-2,3.823217E-2,2.7595865E-2,-1.0376348E-2,3.7344143E-4],"split_indices":[74,74,74,74,74,77,55,59,29,63,45,0,32,0,0,0,0,0,0,0,49,52,52,45,0,45,35,17,72,0,0,0,0,17,0,0,0,0,78,58,0,0,74,0,0,0,0,0,0],"split_type":[0,0,0,0,0,0,0,0,0,0,0,0,0,0,0,0,0,0,0,0,0,0,0,0,0,0,0,0,0,0,0,0,0,0,0,0,0,0,0,0,0,0,0,0,0,0,0,0,0],"sum_hessian":[3.51E2,2.36E2,1.15E2,3.9E1,1.97E2,7.7E1,3.8E1,2E1,1.9E1,8E1,1.17E2,1.3E1,6.4E1,2.2E1,1.6E1,1E1,1E1,9E0,1E1,1E1,7E1,9.3E1,2.4E1,4.8E1,1.6E1,4.9E1,2.1E1,3.4E1,5.9E1,1.4E1,1E1,3.7E1,1.1E1,3.9E1,1E1,9E0,1.2E1,1.6E1,1.8E1,4.3E1,1.6E1,1.3E1,2.6E1,9E0,9E0,1.8E1,2.5E1,1.5E1,1.1E1],"tree_param":{"num_deleted":"0","num_feature":"84","num_nodes":"49","size_leaf_vector":"1"}},{"base_weights":[5.864034E-1,1.5468898E-1,1.8299303E0,-8.803052E-1,4.1156676E-1,1.4921366E0,1.3497344E-1,-5.937224E-2,-6.700795E-1,1.1848462E-1,6.572569E-1,1.6567905E0,3.0350752E-2,-4.9402112E-1,-3.9116047E-2,-9.4215445E-2,2.2157617E-1,7.1137893E-1,1.1787294E-2,1.8021376E0,3.5947777E-2,-6.073907E-1,-9.397888E-3,4.91825E-2,-1.3515304E-2,-3.9193816E-3,2.769542E-1,6.225036E-1,9.540626E-1,8.6942784E-2,1.5077585E0,-1.3007652E-2,-3.4308083E-2,1.09226145E-2,-4.9895025E-3,3.4151968E-1,9.1105886E-4,1.1517963E-2,6.624075E-1,4.558334E-2,2.6154304E-2,6.82381E-2,4.394191E-2,1.07413426E-1,4.8312312E-1,1.6959205E-2,7.067451E-1,8.853825E-3,-4.863187E-4,2.7063817E-2,1.309434E-2,1.821068E-2,7.459099E-1,7.9986775E-1,1.9958593E-2,2.3524122E-2,3.518011E-2],"categories":[],"categories_nodes":[],"categories_segments":[],"categories_sizes":[],"default_left":[0,0,0,0,0,0,0,0,0,0,0,0,0,0,0,0,0,0,0,0,0,0,0,0,0,0,0,0,0,0,0,0,0,0,0,0,0,0,0,0,0,0,0,0,0,0,0,0,0,0,0,0,0,0,0,0,0],"id":31,"left_children":[1,3,5,7,9,11,-1,-1,13,15,17,19,-1,21,-1,23,25,27,-1,29,-1,31,-1,33,-1,-1,35,37,39,-1,41,-1,-1,-1,-1,43,-1,-1,45,-1,-1,-1,-1,47,49,-1,51,-1,-1,-1,-1,-1,53,55,-1,-1,-1],"loss_changes":[1.9781403E2,7.347573E1,4.2007385E1,5.5947723E0,1.5835758E1,8.553665E0,0E0,0E0,1.6284847E0,2.257489E0,2.1969566E0,5.6757965E0,0E0,7.0135736E-1,0E0,1.1640396E0,1.2384112E0,1.6492195E0,0E0,1.7707062E0,0E0,9.9904203E-1,0E0,8.490276E-1,0E0,0E0,9.6278334E-1,8.907051E-1,5.87286E-1,0E0,3.326645E-1,0E0,0E0,0E0,0E0,1.5061679E0,0E0,0E0,4.7974968E-1,0E0,0E0,0E0,0E0,2.4852255E-1,6.295643E-1,0E0,2.6516724E-1,0E0,0E0,0E0,0E0,0E0,2.957096E-1,2.0765305E-2,0E0,0E0,0E0],"parents":[2147483647,0,0,1,1,2,2,3,3,4,4,5,5,8,8,9,9,10,10,11,11,13,13,15,15,16,16,17,17,19,19,21,21,23,23,26,26,27,27,28,28,30,30,35,35,38,38,43,43,44,44,46,46,52,52,53,53],"right_children":[2,4,6,8,10,12,-1,-1,14,16,18,20,-1,22,-1,24,26,28,-1,30,-1,32,-1,34,-1,-1,36,38,40,-1,42,-1,-1,-1,-1,44,-1,-1,46,-1,-1,-1,-1,48,50,-1,52,-1,-1,-1,-1,-1,54,56,-1,-1,-1],"split_conditions":[3.6E0,-1E0,9.5E0,-3.75E0,1.65E0,5.1462636E0,1.3497344E-1,-5.937224E-2,2.9320989E0,2E-1,6.535948E0,2.699187E0,3.0350752E-2,-3.25E0,-3.9116047E-2,2.0129852E-1,-3.8E-1,1.1594445E3,1.1787294E-2,2.6556776E0,3.5947777E-2,2.0730083E0,-9.397888E-3,-2.4492937E-16,-1.3515304E-2,-3.9193816E-3,2.425E0,1.4E0,6.968254E0,8.6942784E-2,2.2054598E0,-1.3007652E-2,-3.4308083E-2,1.09226145E-2,-4.9895025E-3,-6.961111E2,9.1105886E-4,1.1517963E-2,1.81E0,4.558334E-2,2.6154304E-2,6.82381E-2,4.394191E-2,1.7E0,2.3479135E0,1.6959205E-2,1.55E0,8.853825E-3,-4.863187E-4,2.7063817E-2,1.309434E-2,1.821068E-2,2.77E0,-1.2033334E3,1.9958593E-2,2.3524122E-2,3.518011E-2],"split_indices":[74,74,74,74,74,32,0,0,28,74,52,45,0,80,0,68,83,56,0,42,0,35,0,67,0,0,82,76,33,0,49,0,0,0,0,55,0,0,74,0,0,0,0,79,17,0,80,0,0,0,0,0,83,63,0,0,0],"split_type":[0,0,0,0,0,0,0,0,0,0,0,0,0,0,0,0,0,0,0,0,0,0,0,0,0,0,0,0,0,0,0,0,0,0,0,0,0,0,0,0,0,0,0,0,0,0,0,0,0,0,0,0,0,0,0,0,0],"sum_hessian":[3.68E2,2.74E2,9.4E1,5.4E1,2.2E2,7.8E1,1.6E1,1.3E1,4.1E1,1.01E2,1.19E2,6.3E1,1.5E1,2.7E1,1.4E1,3.3E1,6.8E1,1.03E2,1.6E1,5.2E1,1.1E1,1.8E1,9E0,2.1E1,1.2E1,1E1,5.8E1,7.8E1,2.5E1,2.2E1,3E1,9E0,9E0,9E0,1.2E1,4.6E1,1.2E1,9E0,6.9E1,1.5E1,1E1,2E1,1E1,1.8E1,2.8E1,1.2E1,5.7E1,9E0,9E0,1.2E1,1.6E1,9E0,4.8E1,3.8E1,1E1,1E1,2.8E1],"tree_param":{"num_deleted":"0","num_feature":"84","num_nodes":"57","size_leaf_vector":"1"}},{"base_weights":[5.669804E-1,1.5059024E-1,1.8461959E0,-9.277404E-1,3.906014E-1,1.5318979E0,1.3765612E-1,-1.2056704E0,-5.532524E-1,6.893767E-2,5.999924E-1,1.9411556E0,1.289939E0,-3.2380916E-2,-5.8053955E-2,-2.9504899E-2,-1.3403058E-2,2.1503856E-2,1.3885241E-2,6.58262E-1,-6.0881195E-3,5.507659E-2,8.8782966E-2,6.353864E-2,9.473836E-1,-4.3325014E-2,1.810452E-2,6.0983586E-1,4.1795664E-2,4.4569585E-2,2.7502216E-2,-1.3474843E-1,1.9818038E-1,7.3788255E-1,5.1149124E-1,6.2446753E-3,-2.6717708E-1,1.6619405E-2,3.699381E-4,5.406762E-1,3.506496E-2,9.18805E-3,5.5021966E-1,-1.11777596E-1,-2.8335832E-2,1.5998539E-2,2.7353976E-2,1.3245205E-2,5.937351E-1,-1.1887778E-2,1.2727963E-3,6.55388E-1,1.5081721E-2,1.9099245E-2,7.153601E-1,3.262813E-2,2.045973E-2],"categories":[],"categories_nodes":[],"categories_segments":[],"categories_sizes":[],"default_left":[0,0,0,0,0,0,0,0,0,0,0,0,0,0,0,0,0,0,0,0,0,0,0,0,0,0,0,0,0,0,0,0,0,0,0,0,0,0,0,0,0,0,0,0,0,0,0,0,0,0,0,0,0,0,0,0,0],"id":32,"left_children":[1,3,5,7,9,11,-1,13,15,17,19,21,23,-1,-1,-1,-1,-1,25,27,-1,-1,-1,-1,29,31,-1,33,-1,-1,-1,35,37,39,41,-1,43,-1,-1,45,-1,-1,47,49,-1,-1,-1,-1,51,-1,-1,53,-1,-1,55,-1,-1],"loss_changes":[1.9946677E2,7.386482E1,3.8555725E1,4.7451973E0,1.5651997E1,5.219864E0,0E0,1.4178658E0,6.6858244E-1,2.3250597E0,6.247299E0,7.113037E-1,3.1593246E0,0E0,0E0,0E0,0E0,0E0,2.0744567E0,1.6693649E0,0E0,0E0,0E0,0E0,2.3668861E-1,1.6826482E0,0E0,1.1085167E0,0E0,0E0,0E0,2.1314988E0,8.1928915E-1,6.7165565E-1,6.558151E-1,0E0,2.4261954E0,0E0,0E0,1.3936329E-1,0E0,0E0,4.1119003E-1,7.469417E-1,0E0,0E0,0E0,0E0,4.552517E-1,0E0,0E0,9.8739624E-2,0E0,0E0,7.279301E-2,0E0,0E0],"parents":[2147483647,0,0,1,1,2,2,3,3,4,4,5,5,7,7,8,8,9,9,10,10,11,11,12,12,18,18,19,19,24,24,25,25,27,27,31,31,32,32,33,33,34,34,36,36,39,39,42,42,43,43,48,48,51,51,54,54],"right_children":[2,4,6,8,10,12,-1,14,16,18,20,22,24,-1,-1,-1,-1,-1,26,28,-1,-1,-1,-1,30,32,-1,34,-1,-1,-1,36,38,40,42,-1,44,-1,-1,46,-1,-1,48,50,-1,-1,-1,-1,52,-1,-1,54,-1,-1,56,-1,-1],"split_conditions":[3.75E0,-7.5E-1,1E1,1.6666666E0,1.3E0,2.5024154E0,1.3765612E-1,-2.7222223E2,-2.8E0,-9.925E2,6.71123E0,5.25E0,2.2054598E0,-3.2380916E-2,-5.8053955E-2,-2.9504899E-2,-1.3403058E-2,2.1503856E-2,2.425E0,7.3E0,-6.0881195E-3,5.507659E-2,8.8782966E-2,6.353864E-2,4.75E0,5.141667E0,1.810452E-2,2.3484848E0,4.1795664E-2,4.4569585E-2,2.7502216E-2,-3.3E-1,-8.933333E2,-2.6555554E2,1.4E0,6.2446753E-3,3.8888888E0,1.6619405E-2,3.699381E-4,1.81E0,3.506496E-2,9.18805E-3,-8.4864426E-1,2E0,-2.8335832E-2,1.5998539E-2,2.7353976E-2,1.3245205E-2,8.9780456E-1,-1.1887778E-2,1.2727963E-3,4.488889E2,1.5081721E-2,1.9099245E-2,7.6231885E0,3.262813E-2,2.045973E-2],"split_indices":[74,74,74,20,74,42,0,59,79,57,50,79,49,0,0,0,0,0,80,20,0,0,0,0,75,49,0,17,0,0,0,81,59,55,76,0,45,0,0,77,0,0,68,73,0,0,0,0,68,0,0,55,0,0,42,0,0],"split_type":[0,0,0,0,0,0,0,0,0,0,0,0,0,0,0,0,0,0,0,0,0,0,0,0,0,0,0,0,0,0,0,0,0,0,0,0,0,0,0,0,0,0,0,0,0,0,0,0,0,0,0,0,0,0,0,0,0],"sum_hessian":[3.74E2,2.83E2,9.1E1,5.1E1,2.32E2,7.7E1,1.4E1,2.8E1,2.3E1,9.2E1,1.4E2,2.6E1,5.1E1,1.1E1,1.7E1,1.2E1,1.1E1,9E0,8.3E1,1.3E2,1E1,9E0,1.7E1,2.7E1,2.4E1,7.4E1,9E0,1.17E2,1.3E1,1.4E1,1E1,5.4E1,2E1,4.8E1,6.9E1,1.7E1,3.7E1,9E0,1.1E1,2E1,2.8E1,9E0,6E1,2.8E1,9E0,1.1E1,9E0,1.1E1,4.9E1,1.2E1,1.6E1,3.7E1,1.2E1,1.1E1,2.6E1,1.7E1,9E0],"tree_param":{"num_deleted":"0","num_feature":"84","num_nodes":"57","size_leaf_vector":"1"}},{"base_weights":[5.604631E-1,2.6385507E-1,2.070571E0,-8.5896176E-1,4.598439E-1,1.7443802E0,1.39261E-1,-1.0858574E0,-1.8370908E-2,-2.9170779E-3,6.2004644E-1,2.129411E0,1.3203766E0,-2.7841995E-2,-5.4246265E-2,5.318722E-2,-1.2759159E-2,4.9808943E-1,8.999058E-1,1.0240496E-1,5.7436522E-2,7.1349755E-2,2.5739973E-2,-2.7161133E-2,1.5459044E-2,5.667084E-1,1.1820569E-1,1.024637E0,2.079912E-2,7.4194414E-3,-1.269897E-1,6.188197E-1,1.8936873E-3,1.674655E-2,-9.918352E-3,8.2803494E-1,5.7989262E-2,-2.2119595E-1,8.390566E-4,8.743407E-3,6.5700686E-1,4.1300274E-2,2.17253E-2,-2.207892E-3,-1.5023273E-2,5.983615E-1,4.371967E-2,5.3840643E-1,3.5692833E-2,1.3757502E-2,5.933153E-1,4.6317384E-1,2.6984291E-2,1.377486E-2,2.1753674E-2],"categories":[],"categories_nodes":[],"categories_segments":[],"categories_sizes":[],"default_left":[0,0,0,0,0,0,0,0,0,0,0,0,0,0,0,0,0,0,0,0,0,0,0,0,0,0,0,0,0,0,0,0,0,0,0,0,0,0,0,0,0,0,0,0,0,0,0,0,0,0,0,0,0,0,0],"id":33,"left_children":[1,3,5,7,9,11,-1,13,-1,15,17,19,21,-1,-1,23,-1,25,27,-1,-1,-1,-1,29,-1,31,33,35,-1,-1,37,39,-1,-1,-1,41,-1,43,-1,-1,45,-1,-1,-1,-1,47,-1,49,-1,-1,51,53,-1,-1,-1],"loss_changes":[1.5263892E2,6.355209E1,1.8297348E1,3.5223217E0,1.8164993E1,4.8613434E0,0E0,1.7069874E0,0E0,1.1234922E0,5.7635727E0,2.671753E0,6.177082E0,0E0,0E0,1.4414418E0,0E0,3.295681E0,2.12463E0,0E0,0E0,0E0,0E0,9.579288E-1,0E0,2.928051E0,2.293786E0,1.8937607E0,0E0,0E0,4.3515196E-1,1.3931427E0,0E0,0E0,0E0,1.0164261E0,0E0,4.4201952E-1,0E0,0E0,1.5224037E0,0E0,0E0,0E0,0E0,8.531647E-1,0E0,5.694847E-1,0E0,0E0,1.4238167E-1,1.7910004E-3,0E0,0E0,0E0],"parents":[2147483647,0,0,1,1,2,2,3,3,4,4,5,5,7,7,9,9,10,10,11,11,12,12,15,15,17,17,18,18,23,23,25,25,26,26,27,27,30,30,31,31,35,35,37,37,40,40,45,45,47,47,50,50,51,51],"right_children":[2,4,6,8,10,12,-1,14,-1,16,18,20,22,-1,-1,24,-1,26,28,-1,-1,-1,-1,30,-1,32,34,36,-1,-1,38,40,-1,-1,-1,42,-1,44,-1,-1,46,-1,-1,-1,-1,48,-1,50,-1,-1,52,54,-1,-1,-1],"split_conditions":[5.25E0,-7.5E-1,1.095E1,6.6666665E0,9E-1,3.416111E3,1.39261E-1,-8.660254E-1,-1.8370908E-2,2.383889E3,3.1E0,3.876634E0,6.8E0,-2.7841995E-2,-5.4246265E-2,6.6666665E0,-1.2759159E-2,8E0,5.514541E0,1.0240496E-1,5.7436522E-2,7.1349755E-2,2.5739973E-2,-4.4666666E2,1.5459044E-2,3.25E0,1.3E0,4.4E0,2.079912E-2,7.4194414E-3,1.1572222E3,1E-1,1.8936873E-3,1.674655E-2,-9.918352E-3,2.699187E0,5.7989262E-2,-1.75E-1,8.390566E-4,8.743407E-3,6.6666665E0,4.1300274E-2,2.17253E-2,-2.207892E-3,-1.5023273E-2,5.5520616E0,4.371967E-2,6.019965E0,3.5692833E-2,1.3757502E-2,3.171111E0,2.05E0,2.6984291E-2,1.377486E-2,2.1753674E-2],"split_indices":[74,74,74,56,74,55,0,67,0,58,77,32,77,0,0,62,0,71,32,0,0,0,0,57,0,82,80,78,0,0,58,82,0,0,0,45,0,74,0,0,62,0,0,0,0,1,0,16,0,0,20,76,0,0,0],"split_type":[0,0,0,0,0,0,0,0,0,0,0,0,0,0,0,0,0,0,0,0,0,0,0,0,0,0,0,0,0,0,0,0,0,0,0,0,0,0,0,0,0,0,0,0,0,0,0,0,0,0,0,0,0,0,0],"sum_hessian":[3.41E2,2.86E2,5.5E1,4.2E1,2.44E2,4.6E1,9E0,2.6E1,1.6E1,6.3E1,1.81E2,2.2E1,2.4E1,1.1E1,1.5E1,5.4E1,9E0,1.28E2,5.3E1,1.3E1,9E0,1.4E1,1E1,4.4E1,1E1,1.08E2,2E1,3.9E1,1.4E1,1.4E1,3E1,9.8E1,1E1,1.1E1,9E0,2.8E1,1.1E1,1.8E1,1.2E1,9E0,8.9E1,1.6E1,1.2E1,9E0,9E0,8E1,9E0,6.8E1,1.2E1,1.6E1,5.2E1,2E1,3.2E1,9E0,1.1E1],"tree_param":{"num_deleted":"0","num_feature":"84","num_nodes":"55","size_leaf_vector":"1"}},{"base_weights":[4.694892E-1,3.8380228E-2,1.4528526E0,-7.9412436E-1,2.535636E-1,1.1951499E0,1.1857852E-1,-5.502985E-1,-1.1016006E0,1.9583723E-2,4.393192E-1,8.946896E-1,1.5690564E0,-3.1716257E-2,-3.6857268E-1,-3.0865833E-2,-5.6659434E-2,-1.252728E-2,9.401044E-2,5.110119E-1,-8.228873E-3,1.0009656E0,1.5522132E-2,1.7892547E0,2.9008176E-2,-2.048235E-2,-8.229462E-3,-8.6137176E-2,2.0553806E-1,4.013114E-1,5.954648E-1,1.124399E0,2.6540728E-2,2.1153448E0,3.995102E-2,-3.106108E-4,-8.068843E-3,1.8173534E-2,1.2719236E-1,2.1710314E-2,3.7924442E-3,6.567126E-1,1.042132E-2,5.0326634E-2,3.176989E-2,1.0887261E-1,6.302422E-2,4.255091E-2,1.2943332E-2,1.6535979E-2,7.663134E-1,-2.648485E-3,6.3413894E-3,3.9442733E-2,2.63435E-2],"categories":[],"categories_nodes":[],"categories_segments":[],"categories_sizes":[],"default_left":[0,0,0,0,0,0,0,0,0,0,0,0,0,0,0,0,0,0,0,0,0,0,0,0,0,0,0,0,0,0,0,0,0,0,0,0,0,0,0,0,0,0,0,0,0,0,0,0,0,0,0,0,0,0,0],"id":34,"left_children":[1,3,5,7,9,11,-1,13,15,17,19,21,23,-1,25,-1,-1,-1,27,29,-1,31,-1,33,-1,-1,-1,35,37,39,41,43,-1,45,-1,-1,-1,-1,47,-1,-1,49,-1,-1,-1,-1,-1,51,-1,-1,53,-1,-1,-1,-1],"loss_changes":[1.5298541E2,4.534493E1,3.7343857E1,3.2922668E0,8.727474E0,9.268875E0,0E0,9.7266865E-1,1.1106834E0,2.2065573E0,5.241684E0,2.6377487E0,6.5121613E0,0E0,3.1750584E-1,0E0,0E0,0E0,1.5044706E0,6.9674873E-1,0E0,1.2363815E0,0E0,6.4415207E0,0E0,0E0,0E0,2.5063205E-1,8.003365E-1,1.8118639E0,9.827442E-1,2.0177841E-1,0E0,2.787857E0,0E0,0E0,0E0,0E0,5.609398E-1,0E0,0E0,9.684639E-1,0E0,0E0,0E0,0E0,0E0,3.2233268E-1,0E0,0E0,1.328888E-1,0E0,0E0,0E0,0E0],"parents":[2147483647,0,0,1,1,2,2,3,3,4,4,5,5,7,7,8,8,9,9,10,10,11,11,12,12,14,14,18,18,19,19,21,21,23,23,27,27,28,28,29,29,30,30,31,31,33,33,38,38,41,41,47,47,50,50],"right_children":[2,4,6,8,10,12,-1,14,16,18,20,22,24,-1,26,-1,-1,-1,28,30,-1,32,-1,34,-1,-1,-1,36,38,40,42,44,-1,46,-1,-1,-1,-1,48,-1,-1,50,-1,-1,-1,-1,-1,52,-1,-1,54,-1,-1,-1,-1],"split_conditions":[3.05E0,-1E0,9.5E0,2.9320989E0,1.3E0,4.95E0,1.1857852E-1,6.6666665E0,-4.0277777E2,-4.75E1,6.134752E0,5.0992064E0,8.46E0,-3.1716257E-2,-3.25E0,-3.0865833E-2,-5.6659434E-2,-1.252728E-2,-2.9166666E2,3.3348541E0,-8.228873E-3,5.8187137E0,1.5522132E-2,4.240196E0,2.9008176E-2,-2.048235E-2,-8.229462E-3,-6.033333E2,2.2056835E0,1.6666666E0,8.9780456E-1,5.141667E0,2.6540728E-2,2.478355E0,3.995102E-2,-3.106108E-4,-8.068843E-3,1.8173534E-2,5.8120155E0,2.1710314E-2,3.7924442E-3,1.55E0,1.042132E-2,5.0326634E-2,3.176989E-2,1.0887261E-1,6.302422E-2,3.969017E0,1.2943332E-2,1.6535979E-2,6.0176992E0,-2.648485E-3,6.3413894E-3,3.9442733E-2,2.63435E-2],"split_indices":[74,74,74,28,74,74,0,56,59,61,45,45,76,0,80,0,0,0,60,5,0,32,0,49,0,0,0,60,17,35,68,49,0,17,0,0,0,0,30,0,0,80,0,0,0,0,0,17,0,0,16,0,0,0,0],"split_type":[0,0,0,0,0,0,0,0,0,0,0,0,0,0,0,0,0,0,0,0,0,0,0,0,0,0,0,0,0,0,0,0,0,0,0,0,0,0,0,0,0,0,0,0,0,0,0,0,0,0,0,0,0,0,0],"sum_hessian":[3.6E2,2.51E2,1.09E2,5.1E1,2E2,9.4E1,1.5E1,3E1,2.1E1,8.9E1,1.11E2,5.4E1,4E1,1.2E1,1.8E1,1.1E1,1E1,1.6E1,7.3E1,1E2,1.1E1,4.4E1,1E1,3.1E1,9E0,9E0,9E0,2.8E1,4.5E1,4.6E1,5.4E1,3.1E1,1.3E1,2.1E1,1E1,1.7E1,1.1E1,1E1,3.5E1,3.2E1,1.4E1,4.5E1,9E0,2.2E1,9E0,9E0,1.2E1,2.5E1,1E1,1.5E1,3E1,1.3E1,1.2E1,9E0,2.1E1],"tree_param":{"num_deleted":"0","num_feature":"84","num_nodes":"55","size_leaf_vector":"1"}},{"base_weights":[5.2645653E-1,2.2932287E-1,1.9330221E0,-5.4407114E-1,4.7593886E-1,2.161159E0,3.6462504E-2,-7.896283E-1,-2.0477517E-1,3.1397602E-1,7.833805E-1,2.526211E0,5.5413634E-2,-9.5186067E-1,-1.4534721E-2,4.3260898E-3,-3.307804E-1,-5.600078E-3,3.6838785E-1,6.9413558E-3,8.6102414E-1,6.371133E-2,1.3169247E-1,-1.0551779E0,-2.6228039E-2,-4.5653884E-3,-2.2961443E-2,2.2004156E-1,5.113167E-1,9.942483E-1,2.6842339E-2,-2.628818E-2,-5.3802207E-2,1.5274642E-1,2.2749534E-2,3.421202E-1,5.8479935E-1,1.0976636E0,2.5494624E-2,-5.521611E-2,2.554773E-1,6.7090066E-3,1.8252091E-2,6.570088E-1,1.3343659E-2,5.1106807E-2,3.4379333E-2,4.876909E-3,-9.892321E-3,3.4380865E-1,3.7402904E-3,4.900466E-1,3.4725174E-2,1.0967644E-2,1.7692158E-2,2.3878157E-2,1.5262379E-2],"categories":[],"categories_nodes":[],"categories_segments":[],"categories_sizes":[],"default_left":[0,0,0,0,0,0,0,0,0,0,0,0,0,0,0,0,0,0,0,0,0,0,0,0,0,0,0,0,0,0,0,0,0,0,0,0,0,0,0,0,0,0,0,0,0,0,0,0,0,0,0,0,0,0,0,0,0],"id":35,"left_children":[1,3,5,7,9,11,-1,13,15,17,19,21,-1,23,-1,-1,25,-1,27,-1,29,-1,-1,31,-1,-1,-1,33,35,37,-1,-1,-1,39,-1,41,43,45,-1,47,49,-1,-1,51,-1,-1,-1,-1,-1,53,-1,55,-1,-1,-1,-1,-1],"loss_changes":[1.5085025E2,5.747834E1,1.3078613E1,5.920412E0,1.1107094E1,1.1658676E1,0E0,2.6273823E0,1.2860414E0,3.7522316E0,3.5732155E0,1.767952E1,0E0,2.9251862E-1,0E0,0E0,1.0946605E0,0E0,2.7498894E0,0E0,1.245781E0,0E0,0E0,1.3936081E0,0E0,0E0,0E0,1.447429E0,6.453743E-1,8.5803986E-1,0E0,0E0,0E0,1.2532285E0,0E0,3.5020423E-1,6.4761925E-1,1.1193466E-1,0E0,6.7680275E-1,5.3446627E-1,0E0,0E0,6.949396E-1,0E0,0E0,0E0,0E0,0E0,5.1881313E-2,0E0,1.1639118E-2,0E0,0E0,0E0,0E0,0E0],"parents":[2147483647,0,0,1,1,2,2,3,3,4,4,5,5,7,7,8,8,9,9,10,10,11,11,13,13,16,16,18,18,20,20,23,23,27,27,28,28,29,29,33,33,35,35,36,36,37,37,39,39,40,40,